## LambdaMART
## No. of trees = 1000
## No. of leaves = 10
## No. of threshold candidates = 256
## Learning rate = 0.1
## Stop early = 100

<ensemble>
	<tree id="1" weight="0.1">
		<split>
			<feature> 9 </feature>
			<threshold> -2.2977417 </threshold>
			<split pos="left">
				<feature> 9 </feature>
				<threshold> -3.7779434 </threshold>
				<split pos="left">
					<feature> 9 </feature>
					<threshold> -4.194249 </threshold>
					<split pos="left">
						<feature> 9 </feature>
						<threshold> -4.2867613 </threshold>
						<split pos="left">
							<feature> 9 </feature>
							<threshold> -5.7206993 </threshold>
							<split pos="left">
								<feature> 9 </feature>
								<threshold> -7.2008934 </threshold>
								<split pos="left">
									<feature> 9 </feature>
									<threshold> -7.9872465 </threshold>
									<split pos="left">
										<feature> 3 </feature>
										<threshold> -20.723267 </threshold>
										<split pos="left">
											<output> -0.6197615 </output>
										</split>
										<split pos="right">
											<feature> 2 </feature>
											<threshold> 0.018232819 </threshold>
											<split pos="left">
												<output> 0.023222025 </output>
											</split>
											<split pos="right">
												<output> 0.6939133 </output>
											</split>
										</split>
									</split>
									<split pos="right">
										<output> 0.4020002 </output>
									</split>
								</split>
								<split pos="right">
									<output> -0.5871416 </output>
								</split>
							</split>
							<split pos="right">
								<output> 0.41252127 </output>
							</split>
						</split>
						<split pos="right">
							<output> -1.5921001 </output>
						</split>
					</split>
					<split pos="right">
						<output> 1.0534971 </output>
					</split>
				</split>
				<split pos="right">
					<output> -0.59641653 </output>
				</split>
			</split>
			<split pos="right">
				<output> -2.0 </output>
			</split>
		</split>
	</tree>
	<tree id="2" weight="0.1">
		<split>
			<feature> 9 </feature>
			<threshold> -3.5929182 </threshold>
			<split pos="left">
				<feature> 9 </feature>
				<threshold> -4.147993 </threshold>
				<split pos="left">
					<feature> 9 </feature>
					<threshold> -4.2867613 </threshold>
					<split pos="left">
						<feature> 9 </feature>
						<threshold> -5.9519796 </threshold>
						<split pos="left">
							<feature> 9 </feature>
							<threshold> -7.2008934 </threshold>
							<split pos="left">
								<feature> 9 </feature>
								<threshold> -7.9872465 </threshold>
								<split pos="left">
									<feature> 3 </feature>
									<threshold> -20.723267 </threshold>
									<split pos="left">
										<output> -0.8670467 </output>
									</split>
									<split pos="right">
										<feature> 2 </feature>
										<threshold> 0.018232819 </threshold>
										<split pos="left">
											<feature> 2 </feature>
											<threshold> 0.017199017 </threshold>
											<split pos="left">
												<output> 0.061608046 </output>
											</split>
											<split pos="right">
												<output> -1.4518973 </output>
											</split>
										</split>
										<split pos="right">
											<output> 0.44829017 </output>
										</split>
									</split>
								</split>
								<split pos="right">
									<output> 0.69737744 </output>
								</split>
							</split>
							<split pos="right">
								<output> -0.77386475 </output>
							</split>
						</split>
						<split pos="right">
							<output> 0.3604001 </output>
						</split>
					</split>
					<split pos="right">
						<output> -0.80246973 </output>
					</split>
				</split>
				<split pos="right">
					<output> 0.870843 </output>
				</split>
			</split>
			<split pos="right">
				<output> -0.9545951 </output>
			</split>
		</split>
	</tree>
	<tree id="3" weight="0.1">
		<split>
			<feature> 9 </feature>
			<threshold> -3.5929182 </threshold>
			<split pos="left">
				<feature> 9 </feature>
				<threshold> -4.147993 </threshold>
				<split pos="left">
					<feature> 9 </feature>
					<threshold> -4.2867613 </threshold>
					<split pos="left">
						<feature> 9 </feature>
						<threshold> -5.7206993 </threshold>
						<split pos="left">
							<feature> 9 </feature>
							<threshold> -7.2008934 </threshold>
							<split pos="left">
								<feature> 9 </feature>
								<threshold> -7.2934055 </threshold>
								<split pos="left">
									<feature> 9 </feature>
									<threshold> -7.3396616 </threshold>
									<split pos="left">
										<feature> 9 </feature>
										<threshold> -7.9872465 </threshold>
										<split pos="left">
											<feature> 3 </feature>
											<threshold> -20.723267 </threshold>
											<split pos="left">
												<output> -0.7977194 </output>
											</split>
											<split pos="right">
												<output> 0.09349411 </output>
											</split>
										</split>
										<split pos="right">
											<output> 0.6096614 </output>
										</split>
									</split>
									<split pos="right">
										<output> -2.0212343 </output>
									</split>
								</split>
								<split pos="right">
									<output> 1.0849398 </output>
								</split>
							</split>
							<split pos="right">
								<output> -0.62776655 </output>
							</split>
						</split>
						<split pos="right">
							<output> 0.43433768 </output>
						</split>
					</split>
					<split pos="right">
						<output> -0.725496 </output>
					</split>
				</split>
				<split pos="right">
					<output> 0.87104774 </output>
				</split>
			</split>
			<split pos="right">
				<output> -0.9448632 </output>
			</split>
		</split>
	</tree>
	<tree id="4" weight="0.1">
		<split>
			<feature> 9 </feature>
			<threshold> -5.9519796 </threshold>
			<split pos="left">
				<feature> 9 </feature>
				<threshold> -8.634831 </threshold>
				<split pos="left">
					<feature> 9 </feature>
					<threshold> -8.6810875 </threshold>
					<split pos="left">
						<feature> 3 </feature>
						<threshold> -20.723267 </threshold>
						<split pos="left">
							<output> -0.56248236 </output>
						</split>
						<split pos="right">
							<feature> 2 </feature>
							<threshold> 0.018232819 </threshold>
							<split pos="left">
								<output> -0.004978929 </output>
							</split>
							<split pos="right">
								<output> 0.5283331 </output>
							</split>
						</split>
					</split>
					<split pos="right">
						<output> 1.8211699 </output>
					</split>
				</split>
				<split pos="right">
					<feature> 2 </feature>
					<threshold> 0.016393442 </threshold>
					<split pos="left">
						<feature> 9 </feature>
						<threshold> -8.126015 </threshold>
						<split pos="left">
							<output> -1.3411015 </output>
						</split>
						<split pos="right">
							<output> 0.020504838 </output>
						</split>
					</split>
					<split pos="right">
						<output> -0.8132669 </output>
					</split>
				</split>
			</split>
			<split pos="right">
				<feature> 9 </feature>
				<threshold> -3.5929182 </threshold>
				<split pos="left">
					<feature> 2 </feature>
					<threshold> 0.014778325 </threshold>
					<split pos="left">
						<output> 0.33681107 </output>
					</split>
					<split pos="right">
						<output> 0.75678074 </output>
					</split>
				</split>
				<split pos="right">
					<output> -0.8554991 </output>
				</split>
			</split>
		</split>
	</tree>
	<tree id="5" weight="0.1">
		<split>
			<feature> 9 </feature>
			<threshold> -5.7206993 </threshold>
			<split pos="left">
				<feature> 2 </feature>
				<threshold> 0.014778325 </threshold>
				<split pos="left">
					<feature> 9 </feature>
					<threshold> -6.6458206 </threshold>
					<split pos="left">
						<feature> 9 </feature>
						<threshold> -6.7383327 </threshold>
						<split pos="left">
							<feature> 9 </feature>
							<threshold> -7.2471495 </threshold>
							<split pos="left">
								<feature> 9 </feature>
								<threshold> -7.2934055 </threshold>
								<split pos="left">
									<feature> 2 </feature>
									<threshold> 0.013157895 </threshold>
									<split pos="left">
										<feature> 9 </feature>
										<threshold> -7.9872465 </threshold>
										<split pos="left">
											<output> -0.09811469 </output>
										</split>
										<split pos="right">
											<output> 0.48940575 </output>
										</split>
									</split>
									<split pos="right">
										<output> -0.46749014 </output>
									</split>
								</split>
								<split pos="right">
									<output> 1.3540139 </output>
								</split>
							</split>
							<split pos="right">
								<output> -0.75856185 </output>
							</split>
						</split>
						<split pos="right">
							<output> 1.745404 </output>
						</split>
					</split>
					<split pos="right">
						<output> -0.67328703 </output>
					</split>
				</split>
				<split pos="right">
					<output> -0.32889715 </output>
				</split>
			</split>
			<split pos="right">
				<feature> 9 </feature>
				<threshold> -5.628187 </threshold>
				<split pos="left">
					<output> 1.1116551 </output>
				</split>
				<split pos="right">
					<output> 0.21547058 </output>
				</split>
			</split>
		</split>
	</tree>
	<tree id="6" weight="0.1">
		<split>
			<feature> 9 </feature>
			<threshold> -5.7206993 </threshold>
			<split pos="left">
				<feature> 9 </feature>
				<threshold> -8.634831 </threshold>
				<split pos="left">
					<feature> 9 </feature>
					<threshold> -8.6810875 </threshold>
					<split pos="left">
						<feature> 3 </feature>
						<threshold> -20.723267 </threshold>
						<split pos="left">
							<output> -0.44735816 </output>
						</split>
						<split pos="right">
							<feature> 2 </feature>
							<threshold> 0.018232819 </threshold>
							<split pos="left">
								<output> 0.06316155 </output>
							</split>
							<split pos="right">
								<output> 0.23071244 </output>
							</split>
						</split>
					</split>
					<split pos="right">
						<output> 1.6526074 </output>
					</split>
				</split>
				<split pos="right">
					<feature> 9 </feature>
					<threshold> -8.449807 </threshold>
					<split pos="left">
						<output> -1.1715994 </output>
					</split>
					<split pos="right">
						<feature> 2 </feature>
						<threshold> 0.016393442 </threshold>
						<split pos="left">
							<output> -0.14886025 </output>
						</split>
						<split pos="right">
							<output> -0.61306804 </output>
						</split>
					</split>
				</split>
			</split>
			<split pos="right">
				<feature> 9 </feature>
				<threshold> -5.628187 </threshold>
				<split pos="left">
					<output> 0.9174617 </output>
				</split>
				<split pos="right">
					<feature> 9 </feature>
					<threshold> -3.5929182 </threshold>
					<split pos="left">
						<output> 0.36307588 </output>
					</split>
					<split pos="right">
						<output> -0.74592817 </output>
					</split>
				</split>
			</split>
		</split>
	</tree>
	<tree id="7" weight="0.1">
		<split>
			<feature> 9 </feature>
			<threshold> -5.9519796 </threshold>
			<split pos="left">
				<feature> 2 </feature>
				<threshold> 0.014778325 </threshold>
				<split pos="left">
					<feature> 9 </feature>
					<threshold> -7.2471495 </threshold>
					<split pos="left">
						<feature> 9 </feature>
						<threshold> -7.9872465 </threshold>
						<split pos="left">
							<feature> 9 </feature>
							<threshold> -8.634831 </threshold>
							<split pos="left">
								<feature> 9 </feature>
								<threshold> -8.6810875 </threshold>
								<split pos="left">
									<feature> 2 </feature>
									<threshold> 0.013157895 </threshold>
									<split pos="left">
										<output> 0.08703025 </output>
									</split>
									<split pos="right">
										<output> -0.314699 </output>
									</split>
								</split>
								<split pos="right">
									<output> 1.1008872 </output>
								</split>
							</split>
							<split pos="right">
								<output> -1.0331265 </output>
							</split>
						</split>
						<split pos="right">
							<output> 0.6405643 </output>
						</split>
					</split>
					<split pos="right">
						<output> -0.48431355 </output>
					</split>
				</split>
				<split pos="right">
					<output> -0.3370856 </output>
				</split>
			</split>
			<split pos="right">
				<feature> 2 </feature>
				<threshold> 0.014778325 </threshold>
				<split pos="left">
					<feature> 9 </feature>
					<threshold> -3.5929182 </threshold>
					<split pos="left">
						<output> 0.17389883 </output>
					</split>
					<split pos="right">
						<output> -0.5052183 </output>
					</split>
				</split>
				<split pos="right">
					<output> 0.5859666 </output>
				</split>
			</split>
		</split>
	</tree>
	<tree id="8" weight="0.1">
		<split>
			<feature> 9 </feature>
			<threshold> -5.7206993 </threshold>
			<split pos="left">
				<feature> 9 </feature>
				<threshold> -8.634831 </threshold>
				<split pos="left">
					<feature> 9 </feature>
					<threshold> -8.6810875 </threshold>
					<split pos="left">
						<feature> 3 </feature>
						<threshold> -20.723267 </threshold>
						<split pos="left">
							<output> -0.3615819 </output>
						</split>
						<split pos="right">
							<feature> 2 </feature>
							<threshold> 0.018232819 </threshold>
							<split pos="left">
								<output> 0.090900704 </output>
							</split>
							<split pos="right">
								<output> 0.22262657 </output>
							</split>
						</split>
					</split>
					<split pos="right">
						<output> 1.0034527 </output>
					</split>
				</split>
				<split pos="right">
					<feature> 2 </feature>
					<threshold> 0.016393442 </threshold>
					<split pos="left">
						<output> -0.2607677 </output>
					</split>
					<split pos="right">
						<output> -0.61474574 </output>
					</split>
				</split>
			</split>
			<split pos="right">
				<feature> 9 </feature>
				<threshold> -5.628187 </threshold>
				<split pos="left">
					<output> 0.79673934 </output>
				</split>
				<split pos="right">
					<feature> 9 </feature>
					<threshold> -3.5929182 </threshold>
					<split pos="left">
						<feature> 9 </feature>
						<threshold> -4.147993 </threshold>
						<split pos="left">
							<output> 0.067095794 </output>
						</split>
						<split pos="right">
							<output> 0.6484678 </output>
						</split>
					</split>
					<split pos="right">
						<output> -0.6673561 </output>
					</split>
				</split>
			</split>
		</split>
	</tree>
	<tree id="9" weight="0.1">
		<split>
			<feature> 9 </feature>
			<threshold> -5.7206993 </threshold>
			<split pos="left">
				<feature> 9 </feature>
				<threshold> -10.76261 </threshold>
				<split pos="left">
					<feature> 9 </feature>
					<threshold> -10.8088665 </threshold>
					<split pos="left">
						<feature> 2 </feature>
						<threshold> 0.018232819 </threshold>
						<split pos="left">
							<output> -0.002376641 </output>
						</split>
						<split pos="right">
							<output> 0.28903693 </output>
						</split>
					</split>
					<split pos="right">
						<output> 2.0821135 </output>
					</split>
				</split>
				<split pos="right">
					<feature> 2 </feature>
					<threshold> 0.016393442 </threshold>
					<split pos="left">
						<feature> 2 </feature>
						<threshold> 0.013157895 </threshold>
						<split pos="left">
							<output> -0.25434715 </output>
						</split>
						<split pos="right">
							<output> 0.407336 </output>
						</split>
					</split>
					<split pos="right">
						<output> -0.56661993 </output>
					</split>
				</split>
			</split>
			<split pos="right">
				<feature> 9 </feature>
				<threshold> -5.628187 </threshold>
				<split pos="left">
					<output> 0.72534406 </output>
				</split>
				<split pos="right">
					<feature> 9 </feature>
					<threshold> -3.5929182 </threshold>
					<split pos="left">
						<feature> 9 </feature>
						<threshold> -3.6391745 </threshold>
						<split pos="left">
							<output> 0.21653306 </output>
						</split>
						<split pos="right">
							<output> 1.4055679 </output>
						</split>
					</split>
					<split pos="right">
						<output> -0.57319176 </output>
					</split>
				</split>
			</split>
		</split>
	</tree>
	<tree id="10" weight="0.1">
		<split>
			<feature> 9 </feature>
			<threshold> -4.147993 </threshold>
			<split pos="left">
				<feature> 9 </feature>
				<threshold> -4.2867613 </threshold>
				<split pos="left">
					<feature> 9 </feature>
					<threshold> -5.9519796 </threshold>
					<split pos="left">
						<feature> 9 </feature>
						<threshold> -6.275772 </threshold>
						<split pos="left">
							<feature> 9 </feature>
							<threshold> -6.322028 </threshold>
							<split pos="left">
								<feature> 9 </feature>
								<threshold> -7.2008934 </threshold>
								<split pos="left">
									<feature> 9 </feature>
									<threshold> -7.2934055 </threshold>
									<split pos="left">
										<feature> 9 </feature>
										<threshold> -7.3396616 </threshold>
										<split pos="left">
											<feature> 9 </feature>
											<threshold> -7.9872465 </threshold>
											<split pos="left">
												<output> -0.089655206 </output>
											</split>
											<split pos="right">
												<output> 0.37443376 </output>
											</split>
										</split>
										<split pos="right">
											<output> -1.5930991 </output>
										</split>
									</split>
									<split pos="right">
										<output> 1.0538379 </output>
									</split>
								</split>
								<split pos="right">
									<output> -0.63205546 </output>
								</split>
							</split>
							<split pos="right">
								<output> 1.67423 </output>
							</split>
						</split>
						<split pos="right">
							<output> -0.96815044 </output>
						</split>
					</split>
					<split pos="right">
						<output> 0.23710825 </output>
					</split>
				</split>
				<split pos="right">
					<output> -0.63549477 </output>
				</split>
			</split>
			<split pos="right">
				<output> 0.29688776 </output>
			</split>
		</split>
	</tree>
	<tree id="11" weight="0.1">
		<split>
			<feature> 9 </feature>
			<threshold> -4.147993 </threshold>
			<split pos="left">
				<feature> 9 </feature>
				<threshold> -4.2867613 </threshold>
				<split pos="left">
					<feature> 9 </feature>
					<threshold> -5.9519796 </threshold>
					<split pos="left">
						<feature> 9 </feature>
						<threshold> -6.275772 </threshold>
						<split pos="left">
							<feature> 9 </feature>
							<threshold> -6.322028 </threshold>
							<split pos="left">
								<feature> 9 </feature>
								<threshold> -11.225171 </threshold>
								<split pos="left">
									<feature> 9 </feature>
									<threshold> -11.687732 </threshold>
									<split pos="left">
										<feature> 2 </feature>
										<threshold> 0.018232819 </threshold>
										<split pos="left">
											<output> -0.03515625 </output>
										</split>
										<split pos="right">
											<output> 0.27135143 </output>
										</split>
									</split>
									<split pos="right">
										<output> 1.6841601 </output>
									</split>
								</split>
								<split pos="right">
									<feature> 2 </feature>
									<threshold> 0.016393442 </threshold>
									<split pos="left">
										<output> -0.1528731 </output>
									</split>
									<split pos="right">
										<output> -0.51826173 </output>
									</split>
								</split>
							</split>
							<split pos="right">
								<output> 1.332153 </output>
							</split>
						</split>
						<split pos="right">
							<output> -0.90848327 </output>
						</split>
					</split>
					<split pos="right">
						<output> 0.20092288 </output>
					</split>
				</split>
				<split pos="right">
					<output> -0.57142293 </output>
				</split>
			</split>
			<split pos="right">
				<output> 0.27068868 </output>
			</split>
		</split>
	</tree>
	<tree id="12" weight="0.1">
		<split>
			<feature> 9 </feature>
			<threshold> -4.194249 </threshold>
			<split pos="left">
				<feature> 9 </feature>
				<threshold> -4.2867613 </threshold>
				<split pos="left">
					<feature> 9 </feature>
					<threshold> -5.9519796 </threshold>
					<split pos="left">
						<feature> 9 </feature>
						<threshold> -6.275772 </threshold>
						<split pos="left">
							<feature> 9 </feature>
							<threshold> -6.322028 </threshold>
							<split pos="left">
								<feature> 9 </feature>
								<threshold> -11.271427 </threshold>
								<split pos="left">
									<feature> 9 </feature>
									<threshold> -11.687732 </threshold>
									<split pos="left">
										<feature> 2 </feature>
										<threshold> 0.018232819 </threshold>
										<split pos="left">
											<output> -0.06382293 </output>
										</split>
										<split pos="right">
											<output> 0.25652784 </output>
										</split>
									</split>
									<split pos="right">
										<output> 1.6683903 </output>
									</split>
								</split>
								<split pos="right">
									<feature> 2 </feature>
									<threshold> 0.016393442 </threshold>
									<split pos="left">
										<output> -0.1302843 </output>
									</split>
									<split pos="right">
										<output> -0.48183316 </output>
									</split>
								</split>
							</split>
							<split pos="right">
								<output> 1.1144451 </output>
							</split>
						</split>
						<split pos="right">
							<output> -0.8563814 </output>
						</split>
					</split>
					<split pos="right">
						<output> 0.1957326 </output>
					</split>
				</split>
				<split pos="right">
					<output> -1.2615803 </output>
				</split>
			</split>
			<split pos="right">
				<output> 0.27217713 </output>
			</split>
		</split>
	</tree>
	<tree id="13" weight="0.1">
		<split>
			<feature> 9 </feature>
			<threshold> -4.194249 </threshold>
			<split pos="left">
				<feature> 9 </feature>
				<threshold> -4.2867613 </threshold>
				<split pos="left">
					<feature> 9 </feature>
					<threshold> -5.9519796 </threshold>
					<split pos="left">
						<feature> 9 </feature>
						<threshold> -6.275772 </threshold>
						<split pos="left">
							<feature> 9 </feature>
							<threshold> -6.322028 </threshold>
							<split pos="left">
								<feature> 9 </feature>
								<threshold> -7.2008934 </threshold>
								<split pos="left">
									<feature> 9 </feature>
									<threshold> -7.2934055 </threshold>
									<split pos="left">
										<feature> 9 </feature>
										<threshold> -7.3396616 </threshold>
										<split pos="left">
											<feature> 9 </feature>
											<threshold> -7.9872465 </threshold>
											<split pos="left">
												<output> -0.081037365 </output>
											</split>
											<split pos="right">
												<output> 0.36497542 </output>
											</split>
										</split>
										<split pos="right">
											<output> -1.4710497 </output>
										</split>
									</split>
									<split pos="right">
										<output> 0.7795596 </output>
									</split>
								</split>
								<split pos="right">
									<output> -0.43359643 </output>
								</split>
							</split>
							<split pos="right">
								<output> 0.8633844 </output>
							</split>
						</split>
						<split pos="right">
							<output> -0.79882604 </output>
						</split>
					</split>
					<split pos="right">
						<output> 0.17293353 </output>
					</split>
				</split>
				<split pos="right">
					<output> -1.1799439 </output>
				</split>
			</split>
			<split pos="right">
				<output> 0.25015837 </output>
			</split>
		</split>
	</tree>
	<tree id="14" weight="0.1">
		<split>
			<feature> 9 </feature>
			<threshold> -3.5929182 </threshold>
			<split pos="left">
				<feature> 9 </feature>
				<threshold> -3.6391745 </threshold>
				<split pos="left">
					<feature> 9 </feature>
					<threshold> -4.147993 </threshold>
					<split pos="left">
						<feature> 9 </feature>
						<threshold> -4.4255295 </threshold>
						<split pos="left">
							<feature> 9 </feature>
							<threshold> -5.443163 </threshold>
							<split pos="left">
								<feature> 9 </feature>
								<threshold> -5.535675 </threshold>
								<split pos="left">
									<feature> 9 </feature>
									<threshold> -11.271427 </threshold>
									<split pos="left">
										<feature> 9 </feature>
										<threshold> -11.687732 </threshold>
										<split pos="left">
											<output> 0.04080995 </output>
										</split>
										<split pos="right">
											<output> 1.5568049 </output>
										</split>
									</split>
									<split pos="right">
										<feature> 9 </feature>
										<threshold> -5.7206993 </threshold>
										<split pos="left">
											<output> -0.20005852 </output>
										</split>
										<split pos="right">
											<output> 0.280269 </output>
										</split>
									</split>
								</split>
								<split pos="right">
									<output> -2.385616 </output>
								</split>
							</split>
							<split pos="right">
								<output> 0.29887867 </output>
							</split>
						</split>
						<split pos="right">
							<output> -0.4247677 </output>
						</split>
					</split>
					<split pos="right">
						<output> 0.3944685 </output>
					</split>
				</split>
				<split pos="right">
					<output> 1.2219149 </output>
				</split>
			</split>
			<split pos="right">
				<output> -0.55614924 </output>
			</split>
		</split>
	</tree>
	<tree id="15" weight="0.1">
		<split>
			<feature> 9 </feature>
			<threshold> -5.9519796 </threshold>
			<split pos="left">
				<feature> 9 </feature>
				<threshold> -6.275772 </threshold>
				<split pos="left">
					<feature> 9 </feature>
					<threshold> -6.368284 </threshold>
					<split pos="left">
						<feature> 9 </feature>
						<threshold> -6.5533085 </threshold>
						<split pos="left">
							<feature> 9 </feature>
							<threshold> -6.7383327 </threshold>
							<split pos="left">
								<feature> 9 </feature>
								<threshold> -7.2008934 </threshold>
								<split pos="left">
									<feature> 9 </feature>
									<threshold> -7.2934055 </threshold>
									<split pos="left">
										<feature> 9 </feature>
										<threshold> -7.3396616 </threshold>
										<split pos="left">
											<feature> 9 </feature>
											<threshold> -7.9872465 </threshold>
											<split pos="left">
												<output> -0.06943675 </output>
											</split>
											<split pos="right">
												<output> 0.32812795 </output>
											</split>
										</split>
										<split pos="right">
											<output> -1.398535 </output>
										</split>
									</split>
									<split pos="right">
										<output> 0.72319376 </output>
									</split>
								</split>
								<split pos="right">
									<output> -0.69256425 </output>
								</split>
							</split>
							<split pos="right">
								<output> 0.95037305 </output>
							</split>
						</split>
						<split pos="right">
							<output> -1.2692485 </output>
						</split>
					</split>
					<split pos="right">
						<output> 0.94848955 </output>
					</split>
				</split>
				<split pos="right">
					<output> -0.72423357 </output>
				</split>
			</split>
			<split pos="right">
				<output> 0.1442298 </output>
			</split>
		</split>
	</tree>
	<tree id="16" weight="0.1">
		<split>
			<feature> 9 </feature>
			<threshold> -3.5929182 </threshold>
			<split pos="left">
				<feature> 9 </feature>
				<threshold> -3.6391745 </threshold>
				<split pos="left">
					<feature> 9 </feature>
					<threshold> -3.6854308 </threshold>
					<split pos="left">
						<feature> 9 </feature>
						<threshold> -4.194249 </threshold>
						<split pos="left">
							<feature> 9 </feature>
							<threshold> -4.2867613 </threshold>
							<split pos="left">
								<feature> 9 </feature>
								<threshold> -5.443163 </threshold>
								<split pos="left">
									<feature> 9 </feature>
									<threshold> -5.581931 </threshold>
									<split pos="left">
										<feature> 9 </feature>
										<threshold> -5.7206993 </threshold>
										<split pos="left">
											<feature> 9 </feature>
											<threshold> -11.271427 </threshold>
											<split pos="left">
												<output> 0.052861333 </output>
											</split>
											<split pos="right">
												<output> -0.17641097 </output>
											</split>
										</split>
										<split pos="right">
											<output> 0.48875752 </output>
										</split>
									</split>
									<split pos="right">
										<output> -1.31951 </output>
									</split>
								</split>
								<split pos="right">
									<output> 0.18945996 </output>
								</split>
							</split>
							<split pos="right">
								<output> -1.0832692 </output>
							</split>
						</split>
						<split pos="right">
							<output> 0.44561055 </output>
						</split>
					</split>
					<split pos="right">
						<output> -1.9856088 </output>
					</split>
				</split>
				<split pos="right">
					<output> 0.99910986 </output>
				</split>
			</split>
			<split pos="right">
				<output> -0.4990424 </output>
			</split>
		</split>
	</tree>
	<tree id="17" weight="0.1">
		<split>
			<feature> 9 </feature>
			<threshold> -3.5929182 </threshold>
			<split pos="left">
				<feature> 9 </feature>
				<threshold> -3.6391745 </threshold>
				<split pos="left">
					<feature> 9 </feature>
					<threshold> -4.147993 </threshold>
					<split pos="left">
						<feature> 9 </feature>
						<threshold> -4.2867613 </threshold>
						<split pos="left">
							<feature> 9 </feature>
							<threshold> -5.443163 </threshold>
							<split pos="left">
								<feature> 9 </feature>
								<threshold> -5.535675 </threshold>
								<split pos="left">
									<feature> 9 </feature>
									<threshold> -11.271427 </threshold>
									<split pos="left">
										<feature> 9 </feature>
										<threshold> -11.687732 </threshold>
										<split pos="left">
											<feature> 2 </feature>
											<threshold> 0.018232819 </threshold>
											<split pos="left">
												<output> 9.49337E-4 </output>
											</split>
											<split pos="right">
												<output> 0.25266403 </output>
											</split>
										</split>
										<split pos="right">
											<output> 1.4739438 </output>
										</split>
									</split>
									<split pos="right">
										<output> -0.14962935 </output>
									</split>
								</split>
								<split pos="right">
									<output> -1.9507136 </output>
								</split>
							</split>
							<split pos="right">
								<output> 0.21092297 </output>
							</split>
						</split>
						<split pos="right">
							<output> -0.44922498 </output>
						</split>
					</split>
					<split pos="right">
						<output> 0.30232018 </output>
					</split>
				</split>
				<split pos="right">
					<output> 0.92778563 </output>
				</split>
			</split>
			<split pos="right">
				<output> -0.4988261 </output>
			</split>
		</split>
	</tree>
	<tree id="18" weight="0.1">
		<split>
			<feature> 9 </feature>
			<threshold> -3.5929182 </threshold>
			<split pos="left">
				<feature> 9 </feature>
				<threshold> -3.6391745 </threshold>
				<split pos="left">
					<feature> 9 </feature>
					<threshold> -3.870456 </threshold>
					<split pos="left">
						<feature> 9 </feature>
						<threshold> -3.9167123 </threshold>
						<split pos="left">
							<feature> 9 </feature>
							<threshold> -4.009225 </threshold>
							<split pos="left">
								<feature> 9 </feature>
								<threshold> -4.101737 </threshold>
								<split pos="left">
									<feature> 9 </feature>
									<threshold> -5.9519796 </threshold>
									<split pos="left">
										<feature> 2 </feature>
										<threshold> 0.014778325 </threshold>
										<split pos="left">
											<feature> 9 </feature>
											<threshold> -7.9872465 </threshold>
											<split pos="left">
												<output> -0.09193564 </output>
											</split>
											<split pos="right">
												<output> 0.16790837 </output>
											</split>
										</split>
										<split pos="right">
											<output> -0.1957899 </output>
										</split>
									</split>
									<split pos="right">
										<output> 0.13086417 </output>
									</split>
								</split>
								<split pos="right">
									<output> 1.3582371 </output>
								</split>
							</split>
							<split pos="right">
								<output> -0.75360197 </output>
							</split>
						</split>
						<split pos="right">
							<output> 1.3163615 </output>
						</split>
					</split>
					<split pos="right">
						<output> -0.65890867 </output>
					</split>
				</split>
				<split pos="right">
					<output> 0.8594215 </output>
				</split>
			</split>
			<split pos="right">
				<output> -0.46398568 </output>
			</split>
		</split>
	</tree>
	<tree id="19" weight="0.1">
		<split>
			<feature> 9 </feature>
			<threshold> -3.0840988 </threshold>
			<split pos="left">
				<feature> 9 </feature>
				<threshold> -3.3616366 </threshold>
				<split pos="left">
					<feature> 9 </feature>
					<threshold> -4.147993 </threshold>
					<split pos="left">
						<feature> 9 </feature>
						<threshold> -4.6105537 </threshold>
						<split pos="left">
							<feature> 9 </feature>
							<threshold> -4.65681 </threshold>
							<split pos="left">
								<feature> 9 </feature>
								<threshold> -5.443163 </threshold>
								<split pos="left">
									<feature> 9 </feature>
									<threshold> -5.535675 </threshold>
									<split pos="left">
										<feature> 9 </feature>
										<threshold> -11.271427 </threshold>
										<split pos="left">
											<feature> 9 </feature>
											<threshold> -11.687732 </threshold>
											<split pos="left">
												<output> 0.048612706 </output>
											</split>
											<split pos="right">
												<output> 1.4094611 </output>
											</split>
										</split>
										<split pos="right">
											<output> -0.13977656 </output>
										</split>
									</split>
									<split pos="right">
										<output> -1.7964205 </output>
									</split>
								</split>
								<split pos="right">
									<output> 0.25755963 </output>
								</split>
							</split>
							<split pos="right">
								<output> 1.2765077 </output>
							</split>
						</split>
						<split pos="right">
							<output> -0.30776152 </output>
						</split>
					</split>
					<split pos="right">
						<output> 0.26822913 </output>
					</split>
				</split>
				<split pos="right">
					<output> -1.4086143 </output>
				</split>
			</split>
			<split pos="right">
				<output> 0.77382773 </output>
			</split>
		</split>
	</tree>
	<tree id="20" weight="0.1">
		<split>
			<feature> 9 </feature>
			<threshold> -3.0840988 </threshold>
			<split pos="left">
				<feature> 9 </feature>
				<threshold> -3.3616366 </threshold>
				<split pos="left">
					<feature> 9 </feature>
					<threshold> -4.194249 </threshold>
					<split pos="left">
						<feature> 9 </feature>
						<threshold> -4.2867613 </threshold>
						<split pos="left">
							<feature> 9 </feature>
							<threshold> -5.9519796 </threshold>
							<split pos="left">
								<feature> 9 </feature>
								<threshold> -6.275772 </threshold>
								<split pos="left">
									<feature> 9 </feature>
									<threshold> -6.368284 </threshold>
									<split pos="left">
										<feature> 9 </feature>
										<threshold> -6.5533085 </threshold>
										<split pos="left">
											<feature> 9 </feature>
											<threshold> -6.7383327 </threshold>
											<split pos="left">
												<output> -0.051366616 </output>
											</split>
											<split pos="right">
												<output> 0.94339436 </output>
											</split>
										</split>
										<split pos="right">
											<output> -1.1859243 </output>
										</split>
									</split>
									<split pos="right">
										<output> 0.9553968 </output>
									</split>
								</split>
								<split pos="right">
									<output> -0.6832814 </output>
								</split>
							</split>
							<split pos="right">
								<output> 0.15188056 </output>
							</split>
						</split>
						<split pos="right">
							<output> -0.96191674 </output>
						</split>
					</split>
					<split pos="right">
						<output> 0.2722746 </output>
					</split>
				</split>
				<split pos="right">
					<output> -1.3524377 </output>
				</split>
			</split>
			<split pos="right">
				<output> 0.7908983 </output>
			</split>
		</split>
	</tree>
	<tree id="21" weight="0.1">
		<split>
			<feature> 9 </feature>
			<threshold> -3.0840988 </threshold>
			<split pos="left">
				<feature> 9 </feature>
				<threshold> -3.3616366 </threshold>
				<split pos="left">
					<feature> 9 </feature>
					<threshold> -4.147993 </threshold>
					<split pos="left">
						<feature> 9 </feature>
						<threshold> -11.271427 </threshold>
						<split pos="left">
							<feature> 9 </feature>
							<threshold> -11.687732 </threshold>
							<split pos="left">
								<feature> 2 </feature>
								<threshold> 0.018232819 </threshold>
								<split pos="left">
									<output> 0.014873023 </output>
								</split>
								<split pos="right">
									<output> 0.23901556 </output>
								</split>
							</split>
							<split pos="right">
								<output> 1.3555515 </output>
							</split>
						</split>
						<split pos="right">
							<feature> 9 </feature>
							<threshold> -7.9872465 </threshold>
							<split pos="left">
								<output> -0.33369023 </output>
							</split>
							<split pos="right">
								<feature> 9 </feature>
								<threshold> -7.9409904 </threshold>
								<split pos="left">
									<output> 1.0695399 </output>
								</split>
								<split pos="right">
									<feature> 2 </feature>
									<threshold> 0.017199017 </threshold>
									<split pos="left">
										<output> -0.014393802 </output>
									</split>
									<split pos="right">
										<output> -0.2115686 </output>
									</split>
								</split>
							</split>
						</split>
					</split>
					<split pos="right">
						<output> 0.2029031 </output>
					</split>
				</split>
				<split pos="right">
					<output> -1.3000693 </output>
				</split>
			</split>
			<split pos="right">
				<output> 0.7484051 </output>
			</split>
		</split>
	</tree>
	<tree id="22" weight="0.1">
		<split>
			<feature> 9 </feature>
			<threshold> -3.0840988 </threshold>
			<split pos="left">
				<feature> 9 </feature>
				<threshold> -3.3616366 </threshold>
				<split pos="left">
					<feature> 9 </feature>
					<threshold> -4.147993 </threshold>
					<split pos="left">
						<feature> 9 </feature>
						<threshold> -11.271427 </threshold>
						<split pos="left">
							<feature> 9 </feature>
							<threshold> -11.687732 </threshold>
							<split pos="left">
								<feature> 2 </feature>
								<threshold> 0.018232819 </threshold>
								<split pos="left">
									<output> 0.013297635 </output>
								</split>
								<split pos="right">
									<output> 0.22066614 </output>
								</split>
							</split>
							<split pos="right">
								<output> 1.3087366 </output>
							</split>
						</split>
						<split pos="right">
							<feature> 9 </feature>
							<threshold> -7.9872465 </threshold>
							<split pos="left">
								<output> -0.30359176 </output>
							</split>
							<split pos="right">
								<feature> 9 </feature>
								<threshold> -7.9409904 </threshold>
								<split pos="left">
									<output> 0.994499 </output>
								</split>
								<split pos="right">
									<feature> 2 </feature>
									<threshold> 0.017199017 </threshold>
									<split pos="left">
										<output> -0.010385034 </output>
									</split>
									<split pos="right">
										<output> -0.19905101 </output>
									</split>
								</split>
							</split>
						</split>
					</split>
					<split pos="right">
						<output> 0.17867312 </output>
					</split>
				</split>
				<split pos="right">
					<output> -1.2595665 </output>
				</split>
			</split>
			<split pos="right">
				<output> 0.70760244 </output>
			</split>
		</split>
	</tree>
	<tree id="23" weight="0.1">
		<split>
			<feature> 9 </feature>
			<threshold> -3.0840988 </threshold>
			<split pos="left">
				<feature> 9 </feature>
				<threshold> -3.3616366 </threshold>
				<split pos="left">
					<feature> 9 </feature>
					<threshold> -4.194249 </threshold>
					<split pos="left">
						<feature> 9 </feature>
						<threshold> -4.2867613 </threshold>
						<split pos="left">
							<feature> 9 </feature>
							<threshold> -5.9519796 </threshold>
							<split pos="left">
								<feature> 9 </feature>
								<threshold> -6.275772 </threshold>
								<split pos="left">
									<feature> 9 </feature>
									<threshold> -6.322028 </threshold>
									<split pos="left">
										<feature> 9 </feature>
										<threshold> -6.5995646 </threshold>
										<split pos="left">
											<feature> 9 </feature>
											<threshold> -6.7383327 </threshold>
											<split pos="left">
												<output> -0.0395914 </output>
											</split>
											<split pos="right">
												<output> 1.0751405 </output>
											</split>
										</split>
										<split pos="right">
											<output> -0.7669957 </output>
										</split>
									</split>
									<split pos="right">
										<output> 0.8119053 </output>
									</split>
								</split>
								<split pos="right">
									<output> -0.63472635 </output>
								</split>
							</split>
							<split pos="right">
								<output> 0.1338437 </output>
							</split>
						</split>
						<split pos="right">
							<output> -0.9252015 </output>
						</split>
					</split>
					<split pos="right">
						<output> 0.19496092 </output>
					</split>
				</split>
				<split pos="right">
					<output> -1.2222415 </output>
				</split>
			</split>
			<split pos="right">
				<output> 0.6978344 </output>
			</split>
		</split>
	</tree>
	<tree id="24" weight="0.1">
		<split>
			<feature> 9 </feature>
			<threshold> -3.0840988 </threshold>
			<split pos="left">
				<feature> 9 </feature>
				<threshold> -3.5929182 </threshold>
				<split pos="left">
					<feature> 9 </feature>
					<threshold> -3.6391745 </threshold>
					<split pos="left">
						<feature> 9 </feature>
						<threshold> -3.870456 </threshold>
						<split pos="left">
							<feature> 9 </feature>
							<threshold> -3.9167123 </threshold>
							<split pos="left">
								<feature> 9 </feature>
								<threshold> -4.009225 </threshold>
								<split pos="left">
									<feature> 9 </feature>
									<threshold> -4.101737 </threshold>
									<split pos="left">
										<feature> 9 </feature>
										<threshold> -11.271427 </threshold>
										<split pos="left">
											<output> 0.06521681 </output>
										</split>
										<split pos="right">
											<feature> 9 </feature>
											<threshold> -11.178915 </threshold>
											<split pos="left">
												<output> -1.7004515 </output>
											</split>
											<split pos="right">
												<output> -0.052900326 </output>
											</split>
										</split>
									</split>
									<split pos="right">
										<output> 1.2898777 </output>
									</split>
								</split>
								<split pos="right">
									<output> -0.6486394 </output>
								</split>
							</split>
							<split pos="right">
								<output> 1.1850041 </output>
							</split>
						</split>
						<split pos="right">
							<output> -0.74768317 </output>
						</split>
					</split>
					<split pos="right">
						<output> 0.7257995 </output>
					</split>
				</split>
				<split pos="right">
					<output> -0.9798488 </output>
				</split>
			</split>
			<split pos="right">
				<output> 0.66122967 </output>
			</split>
		</split>
	</tree>
	<tree id="25" weight="0.1">
		<split>
			<feature> 9 </feature>
			<threshold> -3.0840988 </threshold>
			<split pos="left">
				<feature> 9 </feature>
				<threshold> -3.5929182 </threshold>
				<split pos="left">
					<feature> 9 </feature>
					<threshold> -3.6391745 </threshold>
					<split pos="left">
						<feature> 9 </feature>
						<threshold> -3.870456 </threshold>
						<split pos="left">
							<feature> 9 </feature>
							<threshold> -3.9167123 </threshold>
							<split pos="left">
								<feature> 9 </feature>
								<threshold> -4.009225 </threshold>
								<split pos="left">
									<feature> 9 </feature>
									<threshold> -4.101737 </threshold>
									<split pos="left">
										<feature> 9 </feature>
										<threshold> -8.634831 </threshold>
										<split pos="left">
											<feature> 9 </feature>
											<threshold> -8.6810875 </threshold>
											<split pos="left">
												<output> 0.018228428 </output>
											</split>
											<split pos="right">
												<output> 1.0028216 </output>
											</split>
										</split>
										<split pos="right">
											<output> -0.06562419 </output>
										</split>
									</split>
									<split pos="right">
										<output> 1.2560673 </output>
									</split>
								</split>
								<split pos="right">
									<output> -0.56773746 </output>
								</split>
							</split>
							<split pos="right">
								<output> 1.1320668 </output>
							</split>
						</split>
						<split pos="right">
							<output> -0.6623763 </output>
						</split>
					</split>
					<split pos="right">
						<output> 0.6722008 </output>
					</split>
				</split>
				<split pos="right">
					<output> -0.9363895 </output>
				</split>
			</split>
			<split pos="right">
				<output> 0.615314 </output>
			</split>
		</split>
	</tree>
	<tree id="26" weight="0.1">
		<split>
			<feature> 9 </feature>
			<threshold> -3.0840988 </threshold>
			<split pos="left">
				<feature> 9 </feature>
				<threshold> -3.5929182 </threshold>
				<split pos="left">
					<feature> 9 </feature>
					<threshold> -3.6391745 </threshold>
					<split pos="left">
						<feature> 9 </feature>
						<threshold> -3.6854308 </threshold>
						<split pos="left">
							<feature> 9 </feature>
							<threshold> -4.147993 </threshold>
							<split pos="left">
								<feature> 9 </feature>
								<threshold> -10.76261 </threshold>
								<split pos="left">
									<feature> 9 </feature>
									<threshold> -10.8088665 </threshold>
									<split pos="left">
										<feature> 2 </feature>
										<threshold> 0.018232819 </threshold>
										<split pos="left">
											<output> 0.006762483 </output>
										</split>
										<split pos="right">
											<output> 0.19216669 </output>
										</split>
									</split>
									<split pos="right">
										<output> 2.0419946 </output>
									</split>
								</split>
								<split pos="right">
									<feature> 9 </feature>
									<threshold> -7.9872465 </threshold>
									<split pos="left">
										<output> -0.2814561 </output>
									</split>
									<split pos="right">
										<output> 0.007943621 </output>
									</split>
								</split>
							</split>
							<split pos="right">
								<output> 0.283299 </output>
							</split>
						</split>
						<split pos="right">
							<output> -1.4568304 </output>
						</split>
					</split>
					<split pos="right">
						<output> 0.6205857 </output>
					</split>
				</split>
				<split pos="right">
					<output> -0.89687806 </output>
				</split>
			</split>
			<split pos="right">
				<output> 0.5725833 </output>
			</split>
		</split>
	</tree>
	<tree id="27" weight="0.1">
		<split>
			<feature> 9 </feature>
			<threshold> -2.2977417 </threshold>
			<split pos="left">
				<feature> 9 </feature>
				<threshold> -3.0840988 </threshold>
				<split pos="left">
					<feature> 9 </feature>
					<threshold> -3.5929182 </threshold>
					<split pos="left">
						<feature> 9 </feature>
						<threshold> -3.6391745 </threshold>
						<split pos="left">
							<feature> 9 </feature>
							<threshold> -3.870456 </threshold>
							<split pos="left">
								<feature> 9 </feature>
								<threshold> -3.9167123 </threshold>
								<split pos="left">
									<feature> 9 </feature>
									<threshold> -4.009225 </threshold>
									<split pos="left">
										<feature> 9 </feature>
										<threshold> -4.101737 </threshold>
										<split pos="left">
											<feature> 9 </feature>
											<threshold> -8.634831 </threshold>
											<split pos="left">
												<output> 0.04589889 </output>
											</split>
											<split pos="right">
												<output> -0.06536564 </output>
											</split>
										</split>
										<split pos="right">
											<output> 1.2220217 </output>
										</split>
									</split>
									<split pos="right">
										<output> -0.5363694 </output>
									</split>
								</split>
								<split pos="right">
									<output> 1.0738084 </output>
								</split>
							</split>
							<split pos="right">
								<output> -0.5522371 </output>
							</split>
						</split>
						<split pos="right">
							<output> 0.57889867 </output>
						</split>
					</split>
					<split pos="right">
						<output> -0.8578379 </output>
					</split>
				</split>
				<split pos="right">
					<output> 0.7473074 </output>
				</split>
			</split>
			<split pos="right">
				<output> -1.6245893 </output>
			</split>
		</split>
	</tree>
	<tree id="28" weight="0.1">
		<split>
			<feature> 9 </feature>
			<threshold> -5.9519796 </threshold>
			<split pos="left">
				<feature> 2 </feature>
				<threshold> 0.014778325 </threshold>
				<split pos="left">
					<feature> 9 </feature>
					<threshold> -8.126015 </threshold>
					<split pos="left">
						<feature> 9 </feature>
						<threshold> -8.634831 </threshold>
						<split pos="left">
							<feature> 9 </feature>
							<threshold> -8.6810875 </threshold>
							<split pos="left">
								<feature> 2 </feature>
								<threshold> 0.012693935 </threshold>
								<split pos="left">
									<feature> 2 </feature>
									<threshold> 0.00990099 </threshold>
									<split pos="left">
										<feature> 9 </feature>
										<threshold> -9.00488 </threshold>
										<split pos="left">
											<output> -0.03696362 </output>
										</split>
										<split pos="right">
											<output> 1.0844344 </output>
										</split>
									</split>
									<split pos="right">
										<output> 0.30451173 </output>
									</split>
								</split>
								<split pos="right">
									<output> -0.2720226 </output>
								</split>
							</split>
							<split pos="right">
								<output> 0.94045186 </output>
							</split>
						</split>
						<split pos="right">
							<output> -1.0060867 </output>
						</split>
					</split>
					<split pos="right">
						<output> 0.124775656 </output>
					</split>
				</split>
				<split pos="right">
					<output> -0.16419011 </output>
				</split>
			</split>
			<split pos="right">
				<feature> 2 </feature>
				<threshold> 0.014778325 </threshold>
				<split pos="left">
					<output> 0.034159157 </output>
				</split>
				<split pos="right">
					<output> 0.34300026 </output>
				</split>
			</split>
		</split>
	</tree>
	<tree id="29" weight="0.1">
		<split>
			<feature> 9 </feature>
			<threshold> -2.2977417 </threshold>
			<split pos="left">
				<feature> 9 </feature>
				<threshold> -3.0840988 </threshold>
				<split pos="left">
					<feature> 9 </feature>
					<threshold> -3.5929182 </threshold>
					<split pos="left">
						<feature> 9 </feature>
						<threshold> -3.6391745 </threshold>
						<split pos="left">
							<feature> 9 </feature>
							<threshold> -3.6854308 </threshold>
							<split pos="left">
								<feature> 9 </feature>
								<threshold> -4.194249 </threshold>
								<split pos="left">
									<feature> 9 </feature>
									<threshold> -4.2867613 </threshold>
									<split pos="left">
										<feature> 9 </feature>
										<threshold> -5.9519796 </threshold>
										<split pos="left">
											<feature> 9 </feature>
											<threshold> -7.2008934 </threshold>
											<split pos="left">
												<output> 0.004885419 </output>
											</split>
											<split pos="right">
												<output> -0.3178014 </output>
											</split>
										</split>
										<split pos="right">
											<output> 0.10532217 </output>
										</split>
									</split>
									<split pos="right">
										<output> -0.83219045 </output>
									</split>
								</split>
								<split pos="right">
									<output> 0.29031596 </output>
								</split>
							</split>
							<split pos="right">
								<output> -1.3330396 </output>
							</split>
						</split>
						<split pos="right">
							<output> 0.53329325 </output>
						</split>
					</split>
					<split pos="right">
						<output> -0.8329283 </output>
					</split>
				</split>
				<split pos="right">
					<output> 0.70687586 </output>
				</split>
			</split>
			<split pos="right">
				<output> -1.5535899 </output>
			</split>
		</split>
	</tree>
	<tree id="30" weight="0.1">
		<split>
			<feature> 9 </feature>
			<threshold> -3.0840988 </threshold>
			<split pos="left">
				<feature> 9 </feature>
				<threshold> -3.3616366 </threshold>
				<split pos="left">
					<feature> 9 </feature>
					<threshold> -5.443163 </threshold>
					<split pos="left">
						<feature> 9 </feature>
						<threshold> -5.581931 </threshold>
						<split pos="left">
							<feature> 9 </feature>
							<threshold> -5.7206993 </threshold>
							<split pos="left">
								<feature> 9 </feature>
								<threshold> -7.2008934 </threshold>
								<split pos="left">
									<feature> 9 </feature>
									<threshold> -7.2934055 </threshold>
									<split pos="left">
										<feature> 9 </feature>
										<threshold> -7.3396616 </threshold>
										<split pos="left">
											<feature> 9 </feature>
											<threshold> -7.9872465 </threshold>
											<split pos="left">
												<output> -0.029474158 </output>
											</split>
											<split pos="right">
												<output> 0.24485558 </output>
											</split>
										</split>
										<split pos="right">
											<output> -1.2993981 </output>
										</split>
									</split>
									<split pos="right">
										<output> 0.676246 </output>
									</split>
								</split>
								<split pos="right">
									<output> -0.27151102 </output>
								</split>
							</split>
							<split pos="right">
								<output> 0.4081057 </output>
							</split>
						</split>
						<split pos="right">
							<output> -1.1040032 </output>
						</split>
					</split>
					<split pos="right">
						<output> 0.09135187 </output>
					</split>
				</split>
				<split pos="right">
					<output> -1.091658 </output>
				</split>
			</split>
			<split pos="right">
				<output> 0.6182115 </output>
			</split>
		</split>
	</tree>
	<tree id="31" weight="0.1">
		<split>
			<feature> 9 </feature>
			<threshold> -3.0840988 </threshold>
			<split pos="left">
				<feature> 9 </feature>
				<threshold> -3.5929182 </threshold>
				<split pos="left">
					<feature> 9 </feature>
					<threshold> -3.6391745 </threshold>
					<split pos="left">
						<feature> 9 </feature>
						<threshold> -3.870456 </threshold>
						<split pos="left">
							<feature> 9 </feature>
							<threshold> -3.9167123 </threshold>
							<split pos="left">
								<feature> 9 </feature>
								<threshold> -4.009225 </threshold>
								<split pos="left">
									<feature> 9 </feature>
									<threshold> -4.101737 </threshold>
									<split pos="left">
										<feature> 9 </feature>
										<threshold> -4.194249 </threshold>
										<split pos="left">
											<feature> 9 </feature>
											<threshold> -4.2867613 </threshold>
											<split pos="left">
												<output> -0.00986011 </output>
											</split>
											<split pos="right">
												<output> -0.82262444 </output>
											</split>
										</split>
										<split pos="right">
											<output> 0.28040624 </output>
										</split>
									</split>
									<split pos="right">
										<output> 1.1926723 </output>
									</split>
								</split>
								<split pos="right">
									<output> -0.527213 </output>
								</split>
							</split>
							<split pos="right">
								<output> 1.0195676 </output>
							</split>
						</split>
						<split pos="right">
							<output> -0.5270682 </output>
						</split>
					</split>
					<split pos="right">
						<output> 0.5001642 </output>
					</split>
				</split>
				<split pos="right">
					<output> -0.7751101 </output>
				</split>
			</split>
			<split pos="right">
				<output> 0.58505726 </output>
			</split>
		</split>
	</tree>
	<tree id="32" weight="0.1">
		<split>
			<feature> 9 </feature>
			<threshold> -3.0840988 </threshold>
			<split pos="left">
				<feature> 9 </feature>
				<threshold> -3.5929182 </threshold>
				<split pos="left">
					<feature> 9 </feature>
					<threshold> -3.6391745 </threshold>
					<split pos="left">
						<feature> 9 </feature>
						<threshold> -3.6854308 </threshold>
						<split pos="left">
							<feature> 9 </feature>
							<threshold> -4.194249 </threshold>
							<split pos="left">
								<feature> 9 </feature>
								<threshold> -4.2867613 </threshold>
								<split pos="left">
									<feature> 9 </feature>
									<threshold> -10.76261 </threshold>
									<split pos="left">
										<feature> 9 </feature>
										<threshold> -10.8088665 </threshold>
										<split pos="left">
											<output> 0.036504664 </output>
										</split>
										<split pos="right">
											<output> 1.8694544 </output>
										</split>
									</split>
									<split pos="right">
										<feature> 9 </feature>
										<threshold> -7.9872465 </threshold>
										<split pos="left">
											<output> -0.2609067 </output>
										</split>
										<split pos="right">
											<output> 0.023032837 </output>
										</split>
									</split>
								</split>
								<split pos="right">
									<output> -0.78054154 </output>
								</split>
							</split>
							<split pos="right">
								<output> 0.19656192 </output>
							</split>
						</split>
						<split pos="right">
							<output> -1.2715403 </output>
						</split>
					</split>
					<split pos="right">
						<output> 0.4650986 </output>
					</split>
				</split>
				<split pos="right">
					<output> -0.74147105 </output>
				</split>
			</split>
			<split pos="right">
				<output> 0.5524275 </output>
			</split>
		</split>
	</tree>
	<tree id="33" weight="0.1">
		<split>
			<feature> 9 </feature>
			<threshold> -3.0840988 </threshold>
			<split pos="left">
				<feature> 9 </feature>
				<threshold> -3.870456 </threshold>
				<split pos="left">
					<feature> 9 </feature>
					<threshold> -3.9167123 </threshold>
					<split pos="left">
						<feature> 9 </feature>
						<threshold> -4.009225 </threshold>
						<split pos="left">
							<feature> 9 </feature>
							<threshold> -4.101737 </threshold>
							<split pos="left">
								<feature> 9 </feature>
								<threshold> -10.76261 </threshold>
								<split pos="left">
									<output> 0.04959538 </output>
								</split>
								<split pos="right">
									<feature> 9 </feature>
									<threshold> -10.577586 </threshold>
									<split pos="left">
										<output> -1.8730241 </output>
									</split>
									<split pos="right">
										<feature> 9 </feature>
										<threshold> -10.438818 </threshold>
										<split pos="left">
											<output> 1.581657 </output>
										</split>
										<split pos="right">
											<feature> 9 </feature>
											<threshold> -10.207538 </threshold>
											<split pos="left">
												<output> -0.91876197 </output>
											</split>
											<split pos="right">
												<output> -0.034609124 </output>
											</split>
										</split>
									</split>
								</split>
							</split>
							<split pos="right">
								<output> 1.169647 </output>
							</split>
						</split>
						<split pos="right">
							<output> -0.48888808 </output>
						</split>
					</split>
					<split pos="right">
						<output> 0.976953 </output>
					</split>
				</split>
				<split pos="right">
					<output> -0.31680846 </output>
				</split>
			</split>
			<split pos="right">
				<output> 0.52831155 </output>
			</split>
		</split>
	</tree>
	<tree id="34" weight="0.1">
		<split>
			<feature> 9 </feature>
			<threshold> -2.2977417 </threshold>
			<split pos="left">
				<feature> 9 </feature>
				<threshold> -3.0840988 </threshold>
				<split pos="left">
					<feature> 9 </feature>
					<threshold> -3.407893 </threshold>
					<split pos="left">
						<feature> 9 </feature>
						<threshold> -6.18326 </threshold>
						<split pos="left">
							<feature> 9 </feature>
							<threshold> -6.275772 </threshold>
							<split pos="left">
								<feature> 9 </feature>
								<threshold> -6.368284 </threshold>
								<split pos="left">
									<feature> 9 </feature>
									<threshold> -6.5533085 </threshold>
									<split pos="left">
										<feature> 9 </feature>
										<threshold> -6.7383327 </threshold>
										<split pos="left">
											<feature> 9 </feature>
											<threshold> -7.2008934 </threshold>
											<split pos="left">
												<output> 0.009173159 </output>
											</split>
											<split pos="right">
												<output> -0.6372726 </output>
											</split>
										</split>
										<split pos="right">
											<output> 0.7425736 </output>
										</split>
									</split>
									<split pos="right">
										<output> -1.0831175 </output>
									</split>
								</split>
								<split pos="right">
									<output> 0.9916564 </output>
								</split>
							</split>
							<split pos="right">
								<output> -1.4298246 </output>
							</split>
						</split>
						<split pos="right">
							<output> 0.0793724 </output>
						</split>
					</split>
					<split pos="right">
						<output> -1.0621799 </output>
					</split>
				</split>
				<split pos="right">
					<output> 0.68142843 </output>
				</split>
			</split>
			<split pos="right">
				<output> -1.5959487 </output>
			</split>
		</split>
	</tree>
	<tree id="35" weight="0.1">
		<split>
			<feature> 9 </feature>
			<threshold> -3.0840988 </threshold>
			<split pos="left">
				<feature> 9 </feature>
				<threshold> -3.870456 </threshold>
				<split pos="left">
					<feature> 9 </feature>
					<threshold> -3.9167123 </threshold>
					<split pos="left">
						<feature> 9 </feature>
						<threshold> -4.009225 </threshold>
						<split pos="left">
							<feature> 9 </feature>
							<threshold> -4.101737 </threshold>
							<split pos="left">
								<feature> 9 </feature>
								<threshold> -10.438818 </threshold>
								<split pos="left">
									<feature> 9 </feature>
									<threshold> -10.53133 </threshold>
									<split pos="left">
										<output> 0.027477328 </output>
									</split>
									<split pos="right">
										<output> 1.5653915 </output>
									</split>
								</split>
								<split pos="right">
									<feature> 9 </feature>
									<threshold> -9.23616 </threshold>
									<split pos="left">
										<output> -0.6698926 </output>
									</split>
									<split pos="right">
										<feature> 9 </feature>
										<threshold> -8.634831 </threshold>
										<split pos="left">
											<output> 0.55888087 </output>
										</split>
										<split pos="right">
											<output> -0.056140445 </output>
										</split>
									</split>
								</split>
							</split>
							<split pos="right">
								<output> 1.1508 </output>
							</split>
						</split>
						<split pos="right">
							<output> -0.43236503 </output>
						</split>
					</split>
					<split pos="right">
						<output> 0.9440692 </output>
					</split>
				</split>
				<split pos="right">
					<output> -0.28272617 </output>
				</split>
			</split>
			<split pos="right">
				<output> 0.4865502 </output>
			</split>
		</split>
	</tree>
	<tree id="36" weight="0.1">
		<split>
			<feature> 9 </feature>
			<threshold> -2.2977417 </threshold>
			<split pos="left">
				<feature> 9 </feature>
				<threshold> -3.0840988 </threshold>
				<split pos="left">
					<feature> 9 </feature>
					<threshold> -3.407893 </threshold>
					<split pos="left">
						<feature> 9 </feature>
						<threshold> -5.443163 </threshold>
						<split pos="left">
							<feature> 9 </feature>
							<threshold> -5.581931 </threshold>
							<split pos="left">
								<feature> 9 </feature>
								<threshold> -5.7206993 </threshold>
								<split pos="left">
									<feature> 9 </feature>
									<threshold> -8.634831 </threshold>
									<split pos="left">
										<feature> 9 </feature>
										<threshold> -8.6810875 </threshold>
										<split pos="left">
											<feature> 9 </feature>
											<threshold> -8.727344 </threshold>
											<split pos="left">
												<output> 0.0025876565 </output>
											</split>
											<split pos="right">
												<output> 0.9771806 </output>
											</split>
										</split>
										<split pos="right">
											<output> 0.84601104 </output>
										</split>
									</split>
									<split pos="right">
										<output> -0.13885324 </output>
									</split>
								</split>
								<split pos="right">
									<output> 0.35431775 </output>
								</split>
							</split>
							<split pos="right">
								<output> -1.2130998 </output>
							</split>
						</split>
						<split pos="right">
							<output> 0.09599054 </output>
						</split>
					</split>
					<split pos="right">
						<output> -1.0333935 </output>
					</split>
				</split>
				<split pos="right">
					<output> 0.6301616 </output>
				</split>
			</split>
			<split pos="right">
				<output> -1.5381476 </output>
			</split>
		</split>
	</tree>
	<tree id="37" weight="0.1">
		<split>
			<feature> 9 </feature>
			<threshold> -2.2977417 </threshold>
			<split pos="left">
				<feature> 9 </feature>
				<threshold> -2.94533 </threshold>
				<split pos="left">
					<feature> 9 </feature>
					<threshold> -3.0378425 </threshold>
					<split pos="left">
						<feature> 9 </feature>
						<threshold> -3.0840988 </threshold>
						<split pos="left">
							<feature> 9 </feature>
							<threshold> -3.5929182 </threshold>
							<split pos="left">
								<feature> 9 </feature>
								<threshold> -3.6391745 </threshold>
								<split pos="left">
									<feature> 9 </feature>
									<threshold> -3.6854308 </threshold>
									<split pos="left">
										<feature> 2 </feature>
										<threshold> 0.013157895 </threshold>
										<split pos="left">
											<feature> 9 </feature>
											<threshold> -8.634831 </threshold>
											<split pos="left">
												<output> 0.06629513 </output>
											</split>
											<split pos="right">
												<output> -0.113823935 </output>
											</split>
										</split>
										<split pos="right">
											<output> 0.073825784 </output>
										</split>
									</split>
									<split pos="right">
										<output> -1.2200569 </output>
									</split>
								</split>
								<split pos="right">
									<output> 0.46655 </output>
								</split>
							</split>
							<split pos="right">
								<output> -0.63653976 </output>
							</split>
						</split>
						<split pos="right">
							<output> 1.1737745 </output>
						</split>
					</split>
					<split pos="right">
						<output> -2.0 </output>
					</split>
				</split>
				<split pos="right">
					<output> 1.041682 </output>
				</split>
			</split>
			<split pos="right">
				<output> -1.4631383 </output>
			</split>
		</split>
	</tree>
	<tree id="38" weight="0.1">
		<split>
			<feature> 9 </feature>
			<threshold> -2.2977417 </threshold>
			<split pos="left">
				<feature> 9 </feature>
				<threshold> -2.94533 </threshold>
				<split pos="left">
					<feature> 9 </feature>
					<threshold> -3.0378425 </threshold>
					<split pos="left">
						<feature> 9 </feature>
						<threshold> -3.0840988 </threshold>
						<split pos="left">
							<feature> 9 </feature>
							<threshold> -3.870456 </threshold>
							<split pos="left">
								<feature> 9 </feature>
								<threshold> -3.9167123 </threshold>
								<split pos="left">
									<feature> 9 </feature>
									<threshold> -4.009225 </threshold>
									<split pos="left">
										<feature> 9 </feature>
										<threshold> -4.101737 </threshold>
										<split pos="left">
											<feature> 9 </feature>
											<threshold> -5.9519796 </threshold>
											<split pos="left">
												<output> -0.03608601 </output>
											</split>
											<split pos="right">
												<output> 0.10173286 </output>
											</split>
										</split>
										<split pos="right">
											<output> 1.1342678 </output>
										</split>
									</split>
									<split pos="right">
										<output> -0.3862032 </output>
									</split>
								</split>
								<split pos="right">
									<output> 0.91142505 </output>
								</split>
							</split>
							<split pos="right">
								<output> -0.25404426 </output>
							</split>
						</split>
						<split pos="right">
							<output> 1.0833627 </output>
						</split>
					</split>
					<split pos="right">
						<output> -1.7377367 </output>
					</split>
				</split>
				<split pos="right">
					<output> 0.95319104 </output>
				</split>
			</split>
			<split pos="right">
				<output> -1.3996791 </output>
			</split>
		</split>
	</tree>
	<tree id="39" weight="0.1">
		<split>
			<feature> 9 </feature>
			<threshold> -2.2977417 </threshold>
			<split pos="left">
				<feature> 9 </feature>
				<threshold> -2.94533 </threshold>
				<split pos="left">
					<feature> 9 </feature>
					<threshold> -3.0378425 </threshold>
					<split pos="left">
						<feature> 9 </feature>
						<threshold> -3.0840988 </threshold>
						<split pos="left">
							<feature> 9 </feature>
							<threshold> -3.407893 </threshold>
							<split pos="left">
								<feature> 9 </feature>
								<threshold> -4.194249 </threshold>
								<split pos="left">
									<feature> 9 </feature>
									<threshold> -4.4255295 </threshold>
									<split pos="left">
										<feature> 9 </feature>
										<threshold> -4.5180416 </threshold>
										<split pos="left">
											<feature> 9 </feature>
											<threshold> -4.6105537 </threshold>
											<split pos="left">
												<output> -0.0049399706 </output>
											</split>
											<split pos="right">
												<output> -1.193601 </output>
											</split>
										</split>
										<split pos="right">
											<output> 0.8644908 </output>
										</split>
									</split>
									<split pos="right">
										<output> -0.41126427 </output>
									</split>
								</split>
								<split pos="right">
									<output> 0.1574455 </output>
								</split>
							</split>
							<split pos="right">
								<output> -0.998329 </output>
							</split>
						</split>
						<split pos="right">
							<output> 1.006684 </output>
						</split>
					</split>
					<split pos="right">
						<output> -1.5636842 </output>
					</split>
				</split>
				<split pos="right">
					<output> 0.82260543 </output>
				</split>
			</split>
			<split pos="right">
				<output> -1.3525009 </output>
			</split>
		</split>
	</tree>
	<tree id="40" weight="0.1">
		<split>
			<feature> 9 </feature>
			<threshold> -2.2977417 </threshold>
			<split pos="left">
				<feature> 9 </feature>
				<threshold> -3.0840988 </threshold>
				<split pos="left">
					<feature> 9 </feature>
					<threshold> -3.870456 </threshold>
					<split pos="left">
						<feature> 9 </feature>
						<threshold> -3.9167123 </threshold>
						<split pos="left">
							<feature> 9 </feature>
							<threshold> -4.009225 </threshold>
							<split pos="left">
								<feature> 9 </feature>
								<threshold> -4.194249 </threshold>
								<split pos="left">
									<feature> 9 </feature>
									<threshold> -4.2867613 </threshold>
									<split pos="left">
										<feature> 9 </feature>
										<threshold> -5.443163 </threshold>
										<split pos="left">
											<feature> 9 </feature>
											<threshold> -5.581931 </threshold>
											<split pos="left">
												<output> -0.014775354 </output>
											</split>
											<split pos="right">
												<output> -1.1425308 </output>
											</split>
										</split>
										<split pos="right">
											<output> 0.122307666 </output>
										</split>
									</split>
									<split pos="right">
										<output> -0.69127107 </output>
									</split>
								</split>
								<split pos="right">
									<output> 0.5171699 </output>
								</split>
							</split>
							<split pos="right">
								<output> -0.38080937 </output>
							</split>
						</split>
						<split pos="right">
							<output> 0.8779284 </output>
						</split>
					</split>
					<split pos="right">
						<output> -0.23366328 </output>
					</split>
				</split>
				<split pos="right">
					<output> 0.40477362 </output>
				</split>
			</split>
			<split pos="right">
				<output> -1.3082542 </output>
			</split>
		</split>
	</tree>
	<tree id="41" weight="0.1">
		<split>
			<feature> 9 </feature>
			<threshold> -4.5180416 </threshold>
			<split pos="left">
				<feature> 9 </feature>
				<threshold> -4.841834 </threshold>
				<split pos="left">
					<feature> 9 </feature>
					<threshold> -4.9806023 </threshold>
					<split pos="left">
						<feature> 9 </feature>
						<threshold> -5.0731144 </threshold>
						<split pos="left">
							<feature> 9 </feature>
							<threshold> -5.1193705 </threshold>
							<split pos="left">
								<feature> 9 </feature>
								<threshold> -10.346306 </threshold>
								<split pos="left">
									<feature> 2 </feature>
									<threshold> 0.00990099 </threshold>
									<split pos="left">
										<output> -5.188823E-4 </output>
									</split>
									<split pos="right">
										<output> 0.13798292 </output>
									</split>
								</split>
								<split pos="right">
									<feature> 9 </feature>
									<threshold> -10.207538 </threshold>
									<split pos="left">
										<output> -1.0759846 </output>
									</split>
									<split pos="right">
										<feature> 2 </feature>
										<threshold> 0.012345679 </threshold>
										<split pos="left">
											<output> -0.12680551 </output>
										</split>
										<split pos="right">
											<output> 0.096431196 </output>
										</split>
									</split>
								</split>
							</split>
							<split pos="right">
								<output> 1.645668 </output>
							</split>
						</split>
						<split pos="right">
							<output> -1.4563597 </output>
						</split>
					</split>
					<split pos="right">
						<output> 0.86689204 </output>
					</split>
				</split>
				<split pos="right">
					<output> -0.4406455 </output>
				</split>
			</split>
			<split pos="right">
				<output> 0.122319594 </output>
			</split>
		</split>
	</tree>
	<tree id="42" weight="0.1">
		<split>
			<feature> 9 </feature>
			<threshold> -6.18326 </threshold>
			<split pos="left">
				<feature> 9 </feature>
				<threshold> -6.275772 </threshold>
				<split pos="left">
					<feature> 9 </feature>
					<threshold> -6.368284 </threshold>
					<split pos="left">
						<feature> 9 </feature>
						<threshold> -6.6458206 </threshold>
						<split pos="left">
							<feature> 9 </feature>
							<threshold> -6.7383327 </threshold>
							<split pos="left">
								<feature> 9 </feature>
								<threshold> -7.2471495 </threshold>
								<split pos="left">
									<feature> 9 </feature>
									<threshold> -7.2934055 </threshold>
									<split pos="left">
										<feature> 9 </feature>
										<threshold> -7.3396616 </threshold>
										<split pos="left">
											<feature> 9 </feature>
											<threshold> -7.9872465 </threshold>
											<split pos="left">
												<output> -0.036261838 </output>
											</split>
											<split pos="right">
												<output> 0.19674772 </output>
											</split>
										</split>
										<split pos="right">
											<output> -1.2633741 </output>
										</split>
									</split>
									<split pos="right">
										<output> 1.0197176 </output>
									</split>
								</split>
								<split pos="right">
									<output> -0.49357703 </output>
								</split>
							</split>
							<split pos="right">
								<output> 1.2748235 </output>
							</split>
						</split>
						<split pos="right">
							<output> -0.88085306 </output>
						</split>
					</split>
					<split pos="right">
						<output> 0.92236805 </output>
					</split>
				</split>
				<split pos="right">
					<output> -1.3799567 </output>
				</split>
			</split>
			<split pos="right">
				<output> 0.07506323 </output>
			</split>
		</split>
	</tree>
	<tree id="43" weight="0.1">
		<split>
			<feature> 9 </feature>
			<threshold> -6.18326 </threshold>
			<split pos="left">
				<feature> 9 </feature>
				<threshold> -6.275772 </threshold>
				<split pos="left">
					<feature> 9 </feature>
					<threshold> -6.322028 </threshold>
					<split pos="left">
						<feature> 9 </feature>
						<threshold> -8.634831 </threshold>
						<split pos="left">
							<feature> 9 </feature>
							<threshold> -8.6810875 </threshold>
							<split pos="left">
								<feature> 3 </feature>
								<threshold> -20.723267 </threshold>
								<split pos="left">
									<output> -0.21289702 </output>
								</split>
								<split pos="right">
									<feature> 9 </feature>
									<threshold> -8.727344 </threshold>
									<split pos="left">
										<feature> 2 </feature>
										<threshold> 0.012693935 </threshold>
										<split pos="left">
											<output> 0.11475227 </output>
										</split>
										<split pos="right">
											<output> -0.0645722 </output>
										</split>
									</split>
									<split pos="right">
										<output> -1.6429346 </output>
									</split>
								</split>
							</split>
							<split pos="right">
								<output> 0.778605 </output>
							</split>
						</split>
						<split pos="right">
							<output> -0.13668692 </output>
						</split>
					</split>
					<split pos="right">
						<output> 0.683303 </output>
					</split>
				</split>
				<split pos="right">
					<output> -1.3403746 </output>
				</split>
			</split>
			<split pos="right">
				<feature> 2 </feature>
				<threshold> 0.014778325 </threshold>
				<split pos="left">
					<output> 0.032454383 </output>
				</split>
				<split pos="right">
					<output> 0.21044815 </output>
				</split>
			</split>
		</split>
	</tree>
	<tree id="44" weight="0.1">
		<split>
			<feature> 9 </feature>
			<threshold> -2.2977417 </threshold>
			<split pos="left">
				<feature> 9 </feature>
				<threshold> -3.0840988 </threshold>
				<split pos="left">
					<feature> 9 </feature>
					<threshold> -3.870456 </threshold>
					<split pos="left">
						<feature> 9 </feature>
						<threshold> -3.9167123 </threshold>
						<split pos="left">
							<feature> 9 </feature>
							<threshold> -4.009225 </threshold>
							<split pos="left">
								<feature> 9 </feature>
								<threshold> -4.147993 </threshold>
								<split pos="left">
									<feature> 9 </feature>
									<threshold> -6.18326 </threshold>
									<split pos="left">
										<feature> 9 </feature>
										<threshold> -6.275772 </threshold>
										<split pos="left">
											<feature> 9 </feature>
											<threshold> -6.322028 </threshold>
											<split pos="left">
												<output> -0.023857558 </output>
											</split>
											<split pos="right">
												<output> 0.76706725 </output>
											</split>
										</split>
										<split pos="right">
											<output> -1.3053674 </output>
										</split>
									</split>
									<split pos="right">
										<output> 0.07407707 </output>
									</split>
								</split>
								<split pos="right">
									<output> 0.8115971 </output>
								</split>
							</split>
							<split pos="right">
								<output> -0.37071377 </output>
							</split>
						</split>
						<split pos="right">
							<output> 0.85103196 </output>
						</split>
					</split>
					<split pos="right">
						<output> -0.22562039 </output>
					</split>
				</split>
				<split pos="right">
					<output> 0.38719076 </output>
				</split>
			</split>
			<split pos="right">
				<output> -1.2772899 </output>
			</split>
		</split>
	</tree>
	<tree id="45" weight="0.1">
		<split>
			<feature> 9 </feature>
			<threshold> -2.2977417 </threshold>
			<split pos="left">
				<feature> 9 </feature>
				<threshold> -2.94533 </threshold>
				<split pos="left">
					<feature> 9 </feature>
					<threshold> -3.0378425 </threshold>
					<split pos="left">
						<feature> 9 </feature>
						<threshold> -3.0840988 </threshold>
						<split pos="left">
							<feature> 9 </feature>
							<threshold> -3.407893 </threshold>
							<split pos="left">
								<feature> 9 </feature>
								<threshold> -3.5004056 </threshold>
								<split pos="left">
									<feature> 9 </feature>
									<threshold> -3.5929182 </threshold>
									<split pos="left">
										<feature> 9 </feature>
										<threshold> -3.6391745 </threshold>
										<split pos="left">
											<feature> 9 </feature>
											<threshold> -3.6854308 </threshold>
											<split pos="left">
												<output> -3.528689E-4 </output>
											</split>
											<split pos="right">
												<output> -1.1583415 </output>
											</split>
										</split>
										<split pos="right">
											<output> 0.48860148 </output>
										</split>
									</split>
									<split pos="right">
										<output> -1.3071296 </output>
									</split>
								</split>
								<split pos="right">
									<output> 0.86451894 </output>
								</split>
							</split>
							<split pos="right">
								<output> -0.9752962 </output>
							</split>
						</split>
						<split pos="right">
							<output> 0.90613806 </output>
						</split>
					</split>
					<split pos="right">
						<output> -1.4440181 </output>
					</split>
				</split>
				<split pos="right">
					<output> 0.69363844 </output>
				</split>
			</split>
			<split pos="right">
				<output> -1.2466719 </output>
			</split>
		</split>
	</tree>
	<tree id="46" weight="0.1">
		<split>
			<feature> 9 </feature>
			<threshold> -7.015869 </threshold>
			<split pos="left">
				<feature> 9 </feature>
				<threshold> -7.062125 </threshold>
				<split pos="left">
					<feature> 9 </feature>
					<threshold> -8.634831 </threshold>
					<split pos="left">
						<feature> 9 </feature>
						<threshold> -8.727344 </threshold>
						<split pos="left">
							<feature> 3 </feature>
							<threshold> -20.723267 </threshold>
							<split pos="left">
								<output> -0.28144625 </output>
							</split>
							<split pos="right">
								<feature> 2 </feature>
								<threshold> 0.012693935 </threshold>
								<split pos="left">
									<output> 0.112336576 </output>
								</split>
								<split pos="right">
									<output> -0.064925626 </output>
								</split>
							</split>
						</split>
						<split pos="right">
							<output> 0.7740778 </output>
						</split>
					</split>
					<split pos="right">
						<output> -0.13488162 </output>
					</split>
				</split>
				<split pos="right">
					<output> -1.4986056 </output>
				</split>
			</split>
			<split pos="right">
				<feature> 9 </feature>
				<threshold> -6.969613 </threshold>
				<split pos="left">
					<output> 1.2226021 </output>
				</split>
				<split pos="right">
					<feature> 9 </feature>
					<threshold> -6.7383327 </threshold>
					<split pos="left">
						<output> -0.37148866 </output>
					</split>
					<split pos="right">
						<feature> 9 </feature>
						<threshold> -6.6458206 </threshold>
						<split pos="left">
							<output> 1.2049067 </output>
						</split>
						<split pos="right">
							<output> 0.017163273 </output>
						</split>
					</split>
				</split>
			</split>
		</split>
	</tree>
	<tree id="47" weight="0.1">
		<split>
			<feature> 9 </feature>
			<threshold> -6.18326 </threshold>
			<split pos="left">
				<feature> 9 </feature>
				<threshold> -6.275772 </threshold>
				<split pos="left">
					<feature> 9 </feature>
					<threshold> -6.322028 </threshold>
					<split pos="left">
						<feature> 9 </feature>
						<threshold> -8.634831 </threshold>
						<split pos="left">
							<feature> 9 </feature>
							<threshold> -8.727344 </threshold>
							<split pos="left">
								<feature> 3 </feature>
								<threshold> -20.723267 </threshold>
								<split pos="left">
									<output> -0.24340494 </output>
								</split>
								<split pos="right">
									<feature> 2 </feature>
									<threshold> 0.012693935 </threshold>
									<split pos="left">
										<feature> 2 </feature>
										<threshold> 0.00990099 </threshold>
										<split pos="left">
											<output> 0.041365784 </output>
										</split>
										<split pos="right">
											<output> 0.9486867 </output>
										</split>
									</split>
									<split pos="right">
										<output> -0.065393254 </output>
									</split>
								</split>
							</split>
							<split pos="right">
								<output> 0.7133663 </output>
							</split>
						</split>
						<split pos="right">
							<output> -0.14030325 </output>
						</split>
					</split>
					<split pos="right">
						<output> 0.8124195 </output>
					</split>
				</split>
				<split pos="right">
					<output> -1.2768545 </output>
				</split>
			</split>
			<split pos="right">
				<feature> 2 </feature>
				<threshold> 0.014778325 </threshold>
				<split pos="left">
					<output> 0.024929956 </output>
				</split>
				<split pos="right">
					<output> 0.18637303 </output>
				</split>
			</split>
		</split>
	</tree>
	<tree id="48" weight="0.1">
		<split>
			<feature> 9 </feature>
			<threshold> -2.6215358 </threshold>
			<split pos="left">
				<feature> 9 </feature>
				<threshold> -2.94533 </threshold>
				<split pos="left">
					<feature> 9 </feature>
					<threshold> -3.0378425 </threshold>
					<split pos="left">
						<feature> 9 </feature>
						<threshold> -3.0840988 </threshold>
						<split pos="left">
							<feature> 9 </feature>
							<threshold> -3.407893 </threshold>
							<split pos="left">
								<feature> 9 </feature>
								<threshold> -3.5004056 </threshold>
								<split pos="left">
									<feature> 9 </feature>
									<threshold> -3.5929182 </threshold>
									<split pos="left">
										<feature> 9 </feature>
										<threshold> -3.6391745 </threshold>
										<split pos="left">
											<feature> 9 </feature>
											<threshold> -3.6854308 </threshold>
											<split pos="left">
												<output> 4.7734527E-5 </output>
											</split>
											<split pos="right">
												<output> -1.1132725 </output>
											</split>
										</split>
										<split pos="right">
											<output> 0.44590732 </output>
										</split>
									</split>
									<split pos="right">
										<output> -1.3025647 </output>
									</split>
								</split>
								<split pos="right">
									<output> 0.96074003 </output>
								</split>
							</split>
							<split pos="right">
								<output> -0.9588791 </output>
							</split>
						</split>
						<split pos="right">
							<output> 0.84484875 </output>
						</split>
					</split>
					<split pos="right">
						<output> -1.3585614 </output>
					</split>
				</split>
				<split pos="right">
					<output> 0.962691 </output>
				</split>
			</split>
			<split pos="right">
				<output> -0.96211624 </output>
			</split>
		</split>
	</tree>
	<tree id="49" weight="0.1">
		<split>
			<feature> 9 </feature>
			<threshold> -2.6215358 </threshold>
			<split pos="left">
				<feature> 9 </feature>
				<threshold> -2.94533 </threshold>
				<split pos="left">
					<feature> 9 </feature>
					<threshold> -3.0378425 </threshold>
					<split pos="left">
						<feature> 9 </feature>
						<threshold> -3.0840988 </threshold>
						<split pos="left">
							<feature> 9 </feature>
							<threshold> -3.407893 </threshold>
							<split pos="left">
								<feature> 9 </feature>
								<threshold> -3.5004056 </threshold>
								<split pos="left">
									<feature> 9 </feature>
									<threshold> -3.5929182 </threshold>
									<split pos="left">
										<feature> 9 </feature>
										<threshold> -3.6391745 </threshold>
										<split pos="left">
											<feature> 9 </feature>
											<threshold> -3.6854308 </threshold>
											<split pos="left">
												<output> 1.3419215E-4 </output>
											</split>
											<split pos="right">
												<output> -1.0682594 </output>
											</split>
										</split>
										<split pos="right">
											<output> 0.41123244 </output>
										</split>
									</split>
									<split pos="right">
										<output> -1.2592262 </output>
									</split>
								</split>
								<split pos="right">
									<output> 0.8597414 </output>
								</split>
							</split>
							<split pos="right">
								<output> -0.93980503 </output>
							</split>
						</split>
						<split pos="right">
							<output> 0.78774595 </output>
						</split>
					</split>
					<split pos="right">
						<output> -1.2977095 </output>
					</split>
				</split>
				<split pos="right">
					<output> 0.8960593 </output>
				</split>
			</split>
			<split pos="right">
				<output> -0.9251302 </output>
			</split>
		</split>
	</tree>
	<tree id="50" weight="0.1">
		<split>
			<feature> 9 </feature>
			<threshold> -6.18326 </threshold>
			<split pos="left">
				<feature> 9 </feature>
				<threshold> -6.275772 </threshold>
				<split pos="left">
					<feature> 9 </feature>
					<threshold> -6.322028 </threshold>
					<split pos="left">
						<feature> 9 </feature>
						<threshold> -6.6458206 </threshold>
						<split pos="left">
							<feature> 9 </feature>
							<threshold> -6.7383327 </threshold>
							<split pos="left">
								<feature> 9 </feature>
								<threshold> -7.2471495 </threshold>
								<split pos="left">
									<feature> 9 </feature>
									<threshold> -7.2934055 </threshold>
									<split pos="left">
										<feature> 9 </feature>
										<threshold> -7.3396616 </threshold>
										<split pos="left">
											<feature> 2 </feature>
											<threshold> 0.013157895 </threshold>
											<split pos="left">
												<output> 0.035916593 </output>
											</split>
											<split pos="right">
												<output> -0.1184332 </output>
											</split>
										</split>
										<split pos="right">
											<output> -1.2288562 </output>
										</split>
									</split>
									<split pos="right">
										<output> 0.969321 </output>
									</split>
								</split>
								<split pos="right">
									<output> -0.44599485 </output>
								</split>
							</split>
							<split pos="right">
								<output> 1.1349642 </output>
							</split>
						</split>
						<split pos="right">
							<output> -0.6456674 </output>
						</split>
					</split>
					<split pos="right">
						<output> 0.73943156 </output>
					</split>
				</split>
				<split pos="right">
					<output> -1.249953 </output>
				</split>
			</split>
			<split pos="right">
				<output> 0.053399228 </output>
			</split>
		</split>
	</tree>
	<tree id="51" weight="0.1">
		<split>
			<feature> 9 </feature>
			<threshold> -10.346306 </threshold>
			<split pos="left">
				<feature> 9 </feature>
				<threshold> -10.53133 </threshold>
				<split pos="left">
					<feature> 9 </feature>
					<threshold> -10.670098 </threshold>
					<split pos="left">
						<feature> 9 </feature>
						<threshold> -10.8088665 </threshold>
						<split pos="left">
							<feature> 2 </feature>
							<threshold> 0.018232819 </threshold>
							<split pos="left">
								<output> -0.021544768 </output>
							</split>
							<split pos="right">
								<output> 0.18921623 </output>
							</split>
						</split>
						<split pos="right">
							<output> 1.3725803 </output>
						</split>
					</split>
					<split pos="right">
						<output> -1.9562297 </output>
					</split>
				</split>
				<split pos="right">
					<output> 1.0631577 </output>
				</split>
			</split>
			<split pos="right">
				<feature> 9 </feature>
				<threshold> -10.207538 </threshold>
				<split pos="left">
					<output> -1.0004809 </output>
				</split>
				<split pos="right">
					<feature> 9 </feature>
					<threshold> -7.9872465 </threshold>
					<split pos="left">
						<output> -0.21270956 </output>
					</split>
					<split pos="right">
						<feature> 9 </feature>
						<threshold> -7.9409904 </threshold>
						<split pos="left">
							<output> 0.8652428 </output>
						</split>
						<split pos="right">
							<feature> 9 </feature>
							<threshold> -7.8947344 </threshold>
							<split pos="left">
								<output> -0.79968244 </output>
							</split>
							<split pos="right">
								<output> 0.0020468957 </output>
							</split>
						</split>
					</split>
				</split>
			</split>
		</split>
	</tree>
	<tree id="52" weight="0.1">
		<split>
			<feature> 9 </feature>
			<threshold> -2.6215358 </threshold>
			<split pos="left">
				<feature> 9 </feature>
				<threshold> -2.94533 </threshold>
				<split pos="left">
					<feature> 9 </feature>
					<threshold> -3.0378425 </threshold>
					<split pos="left">
						<feature> 9 </feature>
						<threshold> -3.0840988 </threshold>
						<split pos="left">
							<feature> 9 </feature>
							<threshold> -3.407893 </threshold>
							<split pos="left">
								<feature> 9 </feature>
								<threshold> -3.5004056 </threshold>
								<split pos="left">
									<feature> 9 </feature>
									<threshold> -3.5929182 </threshold>
									<split pos="left">
										<feature> 9 </feature>
										<threshold> -3.6391745 </threshold>
										<split pos="left">
											<feature> 9 </feature>
											<threshold> -3.870456 </threshold>
											<split pos="left">
												<output> 0.0058789337 </output>
											</split>
											<split pos="right">
												<output> -0.3748236 </output>
											</split>
										</split>
										<split pos="right">
											<output> 0.3768648 </output>
										</split>
									</split>
									<split pos="right">
										<output> -1.2235968 </output>
									</split>
								</split>
								<split pos="right">
									<output> 0.77282655 </output>
								</split>
							</split>
							<split pos="right">
								<output> -0.92338634 </output>
							</split>
						</split>
						<split pos="right">
							<output> 0.7388598 </output>
						</split>
					</split>
					<split pos="right">
						<output> -1.253434 </output>
					</split>
				</split>
				<split pos="right">
					<output> 0.83838683 </output>
				</split>
			</split>
			<split pos="right">
				<output> -0.89168113 </output>
			</split>
		</split>
	</tree>
	<tree id="53" weight="0.1">
		<split>
			<feature> 9 </feature>
			<threshold> -6.18326 </threshold>
			<split pos="left">
				<feature> 9 </feature>
				<threshold> -6.275772 </threshold>
				<split pos="left">
					<feature> 9 </feature>
					<threshold> -6.322028 </threshold>
					<split pos="left">
						<feature> 9 </feature>
						<threshold> -8.634831 </threshold>
						<split pos="left">
							<feature> 9 </feature>
							<threshold> -8.727344 </threshold>
							<split pos="left">
								<feature> 3 </feature>
								<threshold> -20.723267 </threshold>
								<split pos="left">
									<output> -0.23091793 </output>
								</split>
								<split pos="right">
									<feature> 2 </feature>
									<threshold> 0.012693935 </threshold>
									<split pos="left">
										<feature> 2 </feature>
										<threshold> 0.00990099 </threshold>
										<split pos="left">
											<output> 0.04450597 </output>
										</split>
										<split pos="right">
											<output> 0.8772901 </output>
										</split>
									</split>
									<split pos="right">
										<output> -0.060135223 </output>
									</split>
								</split>
							</split>
							<split pos="right">
								<output> 0.6674746 </output>
							</split>
						</split>
						<split pos="right">
							<output> -0.12936622 </output>
						</split>
					</split>
					<split pos="right">
						<output> 0.6647621 </output>
					</split>
				</split>
				<split pos="right">
					<output> -1.2304537 </output>
				</split>
			</split>
			<split pos="right">
				<feature> 2 </feature>
				<threshold> 0.014778325 </threshold>
				<split pos="left">
					<output> 0.017274965 </output>
				</split>
				<split pos="right">
					<output> 0.17949316 </output>
				</split>
			</split>
		</split>
	</tree>
	<tree id="54" weight="0.1">
		<split>
			<feature> 9 </feature>
			<threshold> -2.6215358 </threshold>
			<split pos="left">
				<feature> 9 </feature>
				<threshold> -3.0840988 </threshold>
				<split pos="left">
					<feature> 9 </feature>
					<threshold> -3.4541492 </threshold>
					<split pos="left">
						<feature> 9 </feature>
						<threshold> -3.5004056 </threshold>
						<split pos="left">
							<feature> 9 </feature>
							<threshold> -3.5929182 </threshold>
							<split pos="left">
								<feature> 9 </feature>
								<threshold> -3.6391745 </threshold>
								<split pos="left">
									<feature> 9 </feature>
									<threshold> -3.6854308 </threshold>
									<split pos="left">
										<feature> 2 </feature>
										<threshold> 0.013157895 </threshold>
										<split pos="left">
											<feature> 9 </feature>
											<threshold> -8.634831 </threshold>
											<split pos="left">
												<output> 0.055941258 </output>
											</split>
											<split pos="right">
												<output> -0.09859081 </output>
											</split>
										</split>
										<split pos="right">
											<output> 0.062469758 </output>
										</split>
									</split>
									<split pos="right">
										<output> -1.0298606 </output>
									</split>
								</split>
								<split pos="right">
									<output> 0.34375116 </output>
								</split>
							</split>
							<split pos="right">
								<output> -1.1947802 </output>
							</split>
						</split>
						<split pos="right">
							<output> 6.455516 </output>
						</split>
					</split>
					<split pos="right">
						<output> -0.5834015 </output>
					</split>
				</split>
				<split pos="right">
					<output> 0.3920369 </output>
				</split>
			</split>
			<split pos="right">
				<output> -0.8753741 </output>
			</split>
		</split>
	</tree>
	<tree id="55" weight="0.1">
		<split>
			<feature> 9 </feature>
			<threshold> -8.126015 </threshold>
			<split pos="left">
				<feature> 9 </feature>
				<threshold> -8.634831 </threshold>
				<split pos="left">
					<feature> 9 </feature>
					<threshold> -8.727344 </threshold>
					<split pos="left">
						<feature> 3 </feature>
						<threshold> -20.723267 </threshold>
						<split pos="left">
							<output> -0.22136942 </output>
						</split>
						<split pos="right">
