## LambdaMART
## No. of trees = 1000
## No. of leaves = 10
## No. of threshold candidates = 256
## Learning rate = 0.1
## Stop early = 100

<ensemble>
	<tree id="1" weight="0.1">
		<split>
			<feature> 11 </feature>
			<threshold> -0.77861786 </threshold>
			<split pos="left">
				<feature> 9 </feature>
				<threshold> -2.2977417 </threshold>
				<split pos="left">
					<feature> 11 </feature>
					<threshold> -1.7648158 </threshold>
					<split pos="left">
						<feature> 9 </feature>
						<threshold> -5.9519796 </threshold>
						<split pos="left">
							<feature> 3 </feature>
							<threshold> -20.723267 </threshold>
							<split pos="left">
								<output> -0.39423755 </output>
							</split>
							<split pos="right">
								<feature> 2 </feature>
								<threshold> 0.00990099 </threshold>
								<split pos="left">
									<output> -0.12131449 </output>
								</split>
								<split pos="right">
									<feature> 11 </feature>
									<threshold> -4.775315 </threshold>
									<split pos="left">
										<output> 0.44609457 </output>
									</split>
									<split pos="right">
										<output> 1.0361638 </output>
									</split>
								</split>
							</split>
						</split>
						<split pos="right">
							<feature> 9 </feature>
							<threshold> -3.5929182 </threshold>
							<split pos="left">
								<feature> 2 </feature>
								<threshold> 0.014778325 </threshold>
								<split pos="left">
									<output> 0.30314207 </output>
								</split>
								<split pos="right">
									<output> 0.95906 </output>
								</split>
							</split>
							<split pos="right">
								<output> -0.6342089 </output>
							</split>
						</split>
					</split>
					<split pos="right">
						<output> 0.8459371 </output>
					</split>
				</split>
				<split pos="right">
					<output> -2.0 </output>
				</split>
			</split>
			<split pos="right">
				<output> -0.7700733 </output>
			</split>
		</split>
	</tree>
	<tree id="2" weight="0.1">
		<split>
			<feature> 11 </feature>
			<threshold> -0.20766133 </threshold>
			<split pos="left">
				<feature> 9 </feature>
				<threshold> -3.5929182 </threshold>
				<split pos="left">
					<feature> 9 </feature>
					<threshold> -4.147993 </threshold>
					<split pos="left">
						<feature> 11 </feature>
						<threshold> -4.775315 </threshold>
						<split pos="left">
							<feature> 11 </feature>
							<threshold> -4.9310303 </threshold>
							<split pos="left">
								<feature> 9 </feature>
								<threshold> -7.3396616 </threshold>
								<split pos="left">
									<feature> 9 </feature>
									<threshold> -7.9872465 </threshold>
									<split pos="left">
										<feature> 2 </feature>
										<threshold> 0.017199017 </threshold>
										<split pos="left">
											<output> -0.23960198 </output>
										</split>
										<split pos="right">
											<output> 0.56743944 </output>
										</split>
									</split>
									<split pos="right">
										<output> 1.04436 </output>
									</split>
								</split>
								<split pos="right">
									<output> -0.3550002 </output>
								</split>
							</split>
							<split pos="right">
								<output> -0.99991715 </output>
							</split>
						</split>
						<split pos="right">
							<feature> 11 </feature>
							<threshold> -4.6715045 </threshold>
							<split pos="left">
								<output> 1.9209269 </output>
							</split>
							<split pos="right">
								<output> 0.22023603 </output>
							</split>
						</split>
					</split>
					<split pos="right">
						<output> 0.96574694 </output>
					</split>
				</split>
				<split pos="right">
					<output> -1.001873 </output>
				</split>
			</split>
			<split pos="right">
				<output> -1.0020568 </output>
			</split>
		</split>
	</tree>
	<tree id="3" weight="0.1">
		<split>
			<feature> 9 </feature>
			<threshold> -4.147993 </threshold>
			<split pos="left">
				<feature> 11 </feature>
				<threshold> -4.775315 </threshold>
				<split pos="left">
					<feature> 11 </feature>
					<threshold> -5.0867457 </threshold>
					<split pos="left">
						<feature> 2 </feature>
						<threshold> 0.017199017 </threshold>
						<split pos="left">
							<feature> 2 </feature>
							<threshold> 0.00990099 </threshold>
							<split pos="left">
								<feature> 9 </feature>
								<threshold> -7.3396616 </threshold>
								<split pos="left">
									<feature> 9 </feature>
									<threshold> -8.033503 </threshold>
									<split pos="left">
										<output> -0.237644 </output>
									</split>
									<split pos="right">
										<output> 0.8083253 </output>
									</split>
								</split>
								<split pos="right">
									<output> -0.64863306 </output>
								</split>
							</split>
							<split pos="right">
								<output> -0.7096623 </output>
							</split>
						</split>
						<split pos="right">
							<output> 0.2416348 </output>
						</split>
					</split>
					<split pos="right">
						<output> -0.9842075 </output>
					</split>
				</split>
				<split pos="right">
					<feature> 2 </feature>
					<threshold> 0.017199017 </threshold>
					<split pos="left">
						<output> 0.30690187 </output>
					</split>
					<split pos="right">
						<output> -0.6019785 </output>
					</split>
				</split>
			</split>
			<split pos="right">
				<feature> 9 </feature>
				<threshold> -3.870456 </threshold>
				<split pos="left">
					<output> 1.2614945 </output>
				</split>
				<split pos="right">
					<output> -0.23651752 </output>
				</split>
			</split>
		</split>
	</tree>
	<tree id="4" weight="0.1">
		<split>
			<feature> 9 </feature>
			<threshold> -3.5929182 </threshold>
			<split pos="left">
				<feature> 9 </feature>
				<threshold> -4.147993 </threshold>
				<split pos="left">
					<feature> 11 </feature>
					<threshold> -11.055811 </threshold>
					<split pos="left">
						<output> -0.5090455 </output>
					</split>
					<split pos="right">
						<feature> 11 </feature>
						<threshold> -10.588669 </threshold>
						<split pos="left">
							<output> 1.7476453 </output>
						</split>
						<split pos="right">
							<feature> 9 </feature>
							<threshold> -5.7206993 </threshold>
							<split pos="left">
								<feature> 3 </feature>
								<threshold> -20.723267 </threshold>
								<split pos="left">
									<feature> 9 </feature>
									<threshold> -7.9872465 </threshold>
									<split pos="left">
										<output> -1.0138186 </output>
									</split>
									<split pos="right">
										<output> 0.095263824 </output>
									</split>
								</split>
								<split pos="right">
									<feature> 2 </feature>
									<threshold> 0.00990099 </threshold>
									<split pos="left">
										<output> 0.004497986 </output>
									</split>
									<split pos="right">
										<output> 0.41509506 </output>
									</split>
								</split>
							</split>
							<split pos="right">
								<output> 0.3979116 </output>
							</split>
						</split>
					</split>
				</split>
				<split pos="right">
					<feature> 2 </feature>
					<threshold> 0.013157895 </threshold>
					<split pos="left">
						<output> 0.47233403 </output>
					</split>
					<split pos="right">
						<output> 1.0340021 </output>
					</split>
				</split>
			</split>
			<split pos="right">
				<output> -0.94211054 </output>
			</split>
		</split>
	</tree>
	<tree id="5" weight="0.1">
		<split>
			<feature> 11 </feature>
			<threshold> -11.055811 </threshold>
			<split pos="left">
				<output> -0.52575266 </output>
			</split>
			<split pos="right">
				<feature> 11 </feature>
				<threshold> -10.588669 </threshold>
				<split pos="left">
					<output> 1.5055916 </output>
				</split>
				<split pos="right">
					<feature> 9 </feature>
					<threshold> -5.7206993 </threshold>
					<split pos="left">
						<feature> 3 </feature>
						<threshold> -20.723267 </threshold>
						<split pos="left">
							<output> -0.37708452 </output>
						</split>
						<split pos="right">
							<feature> 11 </feature>
							<threshold> -7.6820035 </threshold>
							<split pos="left">
								<output> -0.5315725 </output>
							</split>
							<split pos="right">
								<feature> 2 </feature>
								<threshold> 0.00990099 </threshold>
								<split pos="left">
									<output> 0.2502353 </output>
								</split>
								<split pos="right">
									<output> 0.43273327 </output>
								</split>
							</split>
						</split>
					</split>
					<split pos="right">
						<feature> 9 </feature>
						<threshold> -5.6744432 </threshold>
						<split pos="left">
							<output> 1.3425074 </output>
						</split>
						<split pos="right">
							<feature> 9 </feature>
							<threshold> -3.5929182 </threshold>
							<split pos="left">
								<feature> 9 </feature>
								<threshold> -3.6391745 </threshold>
								<split pos="left">
									<output> 0.4227657 </output>
								</split>
								<split pos="right">
									<output> 1.3240781 </output>
								</split>
							</split>
							<split pos="right">
								<output> -0.8114961 </output>
							</split>
						</split>
					</split>
				</split>
			</split>
		</split>
	</tree>
	<tree id="6" weight="0.1">
		<split>
			<feature> 11 </feature>
			<threshold> -11.055811 </threshold>
			<split pos="left">
				<output> -0.47254038 </output>
			</split>
			<split pos="right">
				<feature> 11 </feature>
				<threshold> -10.588669 </threshold>
				<split pos="left">
					<output> 1.3679045 </output>
				</split>
				<split pos="right">
					<feature> 11 </feature>
					<threshold> -0.3633767 </threshold>
					<split pos="left">
						<feature> 9 </feature>
						<threshold> -5.7206993 </threshold>
						<split pos="left">
							<feature> 3 </feature>
							<threshold> -20.723267 </threshold>
							<split pos="left">
								<feature> 9 </feature>
								<threshold> -7.9872465 </threshold>
								<split pos="left">
									<output> -0.9493171 </output>
								</split>
								<split pos="right">
									<output> 0.21204093 </output>
								</split>
							</split>
							<split pos="right">
								<feature> 11 </feature>
								<threshold> -7.6820035 </threshold>
								<split pos="left">
									<output> -0.5632625 </output>
								</split>
								<split pos="right">
									<feature> 2 </feature>
									<threshold> 0.00990099 </threshold>
									<split pos="left">
										<output> 0.27997532 </output>
									</split>
									<split pos="right">
										<output> 0.52214015 </output>
									</split>
								</split>
							</split>
						</split>
						<split pos="right">
							<feature> 2 </feature>
							<threshold> 0.014778325 </threshold>
							<split pos="left">
								<output> 0.22536515 </output>
							</split>
							<split pos="right">
								<output> 0.8914838 </output>
							</split>
						</split>
					</split>
					<split pos="right">
						<output> -0.7784756 </output>
					</split>
				</split>
			</split>
		</split>
	</tree>
	<tree id="7" weight="0.1">
		<split>
			<feature> 11 </feature>
			<threshold> -11.055811 </threshold>
			<split pos="left">
				<output> -0.48069668 </output>
			</split>
			<split pos="right">
				<feature> 11 </feature>
				<threshold> -10.588669 </threshold>
				<split pos="left">
					<output> 1.3148016 </output>
				</split>
				<split pos="right">
					<feature> 11 </feature>
					<threshold> -0.3633767 </threshold>
					<split pos="left">
						<feature> 9 </feature>
						<threshold> -3.5929182 </threshold>
						<split pos="left">
							<feature> 9 </feature>
							<threshold> -3.6391745 </threshold>
							<split pos="left">
								<feature> 9 </feature>
								<threshold> -5.7206993 </threshold>
								<split pos="left">
									<feature> 9 </feature>
									<threshold> -6.275772 </threshold>
									<split pos="left">
										<feature> 11 </feature>
										<threshold> -4.775315 </threshold>
										<split pos="left">
											<feature> 11 </feature>
											<threshold> -5.0867457 </threshold>
											<split pos="left">
												<output> -0.06331212 </output>
											</split>
											<split pos="right">
												<output> -0.87354404 </output>
											</split>
										</split>
										<split pos="right">
											<output> 0.32899252 </output>
										</split>
									</split>
									<split pos="right">
										<output> -1.0605773 </output>
									</split>
								</split>
								<split pos="right">
									<output> 0.43254492 </output>
								</split>
							</split>
							<split pos="right">
								<output> 1.6799455 </output>
							</split>
						</split>
						<split pos="right">
							<output> -0.7335755 </output>
						</split>
					</split>
					<split pos="right">
						<output> -0.7839387 </output>
					</split>
				</split>
			</split>
		</split>
	</tree>
	<tree id="8" weight="0.1">
		<split>
			<feature> 9 </feature>
			<threshold> -3.5929182 </threshold>
			<split pos="left">
				<feature> 9 </feature>
				<threshold> -3.6391745 </threshold>
				<split pos="left">
					<feature> 9 </feature>
					<threshold> -4.147993 </threshold>
					<split pos="left">
						<feature> 9 </feature>
						<threshold> -4.2867613 </threshold>
						<split pos="left">
							<feature> 11 </feature>
							<threshold> -11.315334 </threshold>
							<split pos="left">
								<output> -0.39133096 </output>
							</split>
							<split pos="right">
								<feature> 11 </feature>
								<threshold> -10.588669 </threshold>
								<split pos="left">
									<output> 1.3353859 </output>
								</split>
								<split pos="right">
									<feature> 9 </feature>
									<threshold> -5.7206993 </threshold>
									<split pos="left">
										<feature> 3 </feature>
										<threshold> -20.723267 </threshold>
										<split pos="left">
											<output> -0.3136289 </output>
										</split>
										<split pos="right">
											<feature> 9 </feature>
											<threshold> -7.8022223 </threshold>
											<split pos="left">
												<output> 0.20493187 </output>
											</split>
											<split pos="right">
												<output> -1.1820594 </output>
											</split>
										</split>
									</split>
									<split pos="right">
										<output> 0.47200763 </output>
									</split>
								</split>
							</split>
						</split>
						<split pos="right">
							<output> -1.204373 </output>
						</split>
					</split>
					<split pos="right">
						<output> 0.4949237 </output>
					</split>
				</split>
				<split pos="right">
					<output> 1.1919725 </output>
				</split>
			</split>
			<split pos="right">
				<output> -0.6949757 </output>
			</split>
		</split>
	</tree>
	<tree id="9" weight="0.1">
		<split>
			<feature> 11 </feature>
			<threshold> -11.055811 </threshold>
			<split pos="left">
				<output> -0.38621923 </output>
			</split>
			<split pos="right">
				<feature> 11 </feature>
				<threshold> -10.588669 </threshold>
				<split pos="left">
					<output> 1.2300618 </output>
				</split>
				<split pos="right">
					<feature> 9 </feature>
					<threshold> -5.7206993 </threshold>
					<split pos="left">
						<feature> 3 </feature>
						<threshold> -20.723267 </threshold>
						<split pos="left">
							<feature> 9 </feature>
							<threshold> -7.9872465 </threshold>
							<split pos="left">
								<output> -0.93747556 </output>
							</split>
							<split pos="right">
								<output> 0.21416417 </output>
							</split>
						</split>
						<split pos="right">
							<feature> 9 </feature>
							<threshold> -7.8022223 </threshold>
							<split pos="left">
								<feature> 9 </feature>
								<threshold> -7.8484783 </threshold>
								<split pos="left">
									<feature> 11 </feature>
									<threshold> -7.6820035 </threshold>
									<split pos="left">
										<output> -0.31479773 </output>
									</split>
									<split pos="right">
										<output> 0.26906604 </output>
									</split>
								</split>
								<split pos="right">
									<output> 1.7339094 </output>
								</split>
							</split>
							<split pos="right">
								<output> -1.1765767 </output>
							</split>
						</split>
					</split>
					<split pos="right">
						<feature> 9 </feature>
						<threshold> -5.628187 </threshold>
						<split pos="left">
							<output> 1.144912 </output>
						</split>
						<split pos="right">
							<output> 0.17574123 </output>
						</split>
					</split>
				</split>
			</split>
		</split>
	</tree>
	<tree id="10" weight="0.1">
		<split>
			<feature> 11 </feature>
			<threshold> -11.055811 </threshold>
			<split pos="left">
				<output> -0.37798786 </output>
			</split>
			<split pos="right">
				<feature> 11 </feature>
				<threshold> -10.588669 </threshold>
				<split pos="left">
					<output> 1.1701195 </output>
				</split>
				<split pos="right">
					<feature> 11 </feature>
					<threshold> -0.3633767 </threshold>
					<split pos="left">
						<feature> 9 </feature>
						<threshold> -5.7206993 </threshold>
						<split pos="left">
							<feature> 9 </feature>
							<threshold> -6.275772 </threshold>
							<split pos="left">
								<feature> 11 </feature>
								<threshold> -1.7648158 </threshold>
								<split pos="left">
									<feature> 11 </feature>
									<threshold> -2.0762467 </threshold>
									<split pos="left">
										<feature> 9 </feature>
										<threshold> -7.9872465 </threshold>
										<split pos="left">
											<output> -0.114689834 </output>
										</split>
										<split pos="right">
											<output> 0.31299457 </output>
										</split>
									</split>
									<split pos="right">
										<output> -1.0026531 </output>
									</split>
								</split>
								<split pos="right">
									<output> 0.5526976 </output>
								</split>
							</split>
							<split pos="right">
								<output> -1.1474699 </output>
							</split>
						</split>
						<split pos="right">
							<feature> 9 </feature>
							<threshold> -5.628187 </threshold>
							<split pos="left">
								<output> 1.0434546 </output>
							</split>
							<split pos="right">
								<output> 0.24006619 </output>
							</split>
						</split>
					</split>
					<split pos="right">
						<output> -0.67576116 </output>
					</split>
				</split>
			</split>
		</split>
	</tree>
	<tree id="11" weight="0.1">
		<split>
			<feature> 11 </feature>
			<threshold> -11.055811 </threshold>
			<split pos="left">
				<output> -0.3420619 </output>
			</split>
			<split pos="right">
				<feature> 11 </feature>
				<threshold> -10.588669 </threshold>
				<split pos="left">
					<output> 1.1189663 </output>
				</split>
				<split pos="right">
					<feature> 9 </feature>
					<threshold> -5.7206993 </threshold>
					<split pos="left">
						<feature> 9 </feature>
						<threshold> -6.275772 </threshold>
						<split pos="left">
							<feature> 9 </feature>
							<threshold> -6.322028 </threshold>
							<split pos="left">
								<feature> 11 </feature>
								<threshold> -0.5190921 </threshold>
								<split pos="left">
									<feature> 11 </feature>
									<threshold> -1.7648158 </threshold>
									<split pos="left">
										<feature> 11 </feature>
										<threshold> -2.0762467 </threshold>
										<split pos="left">
											<feature> 9 </feature>
											<threshold> -7.9872465 </threshold>
											<split pos="left">
												<output> -0.12110284 </output>
											</split>
											<split pos="right">
												<output> 0.2427727 </output>
											</split>
										</split>
										<split pos="right">
											<output> -0.969524 </output>
										</split>
									</split>
									<split pos="right">
										<output> 0.5822164 </output>
									</split>
								</split>
								<split pos="right">
									<output> -0.97291726 </output>
								</split>
							</split>
							<split pos="right">
								<output> 2.004224 </output>
							</split>
						</split>
						<split pos="right">
							<output> -0.73664206 </output>
						</split>
					</split>
					<split pos="right">
						<output> 0.22616677 </output>
					</split>
				</split>
			</split>
		</split>
	</tree>
	<tree id="12" weight="0.1">
		<split>
			<feature> 11 </feature>
			<threshold> -0.3633767 </threshold>
			<split pos="left">
				<feature> 9 </feature>
				<threshold> -3.5929182 </threshold>
				<split pos="left">
					<feature> 9 </feature>
					<threshold> -3.6391745 </threshold>
					<split pos="left">
						<feature> 9 </feature>
						<threshold> -4.147993 </threshold>
						<split pos="left">
							<feature> 9 </feature>
							<threshold> -4.2867613 </threshold>
							<split pos="left">
								<feature> 9 </feature>
								<threshold> -5.7206993 </threshold>
								<split pos="left">
									<feature> 9 </feature>
									<threshold> -7.2008934 </threshold>
									<split pos="left">
										<feature> 9 </feature>
										<threshold> -7.9872465 </threshold>
										<split pos="left">
											<feature> 3 </feature>
											<threshold> -20.723267 </threshold>
											<split pos="left">
												<output> -0.51298225 </output>
											</split>
											<split pos="right">
												<output> 0.117602505 </output>
											</split>
										</split>
										<split pos="right">
											<output> 0.5324135 </output>
										</split>
									</split>
									<split pos="right">
										<output> -0.56074935 </output>
									</split>
								</split>
								<split pos="right">
									<output> 0.34325325 </output>
								</split>
							</split>
							<split pos="right">
								<output> -1.2561369 </output>
							</split>
						</split>
						<split pos="right">
							<output> 0.50441575 </output>
						</split>
					</split>
					<split pos="right">
						<output> 1.4363614 </output>
					</split>
				</split>
				<split pos="right">
					<output> -0.57436574 </output>
				</split>
			</split>
			<split pos="right">
				<output> -0.60269076 </output>
			</split>
		</split>
	</tree>
	<tree id="13" weight="0.1">
		<split>
			<feature> 11 </feature>
			<threshold> -0.3633767 </threshold>
			<split pos="left">
				<feature> 9 </feature>
				<threshold> -3.5929182 </threshold>
				<split pos="left">
					<feature> 9 </feature>
					<threshold> -3.6391745 </threshold>
					<split pos="left">
						<feature> 9 </feature>
						<threshold> -4.147993 </threshold>
						<split pos="left">
							<feature> 9 </feature>
							<threshold> -4.2867613 </threshold>
							<split pos="left">
								<feature> 9 </feature>
								<threshold> -5.7206993 </threshold>
								<split pos="left">
									<feature> 9 </feature>
									<threshold> -7.2008934 </threshold>
									<split pos="left">
										<feature> 9 </feature>
										<threshold> -7.9872465 </threshold>
										<split pos="left">
											<feature> 3 </feature>
											<threshold> -20.723267 </threshold>
											<split pos="left">
												<output> -0.5060262 </output>
											</split>
											<split pos="right">
												<output> 0.1168297 </output>
											</split>
										</split>
										<split pos="right">
											<output> 0.5351252 </output>
										</split>
									</split>
									<split pos="right">
										<output> -0.55084157 </output>
									</split>
								</split>
								<split pos="right">
									<output> 0.30152425 </output>
								</split>
							</split>
							<split pos="right">
								<output> -1.083932 </output>
							</split>
						</split>
						<split pos="right">
							<output> 0.45549443 </output>
						</split>
					</split>
					<split pos="right">
						<output> 1.3914176 </output>
					</split>
				</split>
				<split pos="right">
					<output> -0.53235453 </output>
				</split>
			</split>
			<split pos="right">
				<output> -0.56809795 </output>
			</split>
		</split>
	</tree>
	<tree id="14" weight="0.1">
		<split>
			<feature> 9 </feature>
			<threshold> -3.5929182 </threshold>
			<split pos="left">
				<feature> 9 </feature>
				<threshold> -3.6391745 </threshold>
				<split pos="left">
					<feature> 9 </feature>
					<threshold> -5.7206993 </threshold>
					<split pos="left">
						<feature> 9 </feature>
						<threshold> -7.2008934 </threshold>
						<split pos="left">
							<feature> 9 </feature>
							<threshold> -7.9872465 </threshold>
							<split pos="left">
								<feature> 3 </feature>
								<threshold> -20.723267 </threshold>
								<split pos="left">
									<output> -0.52843815 </output>
								</split>
								<split pos="right">
									<feature> 2 </feature>
									<threshold> 0.018232819 </threshold>
									<split pos="left">
										<feature> 2 </feature>
										<threshold> 0.016393442 </threshold>
										<split pos="left">
											<feature> 11 </feature>
											<threshold> -4.82722 </threshold>
											<split pos="left">
												<output> -0.14494628 </output>
											</split>
											<split pos="right">
												<output> 0.40292168 </output>
											</split>
										</split>
										<split pos="right">
											<output> -1.077553 </output>
										</split>
									</split>
									<split pos="right">
										<output> 0.37529084 </output>
									</split>
								</split>
							</split>
							<split pos="right">
								<output> 0.4635056 </output>
							</split>
						</split>
						<split pos="right">
							<output> -0.44555157 </output>
						</split>
					</split>
					<split pos="right">
						<output> 0.20302609 </output>
					</split>
				</split>
				<split pos="right">
					<output> 0.89786696 </output>
				</split>
			</split>
			<split pos="right">
				<output> -0.5198556 </output>
			</split>
		</split>
	</tree>
	<tree id="15" weight="0.1">
		<split>
			<feature> 11 </feature>
			<threshold> -11.055811 </threshold>
			<split pos="left">
				<output> -0.24188657 </output>
			</split>
			<split pos="right">
				<feature> 11 </feature>
				<threshold> -10.588669 </threshold>
				<split pos="left">
					<output> 1.0214486 </output>
				</split>
				<split pos="right">
					<feature> 11 </feature>
					<threshold> -5.553892 </threshold>
					<split pos="left">
						<feature> 11 </feature>
						<threshold> -5.6057973 </threshold>
						<split pos="left">
							<feature> 9 </feature>
							<threshold> -5.7206993 </threshold>
							<split pos="left">
								<output> -0.05666996 </output>
							</split>
							<split pos="right">
								<output> 0.42583904 </output>
							</split>
						</split>
						<split pos="right">
							<output> 2.0047643 </output>
						</split>
					</split>
					<split pos="right">
						<feature> 9 </feature>
						<threshold> -3.731687 </threshold>
						<split pos="left">
							<feature> 2 </feature>
							<threshold> 0.017199017 </threshold>
							<split pos="left">
								<feature> 11 </feature>
								<threshold> -5.450082 </threshold>
								<split pos="left">
									<output> -1.4455829 </output>
								</split>
								<split pos="right">
									<feature> 2 </feature>
									<threshold> 0.014778325 </threshold>
									<split pos="left">
										<output> 0.0551282 </output>
									</split>
									<split pos="right">
										<output> 1.4678917 </output>
									</split>
								</split>
							</split>
							<split pos="right">
								<output> -0.4149049 </output>
							</split>
						</split>
						<split pos="right">
							<output> -1.2064825 </output>
						</split>
					</split>
				</split>
			</split>
		</split>
	</tree>
	<tree id="16" weight="0.1">
		<split>
			<feature> 9 </feature>
			<threshold> -3.5929182 </threshold>
			<split pos="left">
				<feature> 9 </feature>
				<threshold> -3.6391745 </threshold>
				<split pos="left">
					<feature> 9 </feature>
					<threshold> -4.147993 </threshold>
					<split pos="left">
						<feature> 9 </feature>
						<threshold> -4.2867613 </threshold>
						<split pos="left">
							<feature> 9 </feature>
							<threshold> -5.443163 </threshold>
							<split pos="left">
								<feature> 9 </feature>
								<threshold> -5.535675 </threshold>
								<split pos="left">
									<feature> 9 </feature>
									<threshold> -10.438818 </threshold>
									<split pos="left">
										<feature> 2 </feature>
										<threshold> 0.018232819 </threshold>
										<split pos="left">
											<output> 0.043526534 </output>
										</split>
										<split pos="right">
											<output> 0.36650586 </output>
										</split>
									</split>
									<split pos="right">
										<feature> 2 </feature>
										<threshold> 0.00990099 </threshold>
										<split pos="left">
											<output> -0.08563724 </output>
										</split>
										<split pos="right">
											<output> -0.27542433 </output>
										</split>
									</split>
								</split>
								<split pos="right">
									<output> -2.2929251 </output>
								</split>
							</split>
							<split pos="right">
								<output> 0.27027768 </output>
							</split>
						</split>
						<split pos="right">
							<output> -0.8879094 </output>
						</split>
					</split>
					<split pos="right">
						<output> 0.28493312 </output>
					</split>
				</split>
				<split pos="right">
					<output> 0.88434476 </output>
				</split>
			</split>
			<split pos="right">
				<output> -0.51874614 </output>
			</split>
		</split>
	</tree>
	<tree id="17" weight="0.1">
		<split>
			<feature> 11 </feature>
			<threshold> -8.252958 </threshold>
			<split pos="left">
				<feature> 11 </feature>
				<threshold> -8.82391 </threshold>
				<split pos="left">
					<output> 0.014519878 </output>
				</split>
				<split pos="right">
					<output> -1.1181501 </output>
				</split>
			</split>
			<split pos="right">
				<feature> 11 </feature>
				<threshold> -8.149149 </threshold>
				<split pos="left">
					<output> 0.93095225 </output>
				</split>
				<split pos="right">
					<feature> 11 </feature>
					<threshold> -7.6820035 </threshold>
					<split pos="left">
						<output> -0.6358698 </output>
					</split>
					<split pos="right">
						<feature> 11 </feature>
						<threshold> -7.6300983 </threshold>
						<split pos="left">
							<output> 1.4676758 </output>
						</split>
						<split pos="right">
							<feature> 11 </feature>
							<threshold> -5.553892 </threshold>
							<split pos="left">
								<output> 0.3378083 </output>
							</split>
							<split pos="right">
								<feature> 9 </feature>
								<threshold> -3.731687 </threshold>
								<split pos="left">
									<feature> 2 </feature>
									<threshold> 0.017199017 </threshold>
									<split pos="left">
										<feature> 11 </feature>
										<threshold> -5.450082 </threshold>
										<split pos="left">
											<output> -1.237395 </output>
										</split>
										<split pos="right">
											<output> 0.082833625 </output>
										</split>
									</split>
									<split pos="right">
										<output> -0.36080956 </output>
									</split>
								</split>
								<split pos="right">
									<output> -1.108936 </output>
								</split>
							</split>
						</split>
					</split>
				</split>
			</split>
		</split>
	</tree>
	<tree id="18" weight="0.1">
		<split>
			<feature> 9 </feature>
			<threshold> -3.5929182 </threshold>
			<split pos="left">
				<feature> 9 </feature>
				<threshold> -3.6391745 </threshold>
				<split pos="left">
					<feature> 9 </feature>
					<threshold> -4.147993 </threshold>
					<split pos="left">
						<feature> 9 </feature>
						<threshold> -4.2867613 </threshold>
						<split pos="left">
							<feature> 9 </feature>
							<threshold> -5.443163 </threshold>
							<split pos="left">
								<feature> 9 </feature>
								<threshold> -5.581931 </threshold>
								<split pos="left">
									<feature> 9 </feature>
									<threshold> -5.7206993 </threshold>
									<split pos="left">
										<feature> 9 </feature>
										<threshold> -7.2008934 </threshold>
										<split pos="left">
											<feature> 9 </feature>
											<threshold> -7.2934055 </threshold>
											<split pos="left">
												<output> 9.953507E-4 </output>
											</split>
											<split pos="right">
												<output> 0.79722446 </output>
											</split>
										</split>
										<split pos="right">
											<output> -0.36185706 </output>
										</split>
									</split>
									<split pos="right">
										<output> 0.63246125 </output>
									</split>
								</split>
								<split pos="right">
									<output> -1.4195304 </output>
								</split>
							</split>
							<split pos="right">
								<output> 0.24623597 </output>
							</split>
						</split>
						<split pos="right">
							<output> -0.85425293 </output>
						</split>
					</split>
					<split pos="right">
						<output> 0.31606203 </output>
					</split>
				</split>
				<split pos="right">
					<output> 0.8377739 </output>
				</split>
			</split>
			<split pos="right">
				<output> -0.46331602 </output>
			</split>
		</split>
	</tree>
	<tree id="19" weight="0.1">
		<split>
			<feature> 11 </feature>
			<threshold> -11.055811 </threshold>
			<split pos="left">
				<output> -0.22059369 </output>
			</split>
			<split pos="right">
				<feature> 11 </feature>
				<threshold> -10.588669 </threshold>
				<split pos="left">
					<output> 0.93898547 </output>
				</split>
				<split pos="right">
					<feature> 9 </feature>
					<threshold> -3.0840988 </threshold>
					<split pos="left">
						<feature> 9 </feature>
						<threshold> -3.5929182 </threshold>
						<split pos="left">
							<feature> 9 </feature>
							<threshold> -3.6391745 </threshold>
							<split pos="left">
								<feature> 9 </feature>
								<threshold> -7.9872465 </threshold>
								<split pos="left">
									<feature> 3 </feature>
									<threshold> -20.723267 </threshold>
									<split pos="left">
										<output> -0.76534134 </output>
									</split>
									<split pos="right">
										<output> 0.114949174 </output>
									</split>
								</split>
								<split pos="right">
									<feature> 9 </feature>
									<threshold> -7.9409904 </threshold>
									<split pos="left">
										<output> 1.3113289 </output>
									</split>
									<split pos="right">
										<feature> 2 </feature>
										<threshold> 0.013157895 </threshold>
										<split pos="left">
											<output> -0.045306046 </output>
										</split>
										<split pos="right">
											<output> 0.37346363 </output>
										</split>
									</split>
								</split>
							</split>
							<split pos="right">
								<output> 0.87665504 </output>
							</split>
						</split>
						<split pos="right">
							<output> -1.2479078 </output>
						</split>
					</split>
					<split pos="right">
						<output> 0.83676314 </output>
					</split>
				</split>
			</split>
		</split>
	</tree>
	<tree id="20" weight="0.1">
		<split>
			<feature> 11 </feature>
			<threshold> -11.055811 </threshold>
			<split pos="left">
				<output> -0.21828356 </output>
			</split>
			<split pos="right">
				<feature> 11 </feature>
				<threshold> -10.588669 </threshold>
				<split pos="left">
					<output> 0.9016354 </output>
				</split>
				<split pos="right">
					<feature> 9 </feature>
					<threshold> -7.9872465 </threshold>
					<split pos="left">
						<feature> 3 </feature>
						<threshold> -20.723267 </threshold>
						<split pos="left">
							<output> -0.7518464 </output>
						</split>
						<split pos="right">
							<feature> 11 </feature>
							<threshold> -10.432955 </threshold>
							<split pos="left">
								<output> -1.6779807 </output>
							</split>
							<split pos="right">
								<output> 0.119535 </output>
							</split>
						</split>
					</split>
					<split pos="right">
						<feature> 9 </feature>
						<threshold> -7.9409904 </threshold>
						<split pos="left">
							<output> 1.2452892 </output>
						</split>
						<split pos="right">
							<feature> 9 </feature>
							<threshold> -7.8022223 </threshold>
							<split pos="left">
								<output> 1.0886499 </output>
							</split>
							<split pos="right">
								<feature> 11 </feature>
								<threshold> -1.50529 </threshold>
								<split pos="left">
									<feature> 11 </feature>
									<threshold> -1.7129107 </threshold>
									<split pos="left">
										<output> 0.04934166 </output>
									</split>
									<split pos="right">
										<output> 0.78721344 </output>
									</split>
								</split>
								<split pos="right">
									<output> -0.43319535 </output>
								</split>
							</split>
						</split>
					</split>
				</split>
			</split>
		</split>
	</tree>
	<tree id="21" weight="0.1">
		<split>
			<feature> 11 </feature>
			<threshold> -11.055811 </threshold>
			<split pos="left">
				<output> -0.18646663 </output>
			</split>
			<split pos="right">
				<feature> 11 </feature>
				<threshold> -10.588669 </threshold>
				<split pos="left">
					<output> 0.8643637 </output>
				</split>
				<split pos="right">
					<feature> 9 </feature>
					<threshold> -3.0840988 </threshold>
					<split pos="left">
						<feature> 9 </feature>
						<threshold> -3.5929182 </threshold>
						<split pos="left">
							<feature> 9 </feature>
							<threshold> -3.6391745 </threshold>
							<split pos="left">
								<feature> 9 </feature>
								<threshold> -3.731687 </threshold>
								<split pos="left">
									<feature> 9 </feature>
									<threshold> -4.147993 </threshold>
									<split pos="left">
										<feature> 9 </feature>
										<threshold> -4.2867613 </threshold>
										<split pos="left">
											<feature> 9 </feature>
											<threshold> -5.7206993 </threshold>
											<split pos="left">
												<output> -0.036402162 </output>
											</split>
											<split pos="right">
												<output> 0.20860963 </output>
											</split>
										</split>
										<split pos="right">
											<output> -0.72929823 </output>
										</split>
									</split>
									<split pos="right">
										<output> 0.5125968 </output>
									</split>
								</split>
								<split pos="right">
									<output> -0.7880527 </output>
								</split>
							</split>
							<split pos="right">
								<output> 0.848781 </output>
							</split>
						</split>
						<split pos="right">
							<output> -1.2003993 </output>
						</split>
					</split>
					<split pos="right">
						<output> 0.7406028 </output>
					</split>
				</split>
			</split>
		</split>
	</tree>
	<tree id="22" weight="0.1">
		<split>
			<feature> 11 </feature>
			<threshold> -8.252958 </threshold>
			<split pos="left">
				<feature> 11 </feature>
				<threshold> -8.82391 </threshold>
				<split pos="left">
					<output> 0.009460459 </output>
				</split>
				<split pos="right">
					<output> -1.021534 </output>
				</split>
			</split>
			<split pos="right">
				<feature> 11 </feature>
				<threshold> -8.149149 </threshold>
				<split pos="left">
					<output> 0.7698959 </output>
				</split>
				<split pos="right">
					<feature> 11 </feature>
					<threshold> -7.6820035 </threshold>
					<split pos="left">
						<output> -0.59150624 </output>
					</split>
					<split pos="right">
						<feature> 11 </feature>
						<threshold> -7.6300983 </threshold>
						<split pos="left">
							<output> 1.3485463 </output>
						</split>
						<split pos="right">
							<feature> 11 </feature>
							<threshold> -7.162952 </threshold>
							<split pos="left">
								<output> 0.74820644 </output>
							</split>
							<split pos="right">
								<feature> 2 </feature>
								<threshold> 0.017199017 </threshold>
								<split pos="left">
									<feature> 9 </feature>
									<threshold> -5.396907 </threshold>
									<split pos="left">
										<feature> 11 </feature>
										<threshold> -4.775315 </threshold>
										<split pos="left">
											<output> -0.47393426 </output>
										</split>
										<split pos="right">
											<output> 0.1593389 </output>
										</split>
									</split>
									<split pos="right">
										<output> 0.2458917 </output>
									</split>
								</split>
								<split pos="right">
									<output> -0.2775191 </output>
								</split>
							</split>
						</split>
					</split>
				</split>
			</split>
		</split>
	</tree>
	<tree id="23" weight="0.1">
		<split>
			<feature> 9 </feature>
			<threshold> -3.5929182 </threshold>
			<split pos="left">
				<feature> 9 </feature>
				<threshold> -3.6391745 </threshold>
				<split pos="left">
					<feature> 9 </feature>
					<threshold> -4.147993 </threshold>
					<split pos="left">
						<feature> 9 </feature>
						<threshold> -4.2867613 </threshold>
						<split pos="left">
							<feature> 11 </feature>
							<threshold> -11.315334 </threshold>
							<split pos="left">
								<output> -0.17101303 </output>
							</split>
							<split pos="right">
								<feature> 11 </feature>
								<threshold> -10.588669 </threshold>
								<split pos="left">
									<output> 1.0004456 </output>
								</split>
								<split pos="right">
									<feature> 11 </feature>
									<threshold> -10.225336 </threshold>
									<split pos="left">
										<output> -1.4687943 </output>
									</split>
									<split pos="right">
										<feature> 11 </feature>
										<threshold> -10.017717 </threshold>
										<split pos="left">
											<output> 1.280108 </output>
										</split>
										<split pos="right">
											<feature> 11 </feature>
											<threshold> -9.965813 </threshold>
											<split pos="left">
												<output> -1.4008191 </output>
											</split>
											<split pos="right">
												<output> 0.018990917 </output>
											</split>
										</split>
									</split>
								</split>
							</split>
						</split>
						<split pos="right">
							<output> -0.70008844 </output>
						</split>
					</split>
					<split pos="right">
						<output> 0.22082202 </output>
					</split>
				</split>
				<split pos="right">
					<output> 0.78128934 </output>
				</split>
			</split>
			<split pos="right">
				<output> -0.3948262 </output>
			</split>
		</split>
	</tree>
	<tree id="24" weight="0.1">
		<split>
			<feature> 9 </feature>
			<threshold> -3.0840988 </threshold>
			<split pos="left">
				<feature> 9 </feature>
				<threshold> -3.5929182 </threshold>
				<split pos="left">
					<feature> 9 </feature>
					<threshold> -3.6391745 </threshold>
					<split pos="left">
						<feature> 11 </feature>
						<threshold> -7.6820035 </threshold>
						<split pos="left">
							<output> -0.10454353 </output>
						</split>
						<split pos="right">
							<feature> 11 </feature>
							<threshold> -7.6300983 </threshold>
							<split pos="left">
								<output> 1.2596369 </output>
							</split>
							<split pos="right">
								<feature> 9 </feature>
								<threshold> -3.731687 </threshold>
								<split pos="left">
									<feature> 9 </feature>
									<threshold> -4.194249 </threshold>
									<split pos="left">
										<feature> 11 </feature>
										<threshold> -7.0072365 </threshold>
										<split pos="left">
											<output> 0.82262206 </output>
										</split>
										<split pos="right">
											<feature> 11 </feature>
											<threshold> -6.2805643 </threshold>
											<split pos="left">
												<output> -0.7555187 </output>
											</split>
											<split pos="right">
												<output> 0.03249208 </output>
											</split>
										</split>
									</split>
									<split pos="right">
										<output> 0.56719923 </output>
									</split>
								</split>
								<split pos="right">
									<output> -1.1017057 </output>
								</split>
							</split>
						</split>
					</split>
					<split pos="right">
						<output> 0.7390342 </output>
					</split>
				</split>
				<split pos="right">
					<output> -1.0636315 </output>
				</split>
			</split>
			<split pos="right">
				<output> 0.7323953 </output>
			</split>
		</split>
	</tree>
	<tree id="25" weight="0.1">
		<split>
			<feature> 9 </feature>
			<threshold> -3.0840988 </threshold>
			<split pos="left">
				<feature> 9 </feature>
				<threshold> -3.5929182 </threshold>
				<split pos="left">
					<feature> 9 </feature>
					<threshold> -3.6391745 </threshold>
					<split pos="left">
						<feature> 9 </feature>
						<threshold> -10.76261 </threshold>
						<split pos="left">
							<feature> 9 </feature>
							<threshold> -10.8088665 </threshold>
							<split pos="left">
								<feature> 2 </feature>
								<threshold> 0.018232819 </threshold>
								<split pos="left">
									<output> 0.051884603 </output>
								</split>
								<split pos="right">
									<output> 0.21460795 </output>
								</split>
							</split>
							<split pos="right">
								<output> 1.5162762 </output>
							</split>
						</split>
						<split pos="right">
							<feature> 9 </feature>
							<threshold> -7.9872465 </threshold>
							<split pos="left">
								<output> -0.34789956 </output>
							</split>
							<split pos="right">
								<feature> 9 </feature>
								<threshold> -7.9409904 </threshold>
								<split pos="left">
									<output> 1.0082628 </output>
								</split>
								<split pos="right">
									<feature> 11 </feature>
									<threshold> -7.6820035 </threshold>
									<split pos="left">
										<output> -0.26211402 </output>
									</split>
									<split pos="right">
										<output> 0.12726818 </output>
									</split>
								</split>
							</split>
						</split>
					</split>
					<split pos="right">
						<output> 0.70180833 </output>
					</split>
				</split>
				<split pos="right">
					<output> -1.0221676 </output>
				</split>
			</split>
			<split pos="right">
				<output> 0.696206 </output>
			</split>
		</split>
	</tree>
	<tree id="26" weight="0.1">
		<split>
			<feature> 9 </feature>
			<threshold> -3.0840988 </threshold>
			<split pos="left">
				<feature> 9 </feature>
				<threshold> -3.5929182 </threshold>
				<split pos="left">
					<feature> 9 </feature>
					<threshold> -3.6391745 </threshold>
					<split pos="left">
						<feature> 9 </feature>
						<threshold> -10.76261 </threshold>
						<split pos="left">
							<feature> 9 </feature>
							<threshold> -10.8088665 </threshold>
							<split pos="left">
								<feature> 9 </feature>
								<threshold> -11.271427 </threshold>
								<split pos="left">
									<feature> 9 </feature>
									<threshold> -11.687732 </threshold>
									<split pos="left">
										<feature> 11 </feature>
										<threshold> -2.491488 </threshold>
										<split pos="left">
											<output> 0.12025799 </output>
										</split>
										<split pos="right">
											<output> -0.28165516 </output>
										</split>
									</split>
									<split pos="right">
										<output> 1.3661524 </output>
									</split>
								</split>
								<split pos="right">
									<output> -1.0728161 </output>
								</split>
							</split>
							<split pos="right">
								<output> 1.4435867 </output>
							</split>
						</split>
						<split pos="right">
							<feature> 9 </feature>
							<threshold> -5.9519796 </threshold>
							<split pos="left">
								<output> -0.16852774 </output>
							</split>
							<split pos="right">
								<output> 0.08364198 </output>
							</split>
						</split>
					</split>
					<split pos="right">
						<output> 0.65967834 </output>
					</split>
				</split>
				<split pos="right">
					<output> -0.983817 </output>
				</split>
			</split>
			<split pos="right">
				<output> 0.65636396 </output>
			</split>
		</split>
	</tree>
	<tree id="27" weight="0.1">
		<split>
			<feature> 9 </feature>
			<threshold> -3.0840988 </threshold>
			<split pos="left">
				<feature> 9 </feature>
				<threshold> -3.5929182 </threshold>
				<split pos="left">
					<feature> 9 </feature>
					<threshold> -3.6391745 </threshold>
					<split pos="left">
						<feature> 9 </feature>
						<threshold> -11.410195 </threshold>
						<split pos="left">
							<feature> 9 </feature>
							<threshold> -11.687732 </threshold>
							<split pos="left">
								<feature> 11 </feature>
								<threshold> -2.491488 </threshold>
								<split pos="left">
									<feature> 11 </feature>
									<threshold> -2.6472034 </threshold>
									<split pos="left">
										<feature> 2 </feature>
										<threshold> 0.018232819 </threshold>
										<split pos="left">
											<output> 0.032965083 </output>
										</split>
										<split pos="right">
											<output> 0.31653982 </output>
										</split>
									</split>
									<split pos="right">
										<output> 1.2610906 </output>
									</split>
								</split>
								<split pos="right">
									<output> -0.2549144 </output>
								</split>
							</split>
							<split pos="right">
								<output> 1.3198708 </output>
							</split>
						</split>
						<split pos="right">
							<feature> 9 </feature>
							<threshold> -5.9519796 </threshold>
							<split pos="left">
								<output> -0.15323216 </output>
							</split>
							<split pos="right">
								<output> 0.0798429 </output>
							</split>
						</split>
					</split>
					<split pos="right">
						<output> 0.61735624 </output>
					</split>
				</split>
				<split pos="right">
					<output> -0.9463521 </output>
				</split>
			</split>
			<split pos="right">
				<output> 0.6044314 </output>
			</split>
		</split>
	</tree>
	<tree id="28" weight="0.1">
		<split>
			<feature> 9 </feature>
			<threshold> -3.0840988 </threshold>
			<split pos="left">
				<feature> 9 </feature>
				<threshold> -3.5929182 </threshold>
				<split pos="left">
					<feature> 9 </feature>
					<threshold> -3.6391745 </threshold>
					<split pos="left">
						<feature> 9 </feature>
						<threshold> -3.6854308 </threshold>
						<split pos="left">
							<feature> 9 </feature>
							<threshold> -4.101737 </threshold>
							<split pos="left">
								<feature> 9 </feature>
								<threshold> -7.2008934 </threshold>
								<split pos="left">
									<feature> 9 </feature>
									<threshold> -7.9872465 </threshold>
									<split pos="left">
										<feature> 9 </feature>
										<threshold> -8.634831 </threshold>
										<split pos="left">
											<feature> 9 </feature>
											<threshold> -8.6810875 </threshold>
											<split pos="left">
												<output> 0.03755602 </output>
											</split>
											<split pos="right">
												<output> 0.8063374 </output>
											</split>
										</split>
										<split pos="right">
											<output> -0.47867155 </output>
										</split>
									</split>
									<split pos="right">
										<output> 0.3681702 </output>
									</split>
								</split>
								<split pos="right">
									<output> -0.12438917 </output>
								</split>
							</split>
							<split pos="right">
								<output> 0.25136703 </output>
							</split>
						</split>
						<split pos="right">
							<output> -1.1962589 </output>
						</split>
					</split>
					<split pos="right">
						<output> 0.5753703 </output>
					</split>
				</split>
				<split pos="right">
					<output> -0.9102516 </output>
				</split>
			</split>
			<split pos="right">
				<output> 0.5817742 </output>
			</split>
		</split>
	</tree>
	<tree id="29" weight="0.1">
		<split>
			<feature> 9 </feature>
			<threshold> -3.0840988 </threshold>
			<split pos="left">
				<feature> 9 </feature>
				<threshold> -3.5929182 </threshold>
				<split pos="left">
					<feature> 9 </feature>
					<threshold> -3.6391745 </threshold>
					<split pos="left">
						<feature> 11 </feature>
						<threshold> -11.055811 </threshold>
						<split pos="left">
							<output> -0.15350598 </output>
						</split>
						<split pos="right">
							<feature> 2 </feature>
							<threshold> 0.013157895 </threshold>
							<split pos="left">
								<feature> 9 </feature>
								<threshold> -3.731687 </threshold>
								<split pos="left">
									<feature> 11 </feature>
									<threshold> -2.4395828 </threshold>
									<split pos="left">
										<feature> 11 </feature>
										<threshold> -8.82391 </threshold>
										<split pos="left">
											<output> 0.33250225 </output>
										</split>
										<split pos="right">
											<feature> 11 </feature>
											<threshold> -8.304863 </threshold>
											<split pos="left">
												<output> -1.3728096 </output>
											</split>
											<split pos="right">
												<output> -0.06592494 </output>
											</split>
										</split>
									</split>
									<split pos="right">
										<output> 0.2851782 </output>
									</split>
								</split>
								<split pos="right">
									<output> -1.548419 </output>
								</split>
							</split>
							<split pos="right">
								<output> 0.19526228 </output>
							</split>
						</split>
					</split>
					<split pos="right">
						<output> 0.5364247 </output>
					</split>
				</split>
				<split pos="right">
					<output> -0.87978125 </output>
				</split>
			</split>
			<split pos="right">
				<output> 0.55021226 </output>
			</split>
		</split>
	</tree>
	<tree id="30" weight="0.1">
		<split>
			<feature> 9 </feature>
			<threshold> -11.410195 </threshold>
			<split pos="left">
				<feature> 9 </feature>
				<threshold> -11.687732 </threshold>
				<split pos="left">
					<feature> 11 </feature>
					<threshold> -6.0210385 </threshold>
					<split pos="left">
						<feature> 11 </feature>
						<threshold> -6.124849 </threshold>
						<split pos="left">
							<output> 0.11791589 </output>
						</split>
						<split pos="right">
							<output> 1.4935842 </output>
						</split>
					</split>
					<split pos="right">
						<output> -0.051438436 </output>
					</split>
				</split>
				<split pos="right">
					<output> 1.265166 </output>
				</split>
			</split>
			<split pos="right">
				<feature> 9 </feature>
				<threshold> -7.9872465 </threshold>
				<split pos="left">
					<output> -0.30781972 </output>
				</split>
				<split pos="right">
					<feature> 9 </feature>
					<threshold> -7.9409904 </threshold>
					<split pos="left">
						<output> 0.93075633 </output>
					</split>
					<split pos="right">
						<feature> 11 </feature>
						<threshold> -7.6820035 </threshold>
						<split pos="left">
							<output> -0.23270893 </output>
						</split>
						<split pos="right">
							<feature> 9 </feature>
							<threshold> -7.8022223 </threshold>
							<split pos="left">
								<output> 1.178739 </output>
							</split>
							<split pos="right">
								<feature> 11 </feature>
								<threshold> -7.6300983 </threshold>
								<split pos="left">
									<output> 0.93606794 </output>
								</split>
								<split pos="right">
									<output> 0.035343982 </output>
								</split>
							</split>
						</split>
					</split>
				</split>
			</split>
		</split>
	</tree>
	<tree id="31" weight="0.1">
		<split>
			<feature> 9 </feature>
			<threshold> -11.410195 </threshold>
			<split pos="left">
				<feature> 9 </feature>
				<threshold> -11.687732 </threshold>
				<split pos="left">
					<feature> 11 </feature>
					<threshold> -2.491488 </threshold>
					<split pos="left">
						<output> 0.107398935 </output>
					</split>
					<split pos="right">
						<output> -0.2567534 </output>
					</split>
				</split>
				<split pos="right">
					<output> 1.2576096 </output>
				</split>
			</split>
			<split pos="right">
				<feature> 11 </feature>
				<threshold> -1.50529 </threshold>
				<split pos="left">
					<feature> 11 </feature>
					<threshold> -2.180057 </threshold>
					<split pos="left">
						<feature> 11 </feature>
						<threshold> -3.4257808 </threshold>
						<split pos="left">
							<feature> 9 </feature>
							<threshold> -11.178915 </threshold>
							<split pos="left">
								<output> -1.5295404 </output>
							</split>
							<split pos="right">
								<feature> 11 </feature>
								<threshold> -3.9967375 </threshold>
								<split pos="left">
									<feature> 9 </feature>
									<threshold> -4.101737 </threshold>
									<split pos="left">
										<output> -0.095468365 </output>
									</split>
									<split pos="right">
										<output> 0.20982641 </output>
									</split>
								</split>
								<split pos="right">
									<output> 0.58475983 </output>
								</split>
							</split>
						</split>
						<split pos="right">
							<output> -0.66652894 </output>
						</split>
					</split>
					<split pos="right">
						<output> 0.57626516 </output>
					</split>
				</split>
				<split pos="right">
					<output> -0.42923906 </output>
				</split>
			</split>
		</split>
	</tree>
	<tree id="32" weight="0.1">
		<split>
			<feature> 9 </feature>
			<threshold> -10.76261 </threshold>
			<split pos="left">
				<feature> 9 </feature>
				<threshold> -10.8088665 </threshold>
				<split pos="left">
					<feature> 9 </feature>
					<threshold> -11.271427 </threshold>
					<split pos="left">
						<feature> 9 </feature>
						<threshold> -11.687732 </threshold>
						<split pos="left">
							<feature> 11 </feature>
							<threshold> -6.0210385 </threshold>
							<split pos="left">
								<output> 0.16296877 </output>
							</split>
							<split pos="right">
								<output> -0.07686403 </output>
							</split>
						</split>
						<split pos="right">
							<output> 1.2291381 </output>
						</split>
					</split>
					<split pos="right">
						<output> -0.966721 </output>
					</split>
				</split>
				<split pos="right">
					<output> 1.3719245 </output>
				</split>
			</split>
			<split pos="right">
				<feature> 11 </feature>
				<threshold> -1.50529 </threshold>
				<split pos="left">
					<feature> 11 </feature>
					<threshold> -2.4395828 </threshold>
					<split pos="left">
						<feature> 11 </feature>
						<threshold> -3.4257808 </threshold>
						<split pos="left">
							<feature> 11 </feature>
							<threshold> -3.9967375 </threshold>
							<split pos="left">
								<output> -0.035499178 </output>
							</split>
							<split pos="right">
								<output> 0.5605608 </output>
							</split>
						</split>
						<split pos="right">
							<output> -0.8446905 </output>
						</split>
					</split>
					<split pos="right">
						<output> 0.42928693 </output>
					</split>
				</split>
				<split pos="right">
					<output> -0.41922557 </output>
				</split>
			</split>
		</split>
	</tree>
	<tree id="33" weight="0.1">
		<split>
			<feature> 9 </feature>
			<threshold> -3.0840988 </threshold>
			<split pos="left">
				<feature> 9 </feature>
				<threshold> -3.5929182 </threshold>
				<split pos="left">
					<feature> 9 </feature>
					<threshold> -3.6391745 </threshold>
					<split pos="left">
						<feature> 9 </feature>
						<threshold> -3.870456 </threshold>
						<split pos="left">
							<feature> 9 </feature>
							<threshold> -3.9167123 </threshold>
							<split pos="left">
								<feature> 9 </feature>
								<threshold> -4.009225 </threshold>
								<split pos="left">
									<feature> 9 </feature>
									<threshold> -4.101737 </threshold>
									<split pos="left">
										<feature> 9 </feature>
										<threshold> -4.2867613 </threshold>
										<split pos="left">
											<feature> 9 </feature>
											<threshold> -11.410195 </threshold>
											<split pos="left">
												<output> 0.07540078 </output>
											</split>
											<split pos="right">
												<output> -0.049254425 </output>
											</split>
										</split>
										<split pos="right">
											<output> -0.4151007 </output>
										</split>
									</split>
									<split pos="right">
										<output> 1.2512974 </output>
									</split>
								</split>
								<split pos="right">
									<output> -0.4766317 </output>
								</split>
							</split>
							<split pos="right">
								<output> 1.0663632 </output>
							</split>
						</split>
						<split pos="right">
							<output> -0.34046352 </output>
						</split>
					</split>
					<split pos="right">
						<output> 0.53846574 </output>
					</split>
				</split>
				<split pos="right">
					<output> -0.84773725 </output>
				</split>
			</split>
			<split pos="right">
				<output> 0.41324326 </output>
			</split>
		</split>
	</tree>
	<tree id="34" weight="0.1">
		<split>
			<feature> 9 </feature>
			<threshold> -2.2977417 </threshold>
			<split pos="left">
				<feature> 9 </feature>
				<threshold> -2.94533 </threshold>
				<split pos="left">
					<feature> 9 </feature>
					<threshold> -3.0378425 </threshold>
					<split pos="left">
						<feature> 9 </feature>
						<threshold> -3.0840988 </threshold>
						<split pos="left">
							<feature> 9 </feature>
							<threshold> -3.5929182 </threshold>
							<split pos="left">
								<feature> 9 </feature>
								<threshold> -3.6391745 </threshold>
								<split pos="left">
									<feature> 9 </feature>
									<threshold> -3.870456 </threshold>
									<split pos="left">
										<feature> 9 </feature>
										<threshold> -3.9167123 </threshold>
										<split pos="left">
											<feature> 9 </feature>
											<threshold> -4.009225 </threshold>
											<split pos="left">
												<output> 0.006128057 </output>
											</split>
											<split pos="right">
												<output> -0.41722 </output>
											</split>
										</split>
										<split pos="right">
											<output> 1.0329561 </output>
										</split>
									</split>
									<split pos="right">
										<output> -0.32023415 </output>
									</split>
								</split>
								<split pos="right">
									<output> 0.48817816 </output>
								</split>
							</split>
							<split pos="right">
								<output> -0.81994957 </output>
							</split>
						</split>
						<split pos="right">
							<output> 1.1982031 </output>
						</split>
					</split>
					<split pos="right">
						<output> -1.9299883 </output>
					</split>
				</split>
				<split pos="right">
					<output> 1.0821106 </output>
				</split>
			</split>
			<split pos="right">
				<output> -1.4156581 </output>
			</split>
		</split>
	</tree>
	<tree id="35" weight="0.1">
		<split>
			<feature> 9 </feature>
			<threshold> -2.2977417 </threshold>
			<split pos="left">
				<feature> 9 </feature>
				<threshold> -2.94533 </threshold>
				<split pos="left">
					<feature> 9 </feature>
					<threshold> -3.0378425 </threshold>
					<split pos="left">
						<feature> 9 </feature>
						<threshold> -3.0840988 </threshold>
						<split pos="left">
							<feature> 9 </feature>
							<threshold> -3.5929182 </threshold>
							<split pos="left">
								<feature> 9 </feature>
								<threshold> -4.147993 </threshold>
								<split pos="left">
									<feature> 9 </feature>
									<threshold> -4.2867613 </threshold>
									<split pos="left">
										<feature> 9 </feature>
										<threshold> -5.9519796 </threshold>
										<split pos="left">
											<feature> 9 </feature>
											<threshold> -7.2008934 </threshold>
											<split pos="left">
												<output> 0.036131117 </output>
											</split>
											<split pos="right">
												<output> -0.36242935 </output>
											</split>
										</split>
										<split pos="right">
											<output> 0.13023858 </output>
										</split>
									</split>
									<split pos="right">
										<output> -0.5765233 </output>
									</split>
								</split>
								<split pos="right">
									<output> 0.1900185 </output>
								</split>
							</split>
							<split pos="right">
								<output> -0.79126287 </output>
							</split>
						</split>
						<split pos="right">
							<output> 1.1070533 </output>
						</split>
					</split>
					<split pos="right">
						<output> -1.6898272 </output>
					</split>
				</split>
				<split pos="right">
					<output> 0.91243905 </output>
				</split>
			</split>
			<split pos="right">
				<output> -1.3658725 </output>
			</split>
		</split>
	</tree>
	<tree id="36" weight="0.1">
		<split>
			<feature> 11 </feature>
			<threshold> -7.6820035 </threshold>
			<split pos="left">
				<feature> 11 </feature>
				<threshold> -7.785814 </threshold>
				<split pos="left">
					<feature> 11 </feature>
					<threshold> -8.82391 </threshold>
					<split pos="left">
						<feature> 11 </feature>
						<threshold> -9.083433 </threshold>
						<split pos="left">
							<output> -0.046697006 </output>
						</split>
						<split pos="right">
							<output> 0.76403046 </output>
						</split>
					</split>
					<split pos="right">
						<output> -0.27925202 </output>
					</split>
				</split>
				<split pos="right">
					<output> -1.5148357 </output>
				</split>
			</split>
			<split pos="right">
				<feature> 11 </feature>
				<threshold> -7.6300983 </threshold>
				<split pos="left">
					<output> 1.112986 </output>
				</split>
				<split pos="right">
					<feature> 11 </feature>
					<threshold> -7.0591416 </threshold>
					<split pos="left">
						<output> 0.5025157 </output>
					</split>
					<split pos="right">
						<feature> 11 </feature>
						<threshold> -6.6439004 </threshold>
						<split pos="left">
							<output> -0.76700443 </output>
						</split>
						<split pos="right">
							<feature> 11 </feature>
							<threshold> -5.553892 </threshold>
							<split pos="left">
								<output> 0.37777388 </output>
							</split>
							<split pos="right">
								<feature> 11 </feature>
								<threshold> -4.775315 </threshold>
								<split pos="left">
									<output> -0.57234573 </output>
								</split>
								<split pos="right">
									<output> 0.0484734 </output>
								</split>
							</split>
						</split>
					</split>
				</split>
			</split>
		</split>
	</tree>
	<tree id="37" weight="0.1">
		<split>
			<feature> 11 </feature>
			<threshold> -5.553892 </threshold>
			<split pos="left">
				<feature> 11 </feature>
				<threshold> -5.6057973 </threshold>
				<split pos="left">
					<feature> 11 </feature>
					<threshold> -6.124849 </threshold>
					<split pos="left">
						<feature> 11 </feature>
						<threshold> -6.9553313 </threshold>
						<split pos="left">
							<feature> 2 </feature>
							<threshold> 0.016393442 </threshold>
							<split pos="left">
								<feature> 11 </feature>
								<threshold> -7.6820035 </threshold>
								<split pos="left">
									<feature> 11 </feature>
									<threshold> -8.82391 </threshold>
									<split pos="left">
										<output> 0.09000371 </output>
									</split>
									<split pos="right">
										<output> -0.6012952 </output>
									</split>
								</split>
								<split pos="right">
									<output> 0.52344275 </output>
								</split>
							</split>
							<split pos="right">
								<output> 0.31005755 </output>
							</split>
						</split>
						<split pos="right">
							<output> -0.4567293 </output>
						</split>
					</split>
					<split pos="right">
						<output> 0.38863292 </output>
					</split>
				</split>
				<split pos="right">
					<output> 1.3850344 </output>
				</split>
			</split>
			<split pos="right">
				<feature> 2 </feature>
				<threshold> 0.017199017 </threshold>
				<split pos="left">
					<feature> 11 </feature>
					<threshold> -5.450082 </threshold>
					<split pos="left">
						<output> -1.3437167 </output>
					</split>
					<split pos="right">
						<output> 0.015864523 </output>
					</split>
				</split>
				<split pos="right">
					<output> -0.34955353 </output>
				</split>
			</split>
		</split>
	</tree>
	<tree id="38" weight="0.1">
		<split>
			<feature> 11 </feature>
			<threshold> -5.553892 </threshold>
			<split pos="left">
				<feature> 11 </feature>
				<threshold> -5.6057973 </threshold>
				<split pos="left">
					<feature> 9 </feature>
					<threshold> -4.101737 </threshold>
					<split pos="left">
						<feature> 9 </feature>
						<threshold> -7.2471495 </threshold>
						<split pos="left">
							<feature> 9 </feature>
							<threshold> -7.2934055 </threshold>
							<split pos="left">
								<feature> 9 </feature>
								<threshold> -7.3396616 </threshold>
								<split pos="left">
									<feature> 9 </feature>
									<threshold> -7.3859177 </threshold>
									<split pos="left">
										<feature> 11 </feature>
										<threshold> -12.457237 </threshold>
										<split pos="left">
											<output> 0.3988128 </output>
										</split>
										<split pos="right">
											<output> -0.039017167 </output>
										</split>
									</split>
									<split pos="right">
										<output> 2.090971 </output>
									</split>
								</split>
								<split pos="right">
									<output> -1.5200742 </output>
								</split>
							</split>
							<split pos="right">
								<output> 1.001528 </output>
							</split>
						</split>
						<split pos="right">
							<output> -0.26198596 </output>
						</split>
					</split>
					<split pos="right">
						<output> 0.3552731 </output>
					</split>
				</split>
				<split pos="right">
					<output> 1.3361634 </output>
				</split>
			</split>
			<split pos="right">
				<feature> 11 </feature>
				<threshold> -4.775315 </threshold>
				<split pos="left">
					<output> -0.5287872 </output>
				</split>
				<split pos="right">
					<output> 0.017636402 </output>
				</split>
			</split>
		</split>
	</tree>
	<tree id="39" weight="0.1">
		<split>
			<feature> 11 </feature>
			<threshold> -5.553892 </threshold>
			<split pos="left">
				<feature> 11 </feature>
				<threshold> -5.6057973 </threshold>
				<split pos="left">
					<feature> 11 </feature>
					<threshold> -6.124849 </threshold>
					<split pos="left">
						<feature> 9 </feature>
						<threshold> -7.9409904 </threshold>
						<split pos="left">
							<feature> 9 </feature>
							<threshold> -8.033503 </threshold>
							<split pos="left">
								<feature> 2 </feature>
								<threshold> 0.016393442 </threshold>
								<split pos="left">
									<output> -0.050789494 </output>
								</split>
								<split pos="right">
									<output> 0.36321017 </output>
								</split>
							</split>
							<split pos="right">
								<output> 1.151688 </output>
							</split>
						</split>
						<split pos="right">
							<output> -0.15926003 </output>
						</split>
					</split>
					<split pos="right">
						<output> 0.35527456 </output>
					</split>
				</split>
				<split pos="right">
					<output> 1.3007525 </output>
				</split>
			</split>
			<split pos="right">
				<feature> 11 </feature>
				<threshold> -4.775315 </threshold>
				<split pos="left">
					<output> -0.49239755 </output>
				</split>
				<split pos="right">
					<feature> 11 </feature>
					<threshold> -4.515789 </threshold>
					<split pos="left">
						<output> 0.76389366 </output>
					</split>
					<split pos="right">
						<feature> 2 </feature>
						<threshold> 0.017199017 </threshold>
						<split pos="left">
							<output> 0.008565633 </output>
						</split>
						<split pos="right">
							<output> -0.39674526 </output>
						</split>
					</split>
				</split>
			</split>
		</split>
	</tree>
	<tree id="40" weight="0.1">
		<split>
			<feature> 9 </feature>
			<threshold> -5.9519796 </threshold>
			<split pos="left">
				<feature> 9 </feature>
				<threshold> -7.2008934 </threshold>
				<split pos="left">
					<feature> 11 </feature>
					<threshold> -11.93819 </threshold>
					<split pos="left">
						<output> 0.31436834 </output>
					</split>
					<split pos="right">
						<feature> 11 </feature>
						<threshold> -11.678667 </threshold>
						<split pos="left">
							<output> -2.4465756 </output>
						</split>
						<split pos="right">
							<feature> 9 </feature>
							<threshold> -7.9872465 </threshold>
							<split pos="left">
								<feature> 3 </feature>
								<threshold> -20.723267 </threshold>
								<split pos="left">
									<output> -0.55580044 </output>
								</split>
								<split pos="right">
									<feature> 11 </feature>
									<threshold> -11.574858 </threshold>
									<split pos="left">
										<output> 2.547378 </output>
									</split>
									<split pos="right">
										<feature> 11 </feature>
										<threshold> -11.315334 </threshold>
										<split pos="left">
											<output> -1.5819738 </output>
										</split>
										<split pos="right">
											<feature> 11 </feature>
											<threshold> -6.0210385 </threshold>
											<split pos="left">
												<output> 0.24516329 </output>
											</split>
											<split pos="right">
												<output> -0.121403106 </output>
											</split>
										</split>
									</split>
								</split>
							</split>
							<split pos="right">
								<output> 0.43030864 </output>
							</split>
						</split>
					</split>
				</split>
				<split pos="right">
					<output> -0.3245516 </output>
				</split>
			</split>
			<split pos="right">
				<output> 0.08035153 </output>
			</split>
		</split>
	</tree>
	<tree id="41" weight="0.1">
		<split>
			<feature> 9 </feature>
			<threshold> -2.2977417 </threshold>
			<split pos="left">
				<feature> 9 </feature>
				<threshold> -2.94533 </threshold>
				<split pos="left">
					<feature> 9 </feature>
					<threshold> -3.0378425 </threshold>
					<split pos="left">
						<feature> 9 </feature>
						<threshold> -3.0840988 </threshold>
						<split pos="left">
							<feature> 9 </feature>
							<threshold> -3.870456 </threshold>
							<split pos="left">
								<feature> 9 </feature>
								<threshold> -3.9629686 </threshold>
								<split pos="left">
									<feature> 9 </feature>
									<threshold> -4.009225 </threshold>
									<split pos="left">
										<feature> 9 </feature>
										<threshold> -4.101737 </threshold>
										<split pos="left">
											<feature> 11 </feature>
											<threshold> -2.6472034 </threshold>
											<split pos="left">
												<output> -0.038956948 </output>
											</split>
											<split pos="right">
												<output> 0.1324775 </output>
											</split>
										</split>
										<split pos="right">
											<output> 1.1986828 </output>
										</split>
									</split>
									<split pos="right">
										<output> -0.6105495 </output>
									</split>
								</split>
								<split pos="right">
									<output> 0.8416636 </output>
								</split>
							</split>
							<split pos="right">
								<output> -0.32703713 </output>
							</split>
						</split>
						<split pos="right">
							<output> 0.8960795 </output>
						</split>
					</split>
					<split pos="right">
						<output> -1.5222389 </output>
					</split>
				</split>
				<split pos="right">
					<output> 0.75535154 </output>
				</split>
			</split>
			<split pos="right">
				<output> -1.2742351 </output>
			</split>
		</split>
	</tree>
	<tree id="42" weight="0.1">
		<split>
			<feature> 11 </feature>
			<threshold> -0.3633767 </threshold>
			<split pos="left">
				<feature> 11 </feature>
				<threshold> -0.6229024 </threshold>
				<split pos="left">
					<feature> 11 </feature>
					<threshold> -0.77861786 </threshold>
					<split pos="left">
						<feature> 11 </feature>
						<threshold> -0.830523 </threshold>
						<split pos="left">
							<feature> 9 </feature>
							<threshold> -5.9519796 </threshold>
							<split pos="left">
								<feature> 9 </feature>
								<threshold> -6.275772 </threshold>
								<split pos="left">
									<feature> 11 </feature>
									<threshold> -1.7648158 </threshold>
									<split pos="left">
										<feature> 11 </feature>
										<threshold> -2.0762467 </threshold>
										<split pos="left">
											<feature> 9 </feature>
											<threshold> -7.2471495 </threshold>
											<split pos="left">
												<output> 0.03092095 </output>
											</split>
											<split pos="right">
												<output> -0.29103458 </output>
											</split>
										</split>
										<split pos="right">
											<output> -0.664077 </output>
										</split>
									</split>
									<split pos="right">
										<output> 0.5317707 </output>
									</split>
								</split>
								<split pos="right">
									<output> -1.0480349 </output>
								</split>
							</split>
							<split pos="right">
								<output> 0.09463736 </output>
							</split>
						</split>
						<split pos="right">
							<output> 1.3236758 </output>
						</split>
					</split>
					<split pos="right">
						<output> -1.2838857 </output>
					</split>
				</split>
				<split pos="right">
					<output> 0.7372872 </output>
				</split>
			</split>
			<split pos="right">
				<output> -0.23160529 </output>
			</split>
		</split>
	</tree>
	<tree id="43" weight="0.1">
		<split>
			<feature> 11 </feature>
			<threshold> -11.055811 </threshold>
			<split pos="left">
				<output> -0.10576576 </output>
			</split>
			<split pos="right">
				<feature> 11 </feature>
				<threshold> -8.82391 </threshold>
				<split pos="left">
					<output> 0.3317591 </output>
				</split>
				<split pos="right">
					<feature> 11 </feature>
					<threshold> -8.304863 </threshold>
					<split pos="left">
						<output> -0.83256114 </output>
					</split>
					<split pos="right">
						<feature> 11 </feature>
						<threshold> -8.149149 </threshold>
						<split pos="left">
							<output> 0.65083814 </output>
						</split>
						<split pos="right">
							<feature> 11 </feature>
							<threshold> -7.6820035 </threshold>
							<split pos="left">
								<output> -0.6369567 </output>
							</split>
							<split pos="right">
								<feature> 11 </feature>
								<threshold> -7.526288 </threshold>
								<split pos="left">
									<output> 1.1948441 </output>
								</split>
								<split pos="right">
									<feature> 9 </feature>
									<threshold> -5.396907 </threshold>
									<split pos="left">
										<feature> 9 </feature>
										<threshold> -5.581931 </threshold>
										<split pos="left">
											<feature> 11 </feature>
											<threshold> -7.2667623 </threshold>
											<split pos="left">
												<output> -0.87045145 </output>
											</split>
											<split pos="right">
												<output> -0.009298074 </output>
											</split>
										</split>
										<split pos="right">
											<output> -1.066735 </output>
										</split>
									</split>
									<split pos="right">
										<output> 0.14420596 </output>
									</split>
								</split>
							</split>
						</split>
					</split>
				</split>
			</split>
		</split>
	</tree>
	<tree id="44" weight="0.1">
		<split>
			<feature> 9 </feature>
			<threshold> -8.634831 </threshold>
			<split pos="left">
				<feature> 9 </feature>
				<threshold> -8.6810875 </threshold>
				<split pos="left">
					<feature> 11 </feature>
					<threshold> -3.477686 </threshold>
					<split pos="left">
						<feature> 11 </feature>
						<threshold> -4.0486426 </threshold>
						<split pos="left">
							<feature> 2 </feature>
							<threshold> 0.018232819 </threshold>
							<split pos="left">
								<output> -0.03552374 </output>
							</split>
							<split pos="right">
								<output> 0.47286186 </output>
							</split>
						</split>
						<split pos="right">
							<output> -0.99897414 </output>
						</split>
					</split>
					<split pos="right">
						<output> 0.3152016 </output>
					</split>
				</split>
				<split pos="right">
					<output> 0.92404586 </output>
				</split>
			</split>
			<split pos="right">
				<feature> 9 </feature>
				<threshold> -8.588575 </threshold>
				<split pos="left">
					<output> -1.3044531 </output>
				</split>
				<split pos="right">
					<feature> 11 </feature>
					<threshold> -10.796288 </threshold>
					<split pos="left">
						<output> -0.3349419 </output>
					</split>
					<split pos="right">
						<feature> 2 </feature>
						<threshold> 0.013157895 </threshold>
						<split pos="left">
							<feature> 9 </feature>
							<threshold> -7.9872465 </threshold>
							<split pos="left">
								<output> -0.7265056 </output>
							</split>
							<split pos="right">
								<output> 0.026236767 </output>
							</split>
						</split>
						<split pos="right">
							<output> 0.29872942 </output>
						</split>
					</split>
				</split>
			</split>
		</split>
	</tree>
	<tree id="45" weight="0.1">
		<split>
			<feature> 9 </feature>
			<threshold> -8.634831 </threshold>
			<split pos="left">
				<feature> 9 </feature>
				<threshold> -8.6810875 </threshold>
				<split pos="left">
					<feature> 9 </feature>
					<threshold> -9.00488 </threshold>
					<split pos="left">
						<feature> 3 </feature>
						<threshold> -20.723267 </threshold>
						<split pos="left">
							<output> -0.38917363 </output>
						</split>
						<split pos="right">
							<feature> 11 </feature>
							<threshold> -1.7648158 </threshold>
							<split pos="left">
								<output> 0.024026508 </output>
							</split>
							<split pos="right">
								<output> 0.49022922 </output>
							</split>
						</split>
					</split>
					<split pos="right">
						<output> 1.0601108 </output>
					</split>
				</split>
				<split pos="right">
					<output> 1.2467132 </output>
				</split>
			</split>
			<split pos="right">
				<feature> 9 </feature>
				<threshold> -8.588575 </threshold>
				<split pos="left">
					<output> -1.2118292 </output>
				</split>
				<split pos="right">
					<feature> 11 </feature>
					<threshold> -11.782476 </threshold>
					<split pos="left">
						<output> -0.3968941 </output>
					</split>
					<split pos="right">
						<feature> 11 </feature>
						<threshold> -11.730572 </threshold>
						<split pos="left">
							<output> 0.8204612 </output>
						</split>
						<split pos="right">
							<feature> 11 </feature>
							<threshold> -11.626762 </threshold>
							<split pos="left">
								<output> -1.3300585 </output>
							</split>
							<split pos="right">
								<output> 0.021250714 </output>
							</split>
						</split>
					</split>
				</split>
			</split>
		</split>
	</tree>
	<tree id="46" weight="0.1">
		<split>
			<feature> 11 </feature>
			<threshold> -11.055811 </threshold>
			<split pos="left">
				<output> -0.13639186 </output>
			</split>
			<split pos="right">
				<feature> 11 </feature>
				<threshold> -8.82391 </threshold>
				<split pos="left">
					<output> 0.30880255 </output>
				</split>
				<split pos="right">
					<feature> 11 </feature>
					<threshold> -8.7201 </threshold>
					<split pos="left">
						<output> -1.562555 </output>
					</split>
					<split pos="right">
						<feature> 11 </feature>
						<threshold> -8.304863 </threshold>
						<split pos="left">
							<output> -0.5683165 </output>
						</split>
						<split pos="right">
							<feature> 11 </feature>
							<threshold> -8.149149 </threshold>
							<split pos="left">
								<output> 0.6456469 </output>
							</split>
							<split pos="right">
								<feature> 11 </feature>
								<threshold> -7.6820035 </threshold>
								<split pos="left">
									<output> -0.6140245 </output>
								</split>
								<split pos="right">
									<feature> 11 </feature>
									<threshold> -7.526288 </threshold>
									<split pos="left">
										<output> 1.1274501 </output>
									</split>
									<split pos="right">
										<feature> 9 </feature>
										<threshold> -8.126015 </threshold>
										<split pos="left">
											<feature> 9 </feature>
											<threshold> -8.6810875 </threshold>
											<split pos="left">
												<output> 0.0130465105 </output>
											</split>
											<split pos="right">
												<output> -0.85953456 </output>
											</split>
										</split>
										<split pos="right">
											<output> 0.08708441 </output>
										</split>
									</split>
								</split>
							</split>
						</split>
					</split>
				</split>
			</split>
		</split>
	</tree>
	<tree id="47" weight="0.1">
		<split>
			<feature> 9 </feature>
			<threshold> -8.634831 </threshold>
			<split pos="left">
				<feature> 9 </feature>
				<threshold> -8.6810875 </threshold>
				<split pos="left">
					<feature> 11 </feature>
					<threshold> -3.477686 </threshold>
					<split pos="left">
						<feature> 11 </feature>
						<threshold> -4.0486426 </threshold>
						<split pos="left">
							<feature> 11 </feature>
							<threshold> -4.204358 </threshold>
							<split pos="left">
								<feature> 11 </feature>
								<threshold> -11.93819 </threshold>
								<split pos="left">
									<output> 0.3314035 </output>
								</split>
								<split pos="right">
									<output> -0.090907685 </output>
								</split>
							</split>
							<split pos="right">
								<output> 1.3491392 </output>
							</split>
						</split>
						<split pos="right">
							<output> -0.7200094 </output>
						</split>
					</split>
					<split pos="right">
						<output> 0.26333424 </output>
					</split>
				</split>
				<split pos="right">
					<output> 1.1364375 </output>
				</split>
			</split>
			<split pos="right">
				<feature> 9 </feature>
				<threshold> -8.588575 </threshold>
				<split pos="left">
					<output> -1.0921823 </output>
				</split>
				<split pos="right">
					<feature> 2 </feature>
					<threshold> 0.013157895 </threshold>
					<split pos="left">
						<feature> 9 </feature>
						<threshold> -7.9872465 </threshold>
						<split pos="left">
							<output> -0.7354555 </output>
						</split>
						<split pos="right">
							<output> -0.02705494 </output>
						</split>
					</split>
					<split pos="right">
						<output> 0.14356785 </output>
					</split>
				</split>
			</split>
		</split>
	</tree>
	<tree id="48" weight="0.1">
		<split>
			<feature> 11 </feature>
			<threshold> -11.055811 </threshold>
			<split pos="left">
				<output> -0.122755535 </output>
			</split>
			<split pos="right">
				<feature> 11 </feature>
				<threshold> -8.82391 </threshold>
				<split pos="left">
					<output> 0.27985388 </output>
				</split>
				<split pos="right">
					<feature> 11 </feature>
					<threshold> -8.7201 </threshold>
					<split pos="left">
						<output> -1.494152 </output>
					</split>
					<split pos="right">
						<feature> 11 </feature>
						<threshold> -8.304863 </threshold>
						<split pos="left">
							<output> -0.4790075 </output>
						</split>
						<split pos="right">
							<feature> 11 </feature>
							<threshold> -8.149149 </threshold>
							<split pos="left">
								<output> 0.59614533 </output>
							</split>
							<split pos="right">
								<feature> 11 </feature>
								<threshold> -7.6820035 </threshold>
								<split pos="left">
									<output> -0.6165231 </output>
								</split>
								<split pos="right">
									<feature> 11 </feature>
									<threshold> -7.526288 </threshold>
									<split pos="left">
										<output> 1.0864199 </output>
									</split>
									<split pos="right">
										<feature> 9 </feature>
										<threshold> -3.731687 </threshold>
										<split pos="left">
											<feature> 9 </feature>
											<threshold> -5.396907 </threshold>
											<split pos="left">
												<output> -0.044546757 </output>
											</split>
											<split pos="right">
												<output> 0.26965404 </output>
											</split>
										</split>
										<split pos="right">
											<output> -0.28424692 </output>
										</split>
									</split>
								</split>
							</split>
						</split>
					</split>
				</split>
			</split>
		</split>
	</tree>
	<tree id="49" weight="0.1">
		<split>
			<feature> 9 </feature>
			<threshold> -7.2008934 </threshold>
			<split pos="left">
				<feature> 9 </feature>
				<threshold> -7.2934055 </threshold>
				<split pos="left">
					<feature> 9 </feature>
					<threshold> -7.3396616 </threshold>
					<split pos="left">
						<feature> 11 </feature>
						<threshold> -12.457237 </threshold>
						<split pos="left">
							<output> 0.3747775 </output>
						</split>
						<split pos="right">
							<feature> 11 </feature>
							<threshold> -12.405333 </threshold>
							<split pos="left">
								<output> -1.6684109 </output>
							</split>
							<split pos="right">
								<feature> 11 </feature>
								<threshold> -10.900097 </threshold>
								<split pos="left">
									<output> -0.6514487 </output>
								</split>
								<split pos="right">
									<feature> 11 </feature>
									<threshold> -10.017717 </threshold>
									<split pos="left">
										<output> 0.6844806 </output>
									</split>
									<split pos="right">
										<feature> 9 </feature>
										<threshold> -7.9872465 </threshold>
										<split pos="left">
											<feature> 3 </feature>
											<threshold> -20.723267 </threshold>
											<split pos="left">
												<output> -0.5492217 </output>
											</split>
											<split pos="right">
												<output> 0.07444108 </output>
											</split>
										</split>
										<split pos="right">
											<output> 0.45624903 </output>
										</split>
									</split>
								</split>
							</split>
						</split>
					</split>
					<split pos="right">
						<output> -1.3816803 </output>
					</split>
				</split>
				<split pos="right">
					<output> 0.7075064 </output>
				</split>
			</split>
			<split pos="right">
				<output> -0.068375506 </output>
			</split>
		</split>
	</tree>
	<tree id="50" weight="0.1">
		<split>
			<feature> 9 </feature>
			<threshold> -8.634831 </threshold>
			<split pos="left">
				<feature> 9 </feature>
				<threshold> -8.6810875 </threshold>
				<split pos="left">
					<feature> 11 </feature>
					<threshold> -3.477686 </threshold>
					<split pos="left">
						<feature> 11 </feature>
						<threshold> -4.0486426 </threshold>
						<split pos="left">
							<feature> 11 </feature>
							<threshold> -4.775315 </threshold>
							<split pos="left">
								<feature> 11 </feature>
								<threshold> -5.0348406 </threshold>
								<split pos="left">
									<output> 0.032021556 </output>
								</split>
								<split pos="right">
									<output> -1.5269641 </output>
								</split>
							</split>
							<split pos="right">
								<output> 0.7854204 </output>
							</split>
						</split>
						<split pos="right">
							<output> -0.6366032 </output>
						</split>
					</split>
					<split pos="right">
						<output> 0.2894983 </output>
					</split>
				</split>
				<split pos="right">
					<output> 1.1140156 </output>
				</split>
			</split>
			<split pos="right">
				<feature> 9 </feature>
				<threshold> -8.588575 </threshold>
				<split pos="left">
					<output> -1.0024333 </output>
				</split>
				<split pos="right">
					<feature> 11 </feature>
					<threshold> -9.083433 </threshold>
					<split pos="left">
						<output> -0.26617718 </output>
					</split>
					<split pos="right">
						<feature> 11 </feature>
						<threshold> -8.979624 </threshold>
						<split pos="left">
							<output> 1.2421043 </output>
						</split>
						<split pos="right">
							<output> -0.01648624 </output>
						</split>
					</split>
				</split>
			</split>
		</split>
	</tree>
	<tree id="51" weight="0.1">
		<split>
			<feature> 9 </feature>
			<threshold> -8.634831 </threshold>
			<split pos="left">
				<feature> 9 </feature>
				<threshold> -8.6810875 </threshold>
				<split pos="left">
					<feature> 11 </feature>
					<threshold> -3.6853065 </threshold>
					<split pos="left">
						<feature> 11 </feature>
						<threshold> -4.0486426 </threshold>
						<split pos="left">
							<output> 0.034607865 </output>
						</split>
						<split pos="right">
							<output> -0.8645211 </output>
						</split>
					</split>
					<split pos="right">
						<output> 0.263493 </output>
					</split>
				</split>
				<split pos="right">
					<output> 1.0348796 </output>
				</split>
			</split>
			<split pos="right">
				<feature> 9 </feature>
				<threshold> -8.449807 </threshold>
				<split pos="left">
					<output> -0.6540875 </output>
				</split>
				<split pos="right">
					<feature> 9 </feature>
					<threshold> -8.403551 </threshold>
					<split pos="left">
						<output> 1.2999424 </output>
					</split>
					<split pos="right">
						<feature> 11 </feature>
						<threshold> -11.782476 </threshold>
						<split pos="left">
							<output> -0.5030211 </output>
						</split>
						<split pos="right">
							<feature> 11 </feature>
							<threshold> -11.730572 </threshold>
							<split pos="left">
								<output> 0.80760956 </output>
							</split>
							<split pos="right">
								<feature> 11 </feature>
								<threshold> -11.626762 </threshold>
								<split pos="left">
									<output> -1.2889673 </output>
								</split>
								<split pos="right">
									<output> 0.0052325865 </output>
								</split>
							</split>
						</split>
					</split>
				</split>
			</split>
		</split>
	</tree>
	<tree id="52" weight="0.1">
		<split>
			<feature> 9 </feature>
			<threshold> -8.634831 </threshold>
			<split pos="left">
				<feature> 9 </feature>
				<threshold> -8.6810875 </threshold>
				<split pos="left">
					<feature> 11 </feature>
					<threshold> -4.775315 </threshold>
					<split pos="left">
						<feature> 11 </feature>
						<threshold> -4.9310303 </threshold>
						<split pos="left">
							<output> -0.0029424299 </output>
						</split>
						<split pos="right">
							<output> -1.4332402 </output>
						</split>
					</split>
					<split pos="right">
						<output> 0.22772174 </output>
					</split>
				</split>
				<split pos="right">
					<output> 0.96119744 </output>
				</split>
			</split>
			<split pos="right">
				<feature> 9 </feature>
				<threshold> -8.588575 </threshold>
				<split pos="left">
					<output> -0.90163535 </output>
				</split>
				<split pos="right">
					<feature> 11 </feature>
					<threshold> -1.6610055 </threshold>
					<split pos="left">
						<feature> 11 </feature>
						<threshold> -2.491488 </threshold>
						<split pos="left">
							<feature> 11 </feature>
							<threshold> -2.5952983 </threshold>
							<split pos="left">
								<feature> 2 </feature>
								<threshold> 0.013157895 </threshold>
								<split pos="left">
									<output> -0.11108385 </output>
								</split>
								<split pos="right">
									<output> 0.21994832 </output>
								</split>
							</split>
							<split pos="right">
								<output> -2.148752 </output>
							</split>
						</split>
						<split pos="right">
							<output> 0.46860152 </output>
						</split>
					</split>
					<split pos="right">
						<output> -0.34838226 </output>
					</split>
				</split>
			</split>
		</split>
	</tree>
	<tree id="53" weight="0.1">
		<split>
			<feature> 11 </feature>
			<threshold> -6.124849 </threshold>
			<split pos="left">
				<feature> 9 </feature>
				<threshold> -7.9409904 </threshold>
				<split pos="left">
					<feature> 9 </feature>
					<threshold> -8.033503 </threshold>
					<split pos="left">
						<feature> 2 </feature>
						<threshold> 0.016393442 </threshold>
						<split pos="left">
							<output> -0.056371078 </output>
						</split>
						<split pos="right">
							<output> 0.3530889 </output>
						</split>
					</split>
					<split pos="right">
						<output> 0.77027935 </output>
					</split>
				</split>
				<split pos="right">
					<output> -0.21556395 </output>
				</split>
			</split>
			<split pos="right">
				<feature> 11 </feature>
				<threshold> -6.0210385 </threshold>
				<split pos="left">
					<output> 1.2503753 </output>
				</split>
				<split pos="right">
					<feature> 2 </feature>
					<threshold> 0.017199017 </threshold>
					<split pos="left">
						<feature> 11 </feature>
						<threshold> -5.553892 </threshold>
						<split pos="left">
							<output> 0.4928566 </output>
						</split>
						<split pos="right">
							<feature> 11 </feature>
							<threshold> -5.450082 </threshold>
							<split pos="left">
								<output> -1.1922549 </output>
							</split>
							<split pos="right">
								<feature> 2 </feature>
								<threshold> 0.00990099 </threshold>
								<split pos="left">
									<output> -0.0054507796 </output>
								</split>
								<split pos="right">
									<output> 0.3799625 </output>
								</split>
							</split>
						</split>
					</split>
					<split pos="right">
						<output> -0.2619378 </output>
					</split>
				</split>
			</split>
		</split>
	</tree>
	<tree id="54" weight="0.1">
		<split>
			<feature> 11 </feature>
			<threshold> -7.6820035 </threshold>
			<split pos="left">
				<feature> 11 </feature>
				<threshold> -7.785814 </threshold>
				<split pos="left">
					<feature> 9 </feature>
					<threshold> -5.2581387 </threshold>
					<split pos="left">
						<feature> 9 </feature>
						<threshold> -5.7669554 </threshold>
						<split pos="left">
							<output> -0.05270031 </output>
						</split>
						<split pos="right">
							<output> 0.80388004 </output>
						</split>
					</split>
					<split pos="right">
						<output> -0.2997797 </output>
					</split>
				</split>
				<split pos="right">
					<output> -1.3711122 </output>
				</split>
			</split>
			<split pos="right">
				<feature> 11 </feature>
				<threshold> -7.526288 </threshold>
				<split pos="left">
					<output> 1.0715803 </output>
				</split>
				<split pos="right">
					<feature> 9 </feature>
					<threshold> -3.731687 </threshold>
					<split pos="left">
						<feature> 9 </feature>
						<threshold> -4.147993 </threshold>
						<split pos="left">
							<feature> 9 </feature>
							<threshold> -4.3792734 </threshold>
							<split pos="left">
								<feature> 11 </feature>
								<threshold> -4.775315 </threshold>
								<split pos="left">
									<output> -0.114449374 </output>
								</split>
								<split pos="right">
									<output> 0.1127104 </output>
								</split>
							</split>
							<split pos="right">
								<output> -0.41211468 </output>
							</split>
						</split>
						<split pos="right">
							<output> 0.62723976 </output>
						</split>
					</split>
					<split pos="right">
						<output> -0.27410907 </output>
					</split>
				</split>
			</split>
		</split>
	</tree>
	<tree id="55" weight="0.1">
		<split>
			<feature> 11 </feature>
			<threshold> -7.6820035 </threshold>
			<split pos="left">
				<feature> 11 </feature>
				<threshold> -7.785814 </threshold>
				<split pos="left">
					<feature> 9 </feature>
					<threshold> -7.1546373 </threshold>
					<split pos="left">
						<output> 0.032388974 </output>
					</split>
					<split pos="right">
						<output> -0.19716072 </output>
					</split>
				</split>
				<split pos="right">
					<output> -1.336299 </output>
				</split>
			</split>
			<split pos="right">
				<feature> 11 </feature>
				<threshold> -7.526288 </threshold>
				<split pos="left">
					<output> 0.809666 </output>
				</split>
				<split pos="right">
					<feature> 9 </feature>
					<threshold> -3.870456 </threshold>
					<split pos="left">
						<feature> 9 </feature>
						<threshold> -4.147993 </threshold>
						<split pos="left">
							<feature> 9 </feature>
							<threshold> -4.3792734 </threshold>
							<split pos="left">
								<feature> 9 </feature>
								<threshold> -5.396907 </threshold>
								<split pos="left">
									<feature> 9 </feature>
									<threshold> -5.581931 </threshold>
									<split pos="left">
										<output> 0.023058522 </output>
									</split>
									<split pos="right">
