## LambdaMART
## No. of trees = 1000
## No. of leaves = 10
## No. of threshold candidates = 256
## Learning rate = 0.1
## Stop early = 100

<ensemble>
	<tree id="1" weight="0.1">
		<split>
			<feature> 37 </feature>
			<threshold> 0.03515625 </threshold>
			<split pos="left">
				<feature> 20 </feature>
				<threshold> 0.0078125 </threshold>
				<split pos="left">
					<output> -2.0 </output>
				</split>
				<split pos="right">
					<output> -1.2224251 </output>
				</split>
			</split>
			<split pos="right">
				<feature> 23 </feature>
				<threshold> 0.5546875 </threshold>
				<split pos="left">
					<feature> 44 </feature>
					<threshold> 0.125 </threshold>
					<split pos="left">
						<output> -1.077553 </output>
					</split>
					<split pos="right">
						<feature> 16 </feature>
						<threshold> 0.0078125 </threshold>
						<split pos="left">
							<output> -0.8491272 </output>
						</split>
						<split pos="right">
							<output> -0.05677352 </output>
						</split>
					</split>
				</split>
				<split pos="right">
					<feature> 39 </feature>
					<threshold> 0.8125 </threshold>
					<split pos="left">
						<feature> 16 </feature>
						<threshold> 0.03515625 </threshold>
						<split pos="left">
							<output> 0.05633113 </output>
						</split>
						<split pos="right">
							<feature> 32 </feature>
							<threshold> 0.2890625 </threshold>
							<split pos="left">
								<output> 0.54316044 </output>
							</split>
							<split pos="right">
								<output> 1.2619135 </output>
							</split>
						</split>
					</split>
					<split pos="right">
						<feature> 32 </feature>
						<threshold> 0.48828125 </threshold>
						<split pos="left">
							<output> 0.9548079 </output>
						</split>
						<split pos="right">
							<output> 1.4549739 </output>
						</split>
					</split>
				</split>
			</split>
		</split>
	</tree>
	<tree id="2" weight="0.1">
		<split>
			<feature> 23 </feature>
			<threshold> 0.5546875 </threshold>
			<split pos="left">
				<output> -1.0538683 </output>
			</split>
			<split pos="right">
				<feature> 32 </feature>
				<threshold> 0.41796875 </threshold>
				<split pos="left">
					<feature> 37 </feature>
					<threshold> 0.8671875 </threshold>
					<split pos="left">
						<feature> 40 </feature>
						<threshold> 0.37890625 </threshold>
						<split pos="left">
							<output> 0.7792449 </output>
						</split>
						<split pos="right">
							<output> 0.15008563 </output>
						</split>
					</split>
					<split pos="right">
						<feature> 1 </feature>
						<threshold> 0.0859375 </threshold>
						<split pos="left">
							<output> 0.14823104 </output>
						</split>
						<split pos="right">
							<output> 1.0231812 </output>
						</split>
					</split>
				</split>
				<split pos="right">
					<feature> 39 </feature>
					<threshold> 0.77734375 </threshold>
					<split pos="left">
						<output> 0.37040365 </output>
					</split>
					<split pos="right">
						<feature> 23 </feature>
						<threshold> 0.62109375 </threshold>
						<split pos="left">
							<output> 1.7076172 </output>
						</split>
						<split pos="right">
							<feature> 16 </feature>
							<threshold> 0.77734375 </threshold>
							<split pos="left">
								<feature> 24 </feature>
								<threshold> 0.9453125 </threshold>
								<split pos="left">
									<output> 0.92323536 </output>
								</split>
								<split pos="right">
									<output> 1.6082792 </output>
								</split>
							</split>
							<split pos="right">
								<output> 1.8369278 </output>
							</split>
						</split>
					</split>
				</split>
			</split>
		</split>
	</tree>
	<tree id="3" weight="0.1">
		<split>
			<feature> 23 </feature>
			<threshold> 0.5625 </threshold>
			<split pos="left">
				<feature> 44 </feature>
				<threshold> 0.190476 </threshold>
				<split pos="left">
					<output> -1.3823787 </output>
				</split>
				<split pos="right">
					<output> -0.71407366 </output>
				</split>
			</split>
			<split pos="right">
				<feature> 13 </feature>
				<threshold> 0.4140625 </threshold>
				<split pos="left">
					<feature> 25 </feature>
					<threshold> 0.82421875 </threshold>
					<split pos="left">
						<feature> 23 </feature>
						<threshold> 0.81640625 </threshold>
						<split pos="left">
							<output> -0.053978894 </output>
						</split>
						<split pos="right">
							<output> 0.5110749 </output>
						</split>
					</split>
					<split pos="right">
						<output> 1.1763418 </output>
					</split>
				</split>
				<split pos="right">
					<feature> 16 </feature>
					<threshold> 0.03515625 </threshold>
					<split pos="left">
						<output> 0.41632622 </output>
					</split>
					<split pos="right">
						<feature> 15 </feature>
						<threshold> 0.01953125 </threshold>
						<split pos="left">
							<output> 1.7222054 </output>
						</split>
						<split pos="right">
							<feature> 37 </feature>
							<threshold> 0.85546875 </threshold>
							<split pos="left">
								<output> 0.8646239 </output>
							</split>
							<split pos="right">
								<feature> 16 </feature>
								<threshold> 0.84375 </threshold>
								<split pos="left">
									<output> 1.2038509 </output>
								</split>
								<split pos="right">
									<output> 1.728303 </output>
								</split>
							</split>
						</split>
					</split>
				</split>
			</split>
		</split>
	</tree>
	<tree id="4" weight="0.1">
		<split>
			<feature> 23 </feature>
			<threshold> 0.58984375 </threshold>
			<split pos="left">
				<feature> 44 </feature>
				<threshold> 0.190476 </threshold>
				<split pos="left">
					<output> -1.2642497 </output>
				</split>
				<split pos="right">
					<output> -0.5772726 </output>
				</split>
			</split>
			<split pos="right">
				<feature> 13 </feature>
				<threshold> 0.41015625 </threshold>
				<split pos="left">
					<feature> 23 </feature>
					<threshold> 0.81640625 </threshold>
					<split pos="left">
						<output> -0.05003811 </output>
					</split>
					<split pos="right">
						<feature> 39 </feature>
						<threshold> 0.6796875 </threshold>
						<split pos="left">
							<output> 1.617335 </output>
						</split>
						<split pos="right">
							<output> 0.4686074 </output>
						</split>
					</split>
				</split>
				<split pos="right">
					<feature> 39 </feature>
					<threshold> 0.46875 </threshold>
					<split pos="left">
						<output> 1.624677 </output>
					</split>
					<split pos="right">
						<feature> 16 </feature>
						<threshold> 0.03515625 </threshold>
						<split pos="left">
							<output> 0.430053 </output>
						</split>
						<split pos="right">
							<feature> 15 </feature>
							<threshold> 0.01953125 </threshold>
							<split pos="left">
								<output> 1.5580826 </output>
							</split>
							<split pos="right">
								<feature> 37 </feature>
								<threshold> 0.86328125 </threshold>
								<split pos="left">
									<output> 0.70120895 </output>
								</split>
								<split pos="right">
									<output> 1.178535 </output>
								</split>
							</split>
						</split>
					</split>
				</split>
			</split>
		</split>
	</tree>
	<tree id="5" weight="0.1">
		<split>
			<feature> 23 </feature>
			<threshold> 0.58984375 </threshold>
			<split pos="left">
				<feature> 39 </feature>
				<threshold> 0.296875 </threshold>
				<split pos="left">
					<output> -1.1120174 </output>
				</split>
				<split pos="right">
					<output> -0.42458692 </output>
				</split>
			</split>
			<split pos="right">
				<feature> 13 </feature>
				<threshold> 0.4140625 </threshold>
				<split pos="left">
					<feature> 26 </feature>
					<threshold> 0.94921875 </threshold>
					<split pos="left">
						<feature> 23 </feature>
						<threshold> 0.81640625 </threshold>
						<split pos="left">
							<output> -0.090636075 </output>
						</split>
						<split pos="right">
							<output> 0.39281088 </output>
						</split>
					</split>
					<split pos="right">
						<output> 1.3167061 </output>
					</split>
				</split>
				<split pos="right">
					<feature> 16 </feature>
					<threshold> 0.03515625 </threshold>
					<split pos="left">
						<output> 0.37261617 </output>
					</split>
					<split pos="right">
						<feature> 39 </feature>
						<threshold> 0.46875 </threshold>
						<split pos="left">
							<output> 1.501934 </output>
						</split>
						<split pos="right">
							<feature> 29 </feature>
							<threshold> 0.19921875 </threshold>
							<split pos="left">
								<output> 1.7895975 </output>
							</split>
							<split pos="right">
								<feature> 37 </feature>
								<threshold> 0.86328125 </threshold>
								<split pos="left">
									<output> 0.6498955 </output>
								</split>
								<split pos="right">
									<output> 1.0901942 </output>
								</split>
							</split>
						</split>
					</split>
				</split>
			</split>
		</split>
	</tree>
	<tree id="6" weight="0.1">
		<split>
			<feature> 23 </feature>
			<threshold> 0.58984375 </threshold>
			<split pos="left">
				<output> -0.67454004 </output>
			</split>
			<split pos="right">
				<feature> 13 </feature>
				<threshold> 0.4140625 </threshold>
				<split pos="left">
					<feature> 26 </feature>
					<threshold> 0.94921875 </threshold>
					<split pos="left">
						<feature> 23 </feature>
						<threshold> 0.81640625 </threshold>
						<split pos="left">
							<output> -0.0892458 </output>
						</split>
						<split pos="right">
							<output> 0.3405157 </output>
						</split>
					</split>
					<split pos="right">
						<output> 1.1843644 </output>
					</split>
				</split>
				<split pos="right">
					<feature> 16 </feature>
					<threshold> 0.03515625 </threshold>
					<split pos="left">
						<output> 0.3440963 </output>
					</split>
					<split pos="right">
						<feature> 39 </feature>
						<threshold> 0.46875 </threshold>
						<split pos="left">
							<output> 1.4067147 </output>
						</split>
						<split pos="right">
							<feature> 15 </feature>
							<threshold> 0.01953125 </threshold>
							<split pos="left">
								<output> 1.4042015 </output>
							</split>
							<split pos="right">
								<feature> 29 </feature>
								<threshold> 0.19921875 </threshold>
								<split pos="left">
									<output> 1.6605946 </output>
								</split>
								<split pos="right">
									<feature> 37 </feature>
									<threshold> 0.86328125 </threshold>
									<split pos="left">
										<output> 0.5764172 </output>
									</split>
									<split pos="right">
										<output> 1.0077628 </output>
									</split>
								</split>
							</split>
						</split>
					</split>
				</split>
			</split>
		</split>
	</tree>
	<tree id="7" weight="0.1">
		<split>
			<feature> 39 </feature>
			<threshold> 0.7578125 </threshold>
			<split pos="left">
				<feature> 39 </feature>
				<threshold> 0.32421875 </threshold>
				<split pos="left">
					<output> -0.98109436 </output>
				</split>
				<split pos="right">
					<feature> 23 </feature>
					<threshold> 0.828125 </threshold>
					<split pos="left">
						<feature> 16 </feature>
						<threshold> 0.0078125 </threshold>
						<split pos="left">
							<output> -0.5923642 </output>
						</split>
						<split pos="right">
							<feature> 44 </feature>
							<threshold> 0.333333 </threshold>
							<split pos="left">
								<output> -0.261623 </output>
							</split>
							<split pos="right">
								<output> 0.19760314 </output>
							</split>
						</split>
					</split>
					<split pos="right">
						<output> 1.4847313 </output>
					</split>
				</split>
			</split>
			<split pos="right">
				<feature> 13 </feature>
				<threshold> 0.41015625 </threshold>
				<split pos="left">
					<feature> 45 </feature>
					<threshold> 0.37890625 </threshold>
					<split pos="left">
						<output> 0.4862329 </output>
					</split>
					<split pos="right">
						<output> -0.10466109 </output>
					</split>
				</split>
				<split pos="right">
					<feature> 25 </feature>
					<threshold> 0.890625 </threshold>
					<split pos="left">
						<feature> 22 </feature>
						<threshold> 0.53515625 </threshold>
						<split pos="left">
							<output> 1.0946221 </output>
						</split>
						<split pos="right">
							<output> 0.6131708 </output>
						</split>
					</split>
					<split pos="right">
						<output> 1.1563909 </output>
					</split>
				</split>
			</split>
		</split>
	</tree>
	<tree id="8" weight="0.1">
		<split>
			<feature> 39 </feature>
			<threshold> 0.7578125 </threshold>
			<split pos="left">
				<feature> 23 </feature>
				<threshold> 0.828125 </threshold>
				<split pos="left">
					<feature> 38 </feature>
					<threshold> 0.16796875 </threshold>
					<split pos="left">
						<output> -1.0799011 </output>
					</split>
					<split pos="right">
						<feature> 16 </feature>
						<threshold> 0.0078125 </threshold>
						<split pos="left">
							<output> -0.6175178 </output>
						</split>
						<split pos="right">
							<feature> 44 </feature>
							<threshold> 0.375 </threshold>
							<split pos="left">
								<output> -0.30368465 </output>
							</split>
							<split pos="right">
								<output> 0.1663921 </output>
							</split>
						</split>
					</split>
				</split>
				<split pos="right">
					<output> 1.4290972 </output>
				</split>
			</split>
			<split pos="right">
				<feature> 13 </feature>
				<threshold> 0.33984375 </threshold>
				<split pos="left">
					<output> 0.19744797 </output>
				</split>
				<split pos="right">
					<feature> 16 </feature>
					<threshold> 0.7890625 </threshold>
					<split pos="left">
						<feature> 25 </feature>
						<threshold> 0.890625 </threshold>
						<split pos="left">
							<feature> 22 </feature>
							<threshold> 0.53515625 </threshold>
							<split pos="left">
								<output> 0.9815595 </output>
							</split>
							<split pos="right">
								<output> 0.51559794 </output>
							</split>
						</split>
						<split pos="right">
							<output> 1.0061216 </output>
						</split>
					</split>
					<split pos="right">
						<output> 1.4274962 </output>
					</split>
				</split>
			</split>
		</split>
	</tree>
	<tree id="9" weight="0.1">
		<split>
			<feature> 23 </feature>
			<threshold> 0.58984375 </threshold>
			<split pos="left">
				<output> -0.52240753 </output>
			</split>
			<split pos="right">
				<feature> 13 </feature>
				<threshold> 0.4140625 </threshold>
				<split pos="left">
					<feature> 26 </feature>
					<threshold> 0.94921875 </threshold>
					<split pos="left">
						<feature> 43 </feature>
						<threshold> 0.87890625 </threshold>
						<split pos="left">
							<feature> 45 </feature>
							<threshold> 0.37109375 </threshold>
							<split pos="left">
								<output> 0.33643052 </output>
							</split>
							<split pos="right">
								<output> -0.14679258 </output>
							</split>
						</split>
						<split pos="right">
							<output> -0.9775887 </output>
						</split>
					</split>
					<split pos="right">
						<output> 1.0276642 </output>
					</split>
				</split>
				<split pos="right">
					<feature> 39 </feature>
					<threshold> 0.46875 </threshold>
					<split pos="left">
						<output> 1.3494914 </output>
					</split>
					<split pos="right">
						<feature> 16 </feature>
						<threshold> 0.03515625 </threshold>
						<split pos="left">
							<output> 0.25089806 </output>
						</split>
						<split pos="right">
							<feature> 29 </feature>
							<threshold> 0.19921875 </threshold>
							<split pos="left">
								<output> 1.5393945 </output>
							</split>
							<split pos="right">
								<feature> 15 </feature>
								<threshold> 0.01953125 </threshold>
								<split pos="left">
									<output> 1.2946141 </output>
								</split>
								<split pos="right">
									<output> 0.66551 </output>
								</split>
							</split>
						</split>
					</split>
				</split>
			</split>
		</split>
	</tree>
	<tree id="10" weight="0.1">
		<split>
			<feature> 39 </feature>
			<threshold> 0.7578125 </threshold>
			<split pos="left">
				<feature> 39 </feature>
				<threshold> 0.32421875 </threshold>
				<split pos="left">
					<output> -0.82681185 </output>
				</split>
				<split pos="right">
					<feature> 23 </feature>
					<threshold> 0.828125 </threshold>
					<split pos="left">
						<feature> 43 </feature>
						<threshold> 0.04296875 </threshold>
						<split pos="left">
							<output> 0.113922104 </output>
						</split>
						<split pos="right">
							<output> -0.235498 </output>
						</split>
					</split>
					<split pos="right">
						<output> 1.3546947 </output>
					</split>
				</split>
			</split>
			<split pos="right">
				<feature> 13 </feature>
				<threshold> 0.33984375 </threshold>
				<split pos="left">
					<feature> 17 </feature>
					<threshold> 0.0234375 </threshold>
					<split pos="left">
						<output> -0.5083649 </output>
					</split>
					<split pos="right">
						<output> 0.28494245 </output>
					</split>
				</split>
				<split pos="right">
					<feature> 16 </feature>
					<threshold> 0.7890625 </threshold>
					<split pos="left">
						<feature> 25 </feature>
						<threshold> 0.91796875 </threshold>
						<split pos="left">
							<feature> 43 </feature>
							<threshold> 0.015625 </threshold>
							<split pos="left">
								<output> 0.9017819 </output>
							</split>
							<split pos="right">
								<output> 0.3569378 </output>
							</split>
						</split>
						<split pos="right">
							<output> 0.9929015 </output>
						</split>
					</split>
					<split pos="right">
						<output> 1.337752 </output>
					</split>
				</split>
			</split>
		</split>
	</tree>
	<tree id="11" weight="0.1">
		<split>
			<feature> 39 </feature>
			<threshold> 0.7578125 </threshold>
			<split pos="left">
				<feature> 38 </feature>
				<threshold> 0.16796875 </threshold>
				<split pos="left">
					<output> -0.97421044 </output>
				</split>
				<split pos="right">
					<feature> 23 </feature>
					<threshold> 0.828125 </threshold>
					<split pos="left">
						<feature> 16 </feature>
						<threshold> 0.02734375 </threshold>
						<split pos="left">
							<output> -0.35213825 </output>
						</split>
						<split pos="right">
							<feature> 22 </feature>
							<threshold> 0.82421875 </threshold>
							<split pos="left">
								<feature> 24 </feature>
								<threshold> 0.87109375 </threshold>
								<split pos="left">
									<feature> 44 </feature>
									<threshold> 0.4 </threshold>
									<split pos="left">
										<output> -0.20669404 </output>
									</split>
									<split pos="right">
										<output> 0.29661697 </output>
									</split>
								</split>
								<split pos="right">
									<output> -1.3631572 </output>
								</split>
							</split>
							<split pos="right">
								<output> 1.1029625 </output>
							</split>
						</split>
					</split>
					<split pos="right">
						<output> 1.313135 </output>
					</split>
				</split>
			</split>
			<split pos="right">
				<feature> 13 </feature>
				<threshold> 0.54296875 </threshold>
				<split pos="left">
					<feature> 25 </feature>
					<threshold> 0.05078125 </threshold>
					<split pos="left">
						<output> -0.009986035 </output>
					</split>
					<split pos="right">
						<output> 0.45645222 </output>
					</split>
				</split>
				<split pos="right">
					<output> 0.63271147 </output>
				</split>
			</split>
		</split>
	</tree>
	<tree id="12" weight="0.1">
		<split>
			<feature> 39 </feature>
			<threshold> 0.7578125 </threshold>
			<split pos="left">
				<feature> 39 </feature>
				<threshold> 0.32421875 </threshold>
				<split pos="left">
					<output> -0.755796 </output>
				</split>
				<split pos="right">
					<feature> 39 </feature>
					<threshold> 0.328125 </threshold>
					<split pos="left">
						<output> 1.4553049 </output>
					</split>
					<split pos="right">
						<feature> 23 </feature>
						<threshold> 0.828125 </threshold>
						<split pos="left">
							<feature> 43 </feature>
							<threshold> 0.04296875 </threshold>
							<split pos="left">
								<output> 0.12761877 </output>
							</split>
							<split pos="right">
								<output> -0.24812517 </output>
							</split>
						</split>
						<split pos="right">
							<output> 1.2807969 </output>
						</split>
					</split>
				</split>
			</split>
			<split pos="right">
				<feature> 13 </feature>
				<threshold> 0.54296875 </threshold>
				<split pos="left">
					<feature> 45 </feature>
					<threshold> 0.38671875 </threshold>
					<split pos="left">
						<feature> 17 </feature>
						<threshold> 0.890625 </threshold>
						<split pos="left">
							<output> 0.280554 </output>
						</split>
						<split pos="right">
							<output> 1.0434144 </output>
						</split>
					</split>
					<split pos="right">
						<output> -0.16273476 </output>
					</split>
				</split>
				<split pos="right">
					<feature> 43 </feature>
					<threshold> 0.015625 </threshold>
					<split pos="left">
						<output> 0.99727756 </output>
					</split>
					<split pos="right">
						<output> 0.40471494 </output>
					</split>
				</split>
			</split>
		</split>
	</tree>
	<tree id="13" weight="0.1">
		<split>
			<feature> 39 </feature>
			<threshold> 0.7578125 </threshold>
			<split pos="left">
				<feature> 38 </feature>
				<threshold> 0.16796875 </threshold>
				<split pos="left">
					<output> -0.89323056 </output>
				</split>
				<split pos="right">
					<feature> 23 </feature>
					<threshold> 0.828125 </threshold>
					<split pos="left">
						<feature> 44 </feature>
						<threshold> 0.375 </threshold>
						<split pos="left">
							<output> -0.3301057 </output>
						</split>
						<split pos="right">
							<feature> 31 </feature>
							<threshold> 0.98828125 </threshold>
							<split pos="left">
								<feature> 16 </feature>
								<threshold> 0.0078125 </threshold>
								<split pos="left">
									<output> -0.4096352 </output>
								</split>
								<split pos="right">
									<feature> 37 </feature>
									<threshold> 0.8828125 </threshold>
									<split pos="left">
										<output> 0.2019782 </output>
									</split>
									<split pos="right">
										<output> 0.8027758 </output>
									</split>
								</split>
							</split>
							<split pos="right">
								<output> -0.7284237 </output>
							</split>
						</split>
					</split>
					<split pos="right">
						<output> 1.2527119 </output>
					</split>
				</split>
			</split>
			<split pos="right">
				<feature> 13 </feature>
				<threshold> 0.54296875 </threshold>
				<split pos="left">
					<feature> 45 </feature>
					<threshold> 0.38671875 </threshold>
					<split pos="left">
						<output> 0.3592882 </output>
					</split>
					<split pos="right">
						<output> -0.17075482 </output>
					</split>
				</split>
				<split pos="right">
					<output> 0.56500095 </output>
				</split>
			</split>
		</split>
	</tree>
	<tree id="14" weight="0.1">
		<split>
			<feature> 39 </feature>
			<threshold> 0.7578125 </threshold>
			<split pos="left">
				<feature> 39 </feature>
				<threshold> 0.46484375 </threshold>
				<split pos="left">
					<output> -0.51378983 </output>
				</split>
				<split pos="right">
					<feature> 23 </feature>
					<threshold> 0.828125 </threshold>
					<split pos="left">
						<feature> 12 </feature>
						<threshold> 0.33203125 </threshold>
						<split pos="left">
							<output> 0.09219472 </output>
						</split>
						<split pos="right">
							<output> -0.39828312 </output>
						</split>
					</split>
					<split pos="right">
						<output> 1.2268126 </output>
					</split>
				</split>
			</split>
			<split pos="right">
				<feature> 13 </feature>
				<threshold> 0.54296875 </threshold>
				<split pos="left">
					<feature> 24 </feature>
					<threshold> 0.36328125 </threshold>
					<split pos="left">
						<output> 1.0956802 </output>
					</split>
					<split pos="right">
						<feature> 25 </feature>
						<threshold> 0.890625 </threshold>
						<split pos="left">
							<feature> 28 </feature>
							<threshold> 0.99609375 </threshold>
							<split pos="left">
								<feature> 17 </feature>
								<threshold> 0.890625 </threshold>
								<split pos="left">
									<output> 0.025740454 </output>
								</split>
								<split pos="right">
									<output> 0.7090386 </output>
								</split>
							</split>
							<split pos="right">
								<output> -2.0614066 </output>
							</split>
						</split>
						<split pos="right">
							<output> 0.85152084 </output>
						</split>
					</split>
				</split>
				<split pos="right">
					<output> 0.5247498 </output>
				</split>
			</split>
		</split>
	</tree>
	<tree id="15" weight="0.1">
		<split>
			<feature> 39 </feature>
			<threshold> 0.7578125 </threshold>
			<split pos="left">
				<feature> 16 </feature>
				<threshold> 0.0078125 </threshold>
				<split pos="left">
					<output> -0.640178 </output>
				</split>
				<split pos="right">
					<feature> 37 </feature>
					<threshold> 0.88671875 </threshold>
					<split pos="left">
						<feature> 40 </feature>
						<threshold> 0.75 </threshold>
						<split pos="left">
							<feature> 38 </feature>
							<threshold> 0.6328125 </threshold>
							<split pos="left">
								<feature> 40 </feature>
								<threshold> 0.58203125 </threshold>
								<split pos="left">
									<output> -0.08713888 </output>
								</split>
								<split pos="right">
									<output> -0.7246537 </output>
								</split>
							</split>
							<split pos="right">
								<output> 0.5098619 </output>
							</split>
						</split>
						<split pos="right">
							<output> -0.7564371 </output>
						</split>
					</split>
					<split pos="right">
						<output> 0.48964292 </output>
					</split>
				</split>
			</split>
			<split pos="right">
				<feature> 13 </feature>
				<threshold> 0.54296875 </threshold>
				<split pos="left">
					<feature> 45 </feature>
					<threshold> 0.38671875 </threshold>
					<split pos="left">
						<output> 0.33049715 </output>
					</split>
					<split pos="right">
						<output> -0.18780556 </output>
					</split>
				</split>
				<split pos="right">
					<feature> 43 </feature>
					<threshold> 0.015625 </threshold>
					<split pos="left">
						<output> 0.9115812 </output>
					</split>
					<split pos="right">
						<output> 0.30338207 </output>
					</split>
				</split>
			</split>
		</split>
	</tree>
	<tree id="16" weight="0.1">
		<split>
			<feature> 39 </feature>
			<threshold> 0.46484375 </threshold>
			<split pos="left">
				<output> -0.45959267 </output>
			</split>
			<split pos="right">
				<feature> 37 </feature>
				<threshold> 0.8671875 </threshold>
				<split pos="left">
					<feature> 21 </feature>
					<threshold> 0.98046875 </threshold>
					<split pos="left">
						<feature> 17 </feature>
						<threshold> 0.7890625 </threshold>
						<split pos="left">
							<feature> 25 </feature>
							<threshold> 0.9765625 </threshold>
							<split pos="left">
								<feature> 11 </feature>
								<threshold> 0.80859375 </threshold>
								<split pos="left">
									<feature> 39 </feature>
									<threshold> 0.47265625 </threshold>
									<split pos="left">
										<output> 0.77435726 </output>
									</split>
									<split pos="right">
										<feature> 15 </feature>
										<threshold> 0.8515625 </threshold>
										<split pos="left">
											<output> -0.15115416 </output>
										</split>
										<split pos="right">
											<output> -1.8019369 </output>
										</split>
									</split>
								</split>
								<split pos="right">
									<output> 0.38812885 </output>
								</split>
							</split>
							<split pos="right">
								<output> 0.8110852 </output>
							</split>
						</split>
						<split pos="right">
							<output> 0.5629752 </output>
						</split>
					</split>
					<split pos="right">
						<output> 1.2786449 </output>
					</split>
				</split>
				<split pos="right">
					<feature> 16 </feature>
					<threshold> 0.03515625 </threshold>
					<split pos="left">
						<output> 0.062233534 </output>
					</split>
					<split pos="right">
						<output> 0.5222192 </output>
					</split>
				</split>
			</split>
		</split>
	</tree>
	<tree id="17" weight="0.1">
		<split>
			<feature> 39 </feature>
			<threshold> 0.7578125 </threshold>
			<split pos="left">
				<feature> 21 </feature>
				<threshold> 0.0859375 </threshold>
				<split pos="left">
					<output> -1.1020261 </output>
				</split>
				<split pos="right">
					<feature> 21 </feature>
					<threshold> 0.1015625 </threshold>
					<split pos="left">
						<output> 1.2602432 </output>
					</split>
					<split pos="right">
						<feature> 31 </feature>
						<threshold> 0.98828125 </threshold>
						<split pos="left">
							<feature> 37 </feature>
							<threshold> 0.875 </threshold>
							<split pos="left">
								<feature> 44 </feature>
								<threshold> 0.375 </threshold>
								<split pos="left">
									<output> -0.40664414 </output>
								</split>
								<split pos="right">
									<output> 0.06844905 </output>
								</split>
							</split>
							<split pos="right">
								<output> 0.34958252 </output>
							</split>
						</split>
						<split pos="right">
							<output> -0.59211755 </output>
						</split>
					</split>
				</split>
			</split>
			<split pos="right">
				<feature> 25 </feature>
				<threshold> 0.88671875 </threshold>
				<split pos="left">
					<feature> 45 </feature>
					<threshold> 0.44921875 </threshold>
					<split pos="left">
						<feature> 32 </feature>
						<threshold> 0.90625 </threshold>
						<split pos="left">
							<output> 0.2641427 </output>
						</split>
						<split pos="right">
							<output> 0.8507295 </output>
						</split>
					</split>
					<split pos="right">
						<output> -0.23799449 </output>
					</split>
				</split>
				<split pos="right">
					<output> 0.7590846 </output>
				</split>
			</split>
		</split>
	</tree>
	<tree id="18" weight="0.1">
		<split>
			<feature> 39 </feature>
			<threshold> 0.46484375 </threshold>
			<split pos="left">
				<output> -0.40821633 </output>
			</split>
			<split pos="right">
				<feature> 29 </feature>
				<threshold> 0.91796875 </threshold>
				<split pos="left">
					<feature> 25 </feature>
					<threshold> 0.98828125 </threshold>
					<split pos="left">
						<feature> 29 </feature>
						<threshold> 0.796875 </threshold>
						<split pos="left">
							<feature> 3 </feature>
							<threshold> 0.857143 </threshold>
							<split pos="left">
								<feature> 14 </feature>
								<threshold> 0.9296875 </threshold>
								<split pos="left">
									<feature> 14 </feature>
									<threshold> 0.69921875 </threshold>
									<split pos="left">
										<feature> 19 </feature>
										<threshold> 0.115385 </threshold>
										<split pos="left">
											<output> -0.5017044 </output>
										</split>
										<split pos="right">
											<feature> 17 </feature>
											<threshold> 0.7890625 </threshold>
											<split pos="left">
												<output> 0.039222352 </output>
											</split>
											<split pos="right">
												<output> 0.48513222 </output>
											</split>
										</split>
									</split>
									<split pos="right">
										<output> -1.4877185 </output>
									</split>
								</split>
								<split pos="right">
									<output> 0.52231425 </output>
								</split>
							</split>
							<split pos="right">
								<output> 0.512604 </output>
							</split>
						</split>
						<split pos="right">
							<output> -0.5778394 </output>
						</split>
					</split>
					<split pos="right">
						<output> 0.67901075 </output>
					</split>
				</split>
				<split pos="right">
					<output> 0.51199466 </output>
				</split>
			</split>
		</split>
	</tree>
	<tree id="19" weight="0.1">
		<split>
			<feature> 21 </feature>
			<threshold> 0.57421875 </threshold>
			<split pos="left">
				<output> -0.372916 </output>
			</split>
			<split pos="right">
				<feature> 16 </feature>
				<threshold> 0.01953125 </threshold>
				<split pos="left">
					<feature> 22 </feature>
					<threshold> 0.0 </threshold>
					<split pos="left">
						<output> 7.7732015 </output>
					</split>
					<split pos="right">
						<feature> 1 </feature>
						<threshold> 0.46484375 </threshold>
						<split pos="left">
							<feature> 5 </feature>
							<threshold> 0.15234375 </threshold>
							<split pos="left">
								<feature> 22 </feature>
								<threshold> 0.8984375 </threshold>
								<split pos="left">
									<output> -0.23979512 </output>
								</split>
								<split pos="right">
									<output> 0.3734196 </output>
								</split>
							</split>
							<split pos="right">
								<output> -1.310719 </output>
							</split>
						</split>
						<split pos="right">
							<output> -6.4351406 </output>
						</split>
					</split>
				</split>
				<split pos="right">
					<feature> 14 </feature>
					<threshold> 0.27734375 </threshold>
					<split pos="left">
						<feature> 45 </feature>
						<threshold> 0.38671875 </threshold>
						<split pos="left">
							<feature> 38 </feature>
							<threshold> 0.7734375 </threshold>
							<split pos="left">
								<output> 0.112502456 </output>
							</split>
							<split pos="right">
								<output> 0.6711317 </output>
							</split>
						</split>
						<split pos="right">
							<output> -0.27021116 </output>
						</split>
					</split>
					<split pos="right">
						<output> 0.59026676 </output>
					</split>
				</split>
			</split>
		</split>
	</tree>
	<tree id="20" weight="0.1">
		<split>
			<feature> 37 </feature>
			<threshold> 0.8671875 </threshold>
			<split pos="left">
				<feature> 21 </feature>
				<threshold> 0.98046875 </threshold>
				<split pos="left">
					<feature> 19 </feature>
					<threshold> 0.15625 </threshold>
					<split pos="left">
						<output> -0.5483444 </output>
					</split>
					<split pos="right">
						<feature> 17 </feature>
						<threshold> 0.81640625 </threshold>
						<split pos="left">
							<feature> 25 </feature>
							<threshold> 0.984375 </threshold>
							<split pos="left">
								<feature> 37 </feature>
								<threshold> 0.69140625 </threshold>
								<split pos="left">
									<output> 0.057650696 </output>
								</split>
								<split pos="right">
									<output> -0.1933549 </output>
								</split>
							</split>
							<split pos="right">
								<output> 0.5684777 </output>
							</split>
						</split>
						<split pos="right">
							<output> 0.4950446 </output>
						</split>
					</split>
				</split>
				<split pos="right">
					<output> 1.2053975 </output>
				</split>
			</split>
			<split pos="right">
				<feature> 40 </feature>
				<threshold> 0.0 </threshold>
				<split pos="left">
					<output> 4.2850404 </output>
				</split>
				<split pos="right">
					<feature> 16 </feature>
					<threshold> 0.05859375 </threshold>
					<split pos="left">
						<feature> 1 </feature>
						<threshold> 0.7734375 </threshold>
						<split pos="left">
							<output> 0.0662392 </output>
						</split>
						<split pos="right">
							<output> -3.9988692 </output>
						</split>
					</split>
					<split pos="right">
						<output> 0.50628865 </output>
					</split>
				</split>
			</split>
		</split>
	</tree>
	<tree id="21" weight="0.1">
		<split>
			<feature> 16 </feature>
			<threshold> 0.0078125 </threshold>
			<split pos="left">
				<output> -0.48940393 </output>
			</split>
			<split pos="right">
				<feature> 37 </feature>
				<threshold> 0.8671875 </threshold>
				<split pos="left">
					<feature> 21 </feature>
					<threshold> 0.98046875 </threshold>
					<split pos="left">
						<feature> 25 </feature>
						<threshold> 0.9765625 </threshold>
						<split pos="left">
							<feature> 17 </feature>
							<threshold> 0.81640625 </threshold>
							<split pos="left">
								<feature> 44 </feature>
								<threshold> 0.4 </threshold>
								<split pos="left">
									<output> -0.21783173 </output>
								</split>
								<split pos="right">
									<feature> 45 </feature>
									<threshold> 0.01953125 </threshold>
									<split pos="left">
										<output> -3.1378446 </output>
									</split>
									<split pos="right">
										<feature> 45 </feature>
										<threshold> 0.12890625 </threshold>
										<split pos="left">
											<output> 0.91695607 </output>
										</split>
										<split pos="right">
											<output> 4.135488E-4 </output>
										</split>
									</split>
								</split>
							</split>
							<split pos="right">
								<output> 0.42968503 </output>
							</split>
						</split>
						<split pos="right">
							<output> 0.6122904 </output>
						</split>
					</split>
					<split pos="right">
						<output> 1.174225 </output>
					</split>
				</split>
				<split pos="right">
					<feature> 43 </feature>
					<threshold> 0.0234375 </threshold>
					<split pos="left">
						<output> 0.6086517 </output>
					</split>
					<split pos="right">
						<output> 0.07079363 </output>
					</split>
				</split>
			</split>
		</split>
	</tree>
	<tree id="22" weight="0.1">
		<split>
			<feature> 21 </feature>
			<threshold> 0.57421875 </threshold>
			<split pos="left">
				<output> -0.34273288 </output>
			</split>
			<split pos="right">
				<feature> 45 </feature>
				<threshold> 0.38671875 </threshold>
				<split pos="left">
					<feature> 1 </feature>
					<threshold> 0.70703125 </threshold>
					<split pos="left">
						<feature> 16 </feature>
						<threshold> 0.01953125 </threshold>
						<split pos="left">
							<output> -0.08178613 </output>
						</split>
						<split pos="right">
							<feature> 30 </feature>
							<threshold> 0.86328125 </threshold>
							<split pos="left">
								<feature> 17 </feature>
								<threshold> 0.703125 </threshold>
								<split pos="left">
									<output> 0.15506952 </output>
								</split>
								<split pos="right">
									<output> 0.7035276 </output>
								</split>
							</split>
							<split pos="right">
								<output> 0.69694525 </output>
							</split>
						</split>
					</split>
					<split pos="right">
						<output> 0.8398533 </output>
					</split>
				</split>
				<split pos="right">
					<feature> 40 </feature>
					<threshold> 0.98046875 </threshold>
					<split pos="left">
						<feature> 32 </feature>
						<threshold> 0.82421875 </threshold>
						<split pos="left">
							<feature> 42 </feature>
							<threshold> 0.17578125 </threshold>
							<split pos="left">
								<output> 0.11900905 </output>
							</split>
							<split pos="right">
								<output> -0.6566978 </output>
							</split>
						</split>
						<split pos="right">
							<output> -0.8329098 </output>
						</split>
					</split>
					<split pos="right">
						<output> 0.6221108 </output>
					</split>
				</split>
			</split>
		</split>
	</tree>
	<tree id="23" weight="0.1">
		<split>
			<feature> 16 </feature>
			<threshold> 0.0078125 </threshold>
			<split pos="left">
				<output> -0.4461623 </output>
			</split>
			<split pos="right">
				<feature> 37 </feature>
				<threshold> 0.8671875 </threshold>
				<split pos="left">
					<feature> 21 </feature>
					<threshold> 0.98046875 </threshold>
					<split pos="left">
						<feature> 21 </feature>
						<threshold> 0.8359375 </threshold>
						<split pos="left">
							<feature> 14 </feature>
							<threshold> 0.3203125 </threshold>
							<split pos="left">
								<feature> 35 </feature>
								<threshold> 0.2890625 </threshold>
								<split pos="left">
									<feature> 33 </feature>
									<threshold> 0.296875 </threshold>
									<split pos="left">
										<feature> 17 </feature>
										<threshold> 0.48046875 </threshold>
										<split pos="left">
											<output> -0.10428572 </output>
										</split>
										<split pos="right">
											<output> 0.29681218 </output>
										</split>
									</split>
									<split pos="right">
										<output> -1.308425 </output>
									</split>
								</split>
								<split pos="right">
									<output> 2.1000242 </output>
								</split>
							</split>
							<split pos="right">
								<output> 0.37753743 </output>
							</split>
						</split>
						<split pos="right">
							<output> -0.41367355 </output>
						</split>
					</split>
					<split pos="right">
						<output> 1.1516885 </output>
					</split>
				</split>
				<split pos="right">
					<feature> 43 </feature>
					<threshold> 0.0234375 </threshold>
					<split pos="left">
						<output> 0.5797962 </output>
					</split>
					<split pos="right">
						<output> 0.0428362 </output>
					</split>
				</split>
			</split>
		</split>
	</tree>
	<tree id="24" weight="0.1">
		<split>
			<feature> 21 </feature>
			<threshold> 0.57421875 </threshold>
			<split pos="left">
				<output> -0.3212668 </output>
			</split>
			<split pos="right">
				<feature> 45 </feature>
				<threshold> 0.390625 </threshold>
				<split pos="left">
					<feature> 1 </feature>
					<threshold> 0.75 </threshold>
					<split pos="left">
						<feature> 17 </feature>
						<threshold> 0.84765625 </threshold>
						<split pos="left">
							<feature> 38 </feature>
							<threshold> 0.7734375 </threshold>
							<split pos="left">
								<feature> 21 </feature>
								<threshold> 0.640625 </threshold>
								<split pos="left">
									<output> 0.6160873 </output>
								</split>
								<split pos="right">
									<output> -0.14512855 </output>
								</split>
							</split>
							<split pos="right">
								<output> 0.2883529 </output>
							</split>
						</split>
						<split pos="right">
							<output> 0.60317254 </output>
						</split>
					</split>
					<split pos="right">
						<output> 0.88187027 </output>
					</split>
				</split>
				<split pos="right">
					<feature> 21 </feature>
					<threshold> 0.9921875 </threshold>
					<split pos="left">
						<feature> 39 </feature>
						<threshold> 0.8984375 </threshold>
						<split pos="left">
							<feature> 32 </feature>
							<threshold> 0.8984375 </threshold>
							<split pos="left">
								<output> 0.07398128 </output>
							</split>
							<split pos="right">
								<output> -0.77112913 </output>
							</split>
						</split>
						<split pos="right">
							<output> -0.633066 </output>
						</split>
					</split>
					<split pos="right">
						<output> 0.5483925 </output>
					</split>
				</split>
			</split>
		</split>
	</tree>
	<tree id="25" weight="0.1">
		<split>
			<feature> 16 </feature>
			<threshold> 0.0078125 </threshold>
			<split pos="left">
				<output> -0.4485226 </output>
			</split>
			<split pos="right">
				<feature> 25 </feature>
				<threshold> 0.9609375 </threshold>
				<split pos="left">
					<feature> 38 </feature>
					<threshold> 0.97265625 </threshold>
					<split pos="left">
						<feature> 29 </feature>
						<threshold> 0.9140625 </threshold>
						<split pos="left">
							<feature> 30 </feature>
							<threshold> 0.94140625 </threshold>
							<split pos="left">
								<feature> 32 </feature>
								<threshold> 0.97265625 </threshold>
								<split pos="left">
									<feature> 15 </feature>
									<threshold> 0.0859375 </threshold>
									<split pos="left">
										<output> -0.19359367 </output>
									</split>
									<split pos="right">
										<feature> 15 </feature>
										<threshold> 0.109375 </threshold>
										<split pos="left">
											<output> 0.7798865 </output>
										</split>
										<split pos="right">
											<feature> 16 </feature>
											<threshold> 0.02734375 </threshold>
											<split pos="left">
												<output> -0.54150003 </output>
											</split>
											<split pos="right">
												<output> 0.07355867 </output>
											</split>
										</split>
									</split>
								</split>
								<split pos="right">
									<output> 1.2144681 </output>
								</split>
							</split>
							<split pos="right">
								<output> -0.912831 </output>
							</split>
						</split>
						<split pos="right">
							<output> 0.48580486 </output>
						</split>
					</split>
					<split pos="right">
						<output> 0.5243347 </output>
					</split>
				</split>
				<split pos="right">
					<output> 0.6024714 </output>
				</split>
			</split>
		</split>
	</tree>
	<tree id="26" weight="0.1">
		<split>
			<feature> 21 </feature>
			<threshold> 0.57421875 </threshold>
			<split pos="left">
				<output> -0.31479275 </output>
			</split>
			<split pos="right">
				<feature> 16 </feature>
				<threshold> 0.01953125 </threshold>
				<split pos="left">
					<feature> 22 </feature>
					<threshold> 0.0 </threshold>
					<split pos="left">
						<output> 2.6986203 </output>
					</split>
					<split pos="right">
						<feature> 1 </feature>
						<threshold> 0.46484375 </threshold>
						<split pos="left">
							<output> -0.08744383 </output>
						</split>
						<split pos="right">
							<output> -3.3513732 </output>
						</split>
					</split>
				</split>
				<split pos="right">
					<feature> 14 </feature>
					<threshold> 0.25390625 </threshold>
					<split pos="left">
						<feature> 45 </feature>
						<threshold> 0.35546875 </threshold>
						<split pos="left">
							<feature> 32 </feature>
							<threshold> 0.99609375 </threshold>
							<split pos="left">
								<feature> 34 </feature>
								<threshold> 0.0 </threshold>
								<split pos="left">
									<feature> 23 </feature>
									<threshold> 0.5234375 </threshold>
									<split pos="left">
										<output> -0.42657766 </output>
									</split>
									<split pos="right">
										<output> 0.36469302 </output>
									</split>
								</split>
								<split pos="right">
									<output> -1.5280441 </output>
								</split>
							</split>
							<split pos="right">
								<output> 0.90848964 </output>
							</split>
						</split>
						<split pos="right">
							<output> -0.18478058 </output>
						</split>
					</split>
					<split pos="right">
						<output> 0.44305217 </output>
					</split>
				</split>
			</split>
		</split>
	</tree>
	<tree id="27" weight="0.1">
		<split>
			<feature> 21 </feature>
			<threshold> 0.57421875 </threshold>
			<split pos="left">
				<output> -0.2900743 </output>
			</split>
			<split pos="right">
				<feature> 1 </feature>
				<threshold> 0.6171875 </threshold>
				<split pos="left">
					<feature> 13 </feature>
					<threshold> 0.54296875 </threshold>
					<split pos="left">
						<feature> 22 </feature>
						<threshold> 0.2890625 </threshold>
						<split pos="left">
							<output> 0.7525137 </output>
						</split>
						<split pos="right">
							<feature> 43 </feature>
							<threshold> 0.0625 </threshold>
							<split pos="left">
								<feature> 33 </feature>
								<threshold> 0.96484375 </threshold>
								<split pos="left">
									<output> 0.03442135 </output>
								</split>
								<split pos="right">
									<output> 1.0852138 </output>
								</split>
							</split>
							<split pos="right">
								<feature> 16 </feature>
								<threshold> 0.05859375 </threshold>
								<split pos="left">
									<output> -0.5111208 </output>
								</split>
								<split pos="right">
									<output> 0.14928958 </output>
								</split>
							</split>
						</split>
					</split>
					<split pos="right">
						<feature> 29 </feature>
						<threshold> 0.3125 </threshold>
						<split pos="left">
							<output> 0.87618047 </output>
						</split>
						<split pos="right">
							<feature> 23 </feature>
							<threshold> 0.78125 </threshold>
							<split pos="left">
								<output> -0.02328853 </output>
							</split>
							<split pos="right">
								<output> 0.48351368 </output>
							</split>
						</split>
					</split>
				</split>
				<split pos="right">
					<output> 0.4760117 </output>
				</split>
			</split>
		</split>
	</tree>
	<tree id="28" weight="0.1">
		<split>
			<feature> 16 </feature>
			<threshold> 0.0234375 </threshold>
			<split pos="left">
				<feature> 1 </feature>
				<threshold> 0.75 </threshold>
				<split pos="left">
					<feature> 22 </feature>
					<threshold> 0.90625 </threshold>
					<split pos="left">
						<output> -0.32531118 </output>
					</split>
					<split pos="right">
						<output> 0.2976381 </output>
					</split>
				</split>
				<split pos="right">
					<output> -2.9035575 </output>
				</split>
			</split>
			<split pos="right">
				<feature> 14 </feature>
				<threshold> 0.31640625 </threshold>
				<split pos="left">
					<feature> 39 </feature>
					<threshold> 0.99609375 </threshold>
					<split pos="left">
						<feature> 38 </feature>
						<threshold> 0.76171875 </threshold>
						<split pos="left">
							<feature> 39 </feature>
							<threshold> 0.90234375 </threshold>
							<split pos="left">
								<feature> 25 </feature>
								<threshold> 0.96875 </threshold>
								<split pos="left">
									<feature> 44 </feature>
									<threshold> 0.4 </threshold>
									<split pos="left">
										<output> -0.21960616 </output>
									</split>
									<split pos="right">
										<output> 0.16937838 </output>
									</split>
								</split>
								<split pos="right">
									<output> 0.99084157 </output>
								</split>
							</split>
							<split pos="right">
								<output> -0.5949858 </output>
							</split>
						</split>
						<split pos="right">
							<output> 0.33100772 </output>
						</split>
					</split>
					<split pos="right">
						<output> -0.8020849 </output>
					</split>
				</split>
				<split pos="right">
					<output> 0.38072178 </output>
				</split>
			</split>
		</split>
	</tree>
	<tree id="29" weight="0.1">
		<split>
			<feature> 16 </feature>
			<threshold> 0.0078125 </threshold>
			<split pos="left">
				<output> -0.41072714 </output>
			</split>
			<split pos="right">
				<feature> 37 </feature>
				<threshold> 0.8828125 </threshold>
				<split pos="left">
					<feature> 34 </feature>
					<threshold> 0.98046875 </threshold>
					<split pos="left">
						<feature> 36 </feature>
						<threshold> 0.453125 </threshold>
						<split pos="left">
							<feature> 11 </feature>
							<threshold> 0.515625 </threshold>
							<split pos="left">
								<feature> 21 </feature>
								<threshold> 0.96484375 </threshold>
								<split pos="left">
									<feature> 37 </feature>
									<threshold> 0.87890625 </threshold>
									<split pos="left">
										<feature> 32 </feature>
										<threshold> 0.90625 </threshold>
										<split pos="left">
											<feature> 14 </feature>
											<threshold> 0.33203125 </threshold>
											<split pos="left">
												<output> -0.13531144 </output>
											</split>
											<split pos="right">
												<output> 0.32956475 </output>
											</split>
										</split>
										<split pos="right">
											<output> 0.4890508 </output>
										</split>
									</split>
									<split pos="right">
										<output> -1.605883 </output>
									</split>
								</split>
								<split pos="right">
									<output> -2.2933095 </output>
								</split>
							</split>
							<split pos="right">
								<output> 0.27513823 </output>
							</split>
						</split>
						<split pos="right">
							<output> -0.73380893 </output>
						</split>
					</split>
					<split pos="right">
						<output> 0.82011807 </output>
					</split>
				</split>
				<split pos="right">
					<output> 0.241747 </output>
				</split>
			</split>
		</split>
	</tree>
	<tree id="30" weight="0.1">
		<split>
			<feature> 21 </feature>
			<threshold> 0.57421875 </threshold>
			<split pos="left">
				<output> -0.28714478 </output>
			</split>
			<split pos="right">
				<feature> 16 </feature>
				<threshold> 0.01953125 </threshold>
				<split pos="left">
					<output> -0.09541914 </output>
				</split>
				<split pos="right">
					<feature> 18 </feature>
					<threshold> 0.08203125 </threshold>
					<split pos="left">
						<output> -0.1222669 </output>
					</split>
					<split pos="right">
						<feature> 18 </feature>
						<threshold> 0.0859375 </threshold>
						<split pos="left">
							<output> 1.3661224 </output>
						</split>
						<split pos="right">
							<feature> 33 </feature>
							<threshold> 0.30078125 </threshold>
							<split pos="left">
								<feature> 33 </feature>
								<threshold> 0.2734375 </threshold>
								<split pos="left">
									<feature> 39 </feature>
									<threshold> 0.99609375 </threshold>
									<split pos="left">
										<feature> 40 </feature>
										<threshold> 0.97265625 </threshold>
										<split pos="left">
											<feature> 11 </feature>
											<threshold> 0.83984375 </threshold>
											<split pos="left">
												<output> 0.12080003 </output>
											</split>
											<split pos="right">
												<output> 0.82915294 </output>
											</split>
										</split>
										<split pos="right">
											<output> 1.0453379 </output>
										</split>
									</split>
									<split pos="right">
										<output> -1.0434868 </output>
									</split>
								</split>
								<split pos="right">
									<output> -1.9148476 </output>
								</split>
							</split>
							<split pos="right">
								<output> 0.5095931 </output>
							</split>
						</split>
					</split>
				</split>
			</split>
		</split>
	</tree>
	<tree id="31" weight="0.1">
		<split>
			<feature> 19 </feature>
			<threshold> 0.129032 </threshold>
			<split pos="left">
				<output> -0.35095322 </output>
			</split>
			<split pos="right">
				<feature> 45 </feature>
				<threshold> 0.37890625 </threshold>
				<split pos="left">
					<feature> 23 </feature>
					<threshold> 0.78515625 </threshold>
					<split pos="left">
						<feature> 39 </feature>
						<threshold> 0.8203125 </threshold>
						<split pos="left">
							<feature> 39 </feature>
							<threshold> 0.8125 </threshold>
							<split pos="left">
								<feature> 27 </feature>
								<threshold> 0.09765625 </threshold>
								<split pos="left">
									<feature> 27 </feature>
									<threshold> 0.015625 </threshold>
									<split pos="left">
										<output> 0.27243274 </output>
									</split>
									<split pos="right">
										<output> 1.1837164 </output>
									</split>
								</split>
								<split pos="right">
									<output> -0.26162034 </output>
								</split>
							</split>
							<split pos="right">
								<output> 0.98297423 </output>
							</split>
						</split>
						<split pos="right">
							<output> -0.63592416 </output>
						</split>
					</split>
					<split pos="right">
						<output> 0.33461335 </output>
					</split>
				</split>
				<split pos="right">
					<feature> 37 </feature>
					<threshold> 0.9453125 </threshold>
					<split pos="left">
						<feature> 39 </feature>
						<threshold> 0.8984375 </threshold>
						<split pos="left">
							<output> -0.1159182 </output>
						</split>
						<split pos="right">
							<output> -0.53838766 </output>
						</split>
					</split>
					<split pos="right">
						<output> 0.29848382 </output>
					</split>
				</split>
			</split>
		</split>
	</tree>
	<tree id="32" weight="0.1">
		<split>
			<feature> 16 </feature>
			<threshold> 0.0078125 </threshold>
			<split pos="left">
				<output> -0.36453593 </output>
			</split>
			<split pos="right">
				<feature> 37 </feature>
				<threshold> 0.8671875 </threshold>
				<split pos="left">
					<feature> 21 </feature>
					<threshold> 0.98046875 </threshold>
					<split pos="left">
						<feature> 21 </feature>
						<threshold> 0.8359375 </threshold>
						<split pos="left">
							<feature> 11 </feature>
							<threshold> 0.703125 </threshold>
							<split pos="left">
								<feature> 1 </feature>
								<threshold> 0.23828125 </threshold>
								<split pos="left">
									<feature> 5 </feature>
									<threshold> 0.10546875 </threshold>
									<split pos="left">
										<output> -0.13769643 </output>
									</split>
									<split pos="right">
										<output> 0.34411004 </output>
									</split>
								</split>
								<split pos="right">
									<output> -0.29201594 </output>
								</split>
							</split>
							<split pos="right">
								<output> 0.31481254 </output>
							</split>
						</split>
						<split pos="right">
							<output> -0.44713297 </output>
						</split>
					</split>
					<split pos="right">
						<output> 1.1169025 </output>
					</split>
				</split>
				<split pos="right">
					<feature> 38 </feature>
					<threshold> 0.0 </threshold>
					<split pos="left">
						<output> 1.9348837 </output>
					</split>
					<split pos="right">
						<feature> 43 </feature>
						<threshold> 0.0234375 </threshold>
						<split pos="left">
							<output> 0.4970806 </output>
						</split>
						<split pos="right">
							<output> 0.018703092 </output>
						</split>
					</split>
				</split>
			</split>
		</split>
	</tree>
	<tree id="33" weight="0.1">
		<split>
			<feature> 37 </feature>
			<threshold> 0.0859375 </threshold>
			<split pos="left">
				<output> -1.0084721 </output>
			</split>
			<split pos="right">
				<feature> 37 </feature>
				<threshold> 0.1015625 </threshold>
				<split pos="left">
					<output> 1.0957521 </output>
				</split>
				<split pos="right">
					<feature> 45 </feature>
					<threshold> 0.42578125 </threshold>
					<split pos="left">
						<feature> 23 </feature>
						<threshold> 0.78515625 </threshold>
						<split pos="left">
							<feature> 39 </feature>
							<threshold> 0.8203125 </threshold>
							<split pos="left">
								<feature> 39 </feature>
								<threshold> 0.8125 </threshold>
								<split pos="left">
									<feature> 27 </feature>
									<threshold> 0.09765625 </threshold>
									<split pos="left">
										<output> 0.18266043 </output>
									</split>
									<split pos="right">
										<output> -0.23354745 </output>
									</split>
								</split>
								<split pos="right">
									<output> 0.6688859 </output>
								</split>
							</split>
							<split pos="right">
								<output> -0.5596725 </output>
							</split>
						</split>
						<split pos="right">
							<output> 0.24136506 </output>
						</split>
					</split>
					<split pos="right">
						<feature> 40 </feature>
						<threshold> 0.98046875 </threshold>
						<split pos="left">
							<feature> 31 </feature>
							<threshold> 0.98828125 </threshold>
							<split pos="left">
								<output> -0.085791394 </output>
							</split>
							<split pos="right">
								<output> -0.7204227 </output>
							</split>
						</split>
						<split pos="right">
							<output> 0.4802929 </output>
						</split>
					</split>
				</split>
			</split>
		</split>
	</tree>
	<tree id="34" weight="0.1">
		<split>
			<feature> 21 </feature>
			<threshold> 0.57421875 </threshold>
			<split pos="left">
				<output> -0.25257295 </output>
			</split>
			<split pos="right">
				<feature> 21 </feature>
				<threshold> 0.640625 </threshold>
				<split pos="left">
					<output> 0.48684597 </output>
				</split>
				<split pos="right">
					<feature> 38 </feature>
					<threshold> 0.76171875 </threshold>
					<split pos="left">
						<feature> 32 </feature>
						<threshold> 0.93359375 </threshold>
						<split pos="left">
							<feature> 21 </feature>
							<threshold> 0.9765625 </threshold>
							<split pos="left">
								<feature> 30 </feature>
								<threshold> 0.9765625 </threshold>
								<split pos="left">
									<feature> 39 </feature>
									<threshold> 0.859375 </threshold>
									<split pos="left">
										<output> -0.0406531 </output>
									</split>
									<split pos="right">
										<output> -0.45244122 </output>
									</split>
								</split>
								<split pos="right">
									<output> 1.7478354 </output>
								</split>
							</split>
							<split pos="right">
								<output> 1.0250602 </output>
							</split>
						</split>
						<split pos="right">
							<output> -0.9016449 </output>
						</split>
					</split>
					<split pos="right">
						<feature> 24 </feature>
						<threshold> 0.61328125 </threshold>
						<split pos="left">
							<output> 0.9054252 </output>
						</split>
						<split pos="right">
							<feature> 45 </feature>
							<threshold> 0.38671875 </threshold>
							<split pos="left">
								<output> 0.2584623 </output>
							</split>
							<split pos="right">
								<output> -0.120942436 </output>
							</split>
						</split>
					</split>
				</split>
			</split>
		</split>
	</tree>
	<tree id="35" weight="0.1">
		<split>
			<feature> 29 </feature>
			<threshold> 0.91796875 </threshold>
			<split pos="left">
				<feature> 16 </feature>
				<threshold> 0.0234375 </threshold>
				<split pos="left">
					<output> -0.22008389 </output>
				</split>
				<split pos="right">
					<feature> 25 </feature>
					<threshold> 0.9765625 </threshold>
					<split pos="left">
						<feature> 17 </feature>
						<threshold> 0.6953125 </threshold>
						<split pos="left">
							<feature> 29 </feature>
							<threshold> 0.87109375 </threshold>
							<split pos="left">
								<feature> 30 </feature>
								<threshold> 0.8828125 </threshold>
								<split pos="left">
									<feature> 39 </feature>
									<threshold> 0.99609375 </threshold>
									<split pos="left">
										<feature> 15 </feature>
										<threshold> 0.5546875 </threshold>
										<split pos="left">
											<feature> 22 </feature>
											<threshold> 0.9921875 </threshold>
											<split pos="left">
												<output> -0.07952938 </output>
											</split>
											<split pos="right">
												<output> 0.9202219 </output>
											</split>
										</split>
										<split pos="right">
											<output> 0.33501816 </output>
										</split>
									</split>
									<split pos="right">
										<output> -0.6950272 </output>
									</split>
								</split>
								<split pos="right">
									<output> 0.50103617 </output>
								</split>
							</split>
							<split pos="right">
								<output> -1.0409014 </output>
							</split>
						</split>
						<split pos="right">
							<output> 0.34644696 </output>
						</split>
					</split>
					<split pos="right">
						<output> 0.7472489 </output>
					</split>
				</split>
			</split>
			<split pos="right">
				<output> 0.35195297 </output>
			</split>
		</split>
	</tree>
	<tree id="36" weight="0.1">
		<split>
			<feature> 19 </feature>
			<threshold> 0.129032 </threshold>
			<split pos="left">
				<output> -0.32142755 </output>
			</split>
			<split pos="right">
				<feature> 45 </feature>
				<threshold> 0.38671875 </threshold>
				<split pos="left">
					<feature> 28 </feature>
					<threshold> 0.75390625 </threshold>
					<split pos="left">
						<feature> 32 </feature>
						<threshold> 0.90625 </threshold>
						<split pos="left">
							<feature> 26 </feature>
							<threshold> 0.890625 </threshold>
							<split pos="left">
								<feature> 38 </feature>
								<threshold> 0.77734375 </threshold>
								<split pos="left">
									<output> 0.07138503 </output>
								</split>
								<split pos="right">
									<output> 0.3656007 </output>
								</split>
							</split>
							<split pos="right">
								<output> 3.1186864 </output>
							</split>
						</split>
						<split pos="right">
							<output> 0.7537456 </output>
						</split>
					</split>
					<split pos="right">
						<output> -0.23077573 </output>
					</split>
				</split>
				<split pos="right">
					<feature> 33 </feature>
					<threshold> 0.96484375 </threshold>
					<split pos="left">
						<feature> 45 </feature>
						<threshold> 0.39453125 </threshold>
						<split pos="left">
							<output> -1.0703267 </output>
						</split>
						<split pos="right">
							<feature> 36 </feature>
							<threshold> 0.30078125 </threshold>
							<split pos="left">
								<output> -0.06008251 </output>
							</split>
							<split pos="right">
								<output> -0.5097071 </output>
							</split>
						</split>
					</split>
					<split pos="right">
						<output> 0.5484431 </output>
					</split>
				</split>
			</split>
		</split>
	</tree>
	<tree id="37" weight="0.1">
		<split>
			<feature> 21 </feature>
			<threshold> 0.58203125 </threshold>
			<split pos="left">
				<output> -0.22899361 </output>
			</split>
			<split pos="right">
				<feature> 21 </feature>
				<threshold> 0.640625 </threshold>
				<split pos="left">
					<output> 0.5043973 </output>
				</split>
				<split pos="right">
					<feature> 13 </feature>
					<threshold> 0.54296875 </threshold>
					<split pos="left">
						<feature> 22 </feature>
						<threshold> 0.0 </threshold>
						<split pos="left">
							<output> 1.3585675 </output>
						</split>
						<split pos="right">
							<feature> 43 </feature>
							<threshold> 0.046875 </threshold>
							<split pos="left">
								<feature> 17 </feature>
								<threshold> 0.81640625 </threshold>
								<split pos="left">
									<feature> 20 </feature>
									<threshold> 0.0546875 </threshold>
									<split pos="left">
										<output> 0.3507271 </output>
									</split>
									<split pos="right">
										<output> -0.2698036 </output>
									</split>
								</split>
								<split pos="right">
									<output> 0.9617959 </output>
								</split>
							</split>
							<split pos="right">
								<output> -0.22943306 </output>
							</split>
						</split>
					</split>
					<split pos="right">
						<feature> 42 </feature>
						<threshold> 0.40234375 </threshold>
						<split pos="left">
							<feature> 29 </feature>
							<threshold> 0.32421875 </threshold>
							<split pos="left">
								<output> 0.7419709 </output>
							</split>
							<split pos="right">
								<output> 0.008827389 </output>
							</split>
						</split>
						<split pos="right">
							<output> 0.76721257 </output>
						</split>
					</split>
				</split>
			</split>
		</split>
	</tree>
	<tree id="38" weight="0.1">
		<split>
			<feature> 19 </feature>
			<threshold> 0.129032 </threshold>
			<split pos="left">
				<output> -0.29841664 </output>
			</split>
			<split pos="right">
				<feature> 45 </feature>
				<threshold> 0.38671875 </threshold>
				<split pos="left">
					<feature> 28 </feature>
					<threshold> 0.20703125 </threshold>
					<split pos="left">
						<feature> 26 </feature>
						<threshold> 0.5078125 </threshold>
						<split pos="left">
							<feature> 32 </feature>
							<threshold> 0.90625 </threshold>
							<split pos="left">
								<feature> 21 </feature>
								<threshold> 0.9609375 </threshold>
								<split pos="left">
									<feature> 38 </feature>
									<threshold> 0.76953125 </threshold>
									<split pos="left">
										<output> 0.13663732 </output>
									</split>
									<split pos="right">
										<output> 0.5712163 </output>
									</split>
								</split>
								<split pos="right">
									<output> -0.5878407 </output>
								</split>
							</split>
							<split pos="right">
								<output> 0.72000235 </output>
							</split>
						</split>
						<split pos="right">
							<output> 1.6883552 </output>
						</split>
					</split>
					<split pos="right">
						<output> -0.06966749 </output>
					</split>
				</split>
				<split pos="right">
					<feature> 33 </feature>
					<threshold> 0.96484375 </threshold>
					<split pos="left">
						<feature> 34 </feature>
						<threshold> 0.98828125 </threshold>
						<split pos="left">
							<output> -0.1314719 </output>
						</split>
						<split pos="right">
							<output> 1.3598881 </output>
						</split>
					</split>
					<split pos="right">
						<output> 0.47540593 </output>
					</split>
				</split>
			</split>
		</split>
	</tree>
	<tree id="39" weight="0.1">
		<split>
			<feature> 29 </feature>
			<threshold> 0.91796875 </threshold>
			<split pos="left">
				<feature> 25 </feature>
				<threshold> 0.9609375 </threshold>
				<split pos="left">
					<feature> 19 </feature>
					<threshold> 0.129032 </threshold>
					<split pos="left">
						<output> -0.39647198 </output>
					</split>
					<split pos="right">
						<feature> 45 </feature>
						<threshold> 0.421875 </threshold>
						<split pos="left">
							<feature> 1 </feature>
							<threshold> 0.765625 </threshold>
							<split pos="left">
								<feature> 5 </feature>
								<threshold> 0.52734375 </threshold>
								<split pos="left">
									<feature> 26 </feature>
									<threshold> 0.5546875 </threshold>
									<split pos="left">
										<feature> 28 </feature>
										<threshold> 0.4296875 </threshold>
										<split pos="left">
											<feature> 28 </feature>
											<threshold> 0.2890625 </threshold>
											<split pos="left">
												<output> 0.19054405 </output>
											</split>
											<split pos="right">
												<output> -0.917529 </output>
											</split>
										</split>
										<split pos="right">
											<output> 0.67505854 </output>
										</split>
									</split>
									<split pos="right">
										<output> -0.22759 </output>
									</split>
								</split>
								<split pos="right">
									<output> -0.66693157 </output>
								</split>
							</split>
							<split pos="right">
								<output> 0.6040125 </output>
							</split>
						</split>
						<split pos="right">
							<output> -0.13385373 </output>
						</split>
					</split>
				</split>
				<split pos="right">
					<output> 0.42607528 </output>
				</split>
			</split>
			<split pos="right">
				<output> 0.31147534 </output>
			</split>
		</split>
	</tree>
	<tree id="40" weight="0.1">
		<split>
			<feature> 16 </feature>
			<threshold> 0.03515625 </threshold>
			<split pos="left">
				<feature> 5 </feature>
				<threshold> 0.1328125 </threshold>
				<split pos="left">
					<feature> 1 </feature>
					<threshold> 0.12890625 </threshold>
					<split pos="left">
						<feature> 38 </feature>
						<threshold> 0.91796875 </threshold>
						<split pos="left">
							<output> -0.19508415 </output>
						</split>
						<split pos="right">
							<output> 0.26471516 </output>
						</split>
					</split>
					<split pos="right">
						<output> 1.076697 </output>
					</split>
				</split>
				<split pos="right">
					<output> -0.60617036 </output>
				</split>
			</split>
			<split pos="right">
				<feature> 25 </feature>
				<threshold> 0.9765625 </threshold>
				<split pos="left">
					<feature> 21 </feature>
					<threshold> 0.85546875 </threshold>
					<split pos="left">
						<feature> 21 </feature>
						<threshold> 0.828125 </threshold>
						<split pos="left">
							<feature> 17 </feature>
							<threshold> 0.6953125 </threshold>
							<split pos="left">
								<feature> 17 </feature>
								<threshold> 0.26953125 </threshold>
								<split pos="left">
									<output> 0.060936376 </output>
								</split>
								<split pos="right">
									<output> -0.38148186 </output>
								</split>
							</split>
							<split pos="right">
								<output> 0.480775 </output>
							</split>
						</split>
						<split pos="right">
							<output> -0.65180206 </output>
						</split>
					</split>
					<split pos="right">
						<output> 0.2687485 </output>
					</split>
				</split>
				<split pos="right">
					<output> 0.7927026 </output>
				</split>
			</split>
		</split>
	</tree>
	<tree id="41" weight="0.1">
		<split>
			<feature> 16 </feature>
			<threshold> 0.0078125 </threshold>
			<split pos="left">
				<output> -0.31639677 </output>
			</split>
			<split pos="right">
				<feature> 33 </feature>
				<threshold> 0.96484375 </threshold>
				<split pos="left">
					<feature> 32 </feature>
					<threshold> 0.90625 </threshold>
					<split pos="left">
						<feature> 32 </feature>
						<threshold> 0.78515625 </threshold>
						<split pos="left">
							<feature> 30 </feature>
							<threshold> 0.3125 </threshold>
							<split pos="left">
								<feature> 34 </feature>
								<threshold> 0.9609375 </threshold>
								<split pos="left">
									<feature> 43 </feature>
									<threshold> 0.46484375 </threshold>
									<split pos="left">
										<feature> 41 </feature>
										<threshold> 0.01953125 </threshold>
										<split pos="left">
											<feature> 40 </feature>
											<threshold> 0.921875 </threshold>
											<split pos="left">
												<output> -0.046144046 </output>
											</split>
											<split pos="right">
												<output> -1.3904375 </output>
											</split>
										</split>
										<split pos="right">
											<output> 0.30440786 </output>
										</split>
									</split>
									<split pos="right">
										<output> -0.4677646 </output>
									</split>
								</split>
								<split pos="right">
									<output> -1.6474051 </output>
								</split>
							</split>
							<split pos="right">
								<output> 0.19910242 </output>
							</split>
						</split>
						<split pos="right">
							<output> -0.33860916 </output>
						</split>
					</split>
					<split pos="right">
						<output> 0.3046571 </output>
					</split>
				</split>
				<split pos="right">
					<output> 0.49736333 </output>
				</split>
			</split>
		</split>
	</tree>
	<tree id="42" weight="0.1">
		<split>
			<feature> 21 </feature>
			<threshold> 0.58203125 </threshold>
			<split pos="left">
				<output> -0.20506093 </output>
			</split>
			<split pos="right">
				<feature> 21 </feature>
				<threshold> 0.609375 </threshold>
				<split pos="left">
					<output> 0.71686935 </output>
				</split>
				<split pos="right">
					<feature> 18 </feature>
					<threshold> 0.65234375 </threshold>
					<split pos="left">
						<feature> 45 </feature>
						<threshold> 0.421875 </threshold>
						<split pos="left">
							<feature> 18 </feature>
							<threshold> 0.64453125 </threshold>
							<split pos="left">
								<feature> 33 </feature>
								<threshold> 0.95703125 </threshold>
								<split pos="left">
									<feature> 1 </feature>
									<threshold> 0.75 </threshold>
									<split pos="left">
										<feature> 11 </feature>
										<threshold> 0.90234375 </threshold>
										<split pos="left">
											<feature> 38 </feature>
											<threshold> 0.0 </threshold>
											<split pos="left">
												<output> 1.3259039 </output>
											</split>
											<split pos="right">
												<output> 0.03141053 </output>
											</split>
										</split>
										<split pos="right">
											<output> -1.2672381 </output>
										</split>
									</split>
									<split pos="right">
										<output> 0.6384583 </output>
									</split>
								</split>
								<split pos="right">
									<output> 0.6422615 </output>
								</split>
							</split>
							<split pos="right">
								<output> -2.7728155 </output>
							</split>
						</split>
						<split pos="right">
							<output> -0.19693719 </output>
						</split>
					</split>
					<split pos="right">
						<output> 0.2628608 </output>
					</split>
				</split>
			</split>
		</split>
	</tree>
	<tree id="43" weight="0.1">
		<split>
			<feature> 16 </feature>
			<threshold> 0.0234375 </threshold>
			<split pos="left">
				<feature> 43 </feature>
				<threshold> 0.0234375 </threshold>
				<split pos="left">
					<output> 0.15548837 </output>
				</split>
				<split pos="right">
					<feature> 30 </feature>
					<threshold> 0.99609375 </threshold>
					<split pos="left">
						<feature> 13 </feature>
						<threshold> 0.84375 </threshold>
						<split pos="left">
							<output> -0.3221722 </output>
						</split>
						<split pos="right">
							<output> -0.77678806 </output>
						</split>
					</split>
					<split pos="right">
						<output> 0.45384333 </output>
					</split>
				</split>
			</split>
			<split pos="right">
				<feature> 14 </feature>
				<threshold> 0.27734375 </threshold>
				<split pos="left">
					<feature> 45 </feature>
					<threshold> 0.3828125 </threshold>
					<split pos="left">
						<feature> 5 </feature>
						<threshold> 0.15234375 </threshold>
						<split pos="left">
							<feature> 5 </feature>
							<threshold> 0.08203125 </threshold>
							<split pos="left">
								<output> 0.030203298 </output>
							</split>
							<split pos="right">
								<output> 0.6454229 </output>
							</split>
						</split>
						<split pos="right">
							<output> -0.10337439 </output>
						</split>
					</split>
					<split pos="right">
						<feature> 12 </feature>
						<threshold> 0.45703125 </threshold>
						<split pos="left">
							<output> -0.25438938 </output>
						</split>
						<split pos="right">
							<output> 0.78078395 </output>
						</split>
					</split>
				</split>
				<split pos="right">
					<output> 0.29919478 </output>
				</split>
			</split>
		</split>
	</tree>
	<tree id="44" weight="0.1">
		<split>
			<feature> 16 </feature>
			<threshold> 0.03515625 </threshold>
			<split pos="left">
				<feature> 5 </feature>
				<threshold> 0.1328125 </threshold>
				<split pos="left">
					<feature> 1 </feature>
					<threshold> 0.12890625 </threshold>
					<split pos="left">
						<feature> 38 </feature>
						<threshold> 0.91796875 </threshold>
						<split pos="left">
							<output> -0.1859567 </output>
						</split>
						<split pos="right">
							<output> 0.27436686 </output>
						</split>
					</split>
					<split pos="right">
						<output> 1.0189217 </output>
					</split>
				</split>
				<split pos="right">
					<output> -0.58232623 </output>
				</split>
			</split>
			<split pos="right">
				<feature> 14 </feature>
				<threshold> 0.27734375 </threshold>
				<split pos="left">
					<feature> 39 </feature>
					<threshold> 0.99609375 </threshold>
					<split pos="left">
						<feature> 37 </feature>
						<threshold> 0.8671875 </threshold>
						<split pos="left">
							<feature> 36 </feature>
							<threshold> 0.0234375 </threshold>
							<split pos="left">
								<feature> 20 </feature>
								<threshold> 0.05859375 </threshold>
								<split pos="left">
									<output> -0.5727353 </output>
								</split>
								<split pos="right">
									<output> 0.046573263 </output>
								</split>
							</split>
							<split pos="right">
								<output> 1.0147913 </output>
							</split>
						</split>
						<split pos="right">
							<output> 0.27264342 </output>
						</split>
					</split>
					<split pos="right">
						<output> -0.6579014 </output>
					</split>
				</split>
				<split pos="right">
					<output> 0.33507082 </output>
				</split>
			</split>
		</split>
	</tree>
	<tree id="45" weight="0.1">
		<split>
			<feature> 38 </feature>
			<threshold> 0.16796875 </threshold>
			<split pos="left">
				<output> -0.49229082 </output>
			</split>
			<split pos="right">
				<feature> 18 </feature>
				<threshold> 0.65234375 </threshold>
				<split pos="left">
					<feature> 18 </feature>
					<threshold> 0.609375 </threshold>
					<split pos="left">
						<feature> 15 </feature>
						<threshold> 0.921875 </threshold>
						<split pos="left">
							<feature> 11 </feature>
							<threshold> 0.82421875 </threshold>
							<split pos="left">
								<feature> 43 </feature>
								<threshold> 0.04296875 </threshold>
								<split pos="left">
									<feature> 37 </feature>
									<threshold> 0.859375 </threshold>
									<split pos="left">
										<feature> 24 </feature>
										<threshold> 0.78125 </threshold>
										<split pos="left">
											<output> 0.14428261 </output>
										</split>
										<split pos="right">
											<output> -0.54121816 </output>
										</split>
									</split>
									<split pos="right">
										<output> 0.39738134 </output>
									</split>
								</split>
								<split pos="right">
									<feature> 16 </feature>
									<threshold> 0.05859375 </threshold>
									<split pos="left">
										<output> -0.23517351 </output>
									</split>
									<split pos="right">
										<output> 0.1475651 </output>
									</split>
								</split>
							</split>
							<split pos="right">
								<output> 0.67564267 </output>
							</split>
						</split>
						<split pos="right">
							<output> -0.45879915 </output>
						</split>
					</split>
					<split pos="right">
						<output> -0.8253298 </output>
					</split>
				</split>
				<split pos="right">
					<output> 0.22658288 </output>
				</split>
			</split>
		</split>
	</tree>
	<tree id="46" weight="0.1">
		<split>
			<feature> 37 </feature>
			<threshold> 0.7890625 </threshold>
			<split pos="left">
				<feature> 43 </feature>
				<threshold> 0.40625 </threshold>
				<split pos="left">
					<feature> 43 </feature>
					<threshold> 0.37890625 </threshold>
					<split pos="left">
						<feature> 19 </feature>
						<threshold> 0.136364 </threshold>
						<split pos="left">
							<output> -0.6225536 </output>
						</split>
						<split pos="right">
							<feature> 43 </feature>
							<threshold> 0.34375 </threshold>
							<split pos="left">
								<feature> 39 </feature>
								<threshold> 0.875 </threshold>
								<split pos="left">
									<feature> 37 </feature>
									<threshold> 0.77734375 </threshold>
									<split pos="left">
										<output> 0.15755539 </output>
									</split>
									<split pos="right">
										<output> -0.7568385 </output>
									</split>
								</split>
								<split pos="right">
									<output> -0.41092563 </output>
								</split>
							</split>
							<split pos="right">
								<output> -1.7265633 </output>
							</split>
						</split>
					</split>
					<split pos="right">
						<output> 1.1556354 </output>
					</split>
				</split>
				<split pos="right">
					<output> -0.41413108 </output>
				</split>
			</split>
			<split pos="right">
				<feature> 38 </feature>
				<threshold> 0.0 </threshold>
				<split pos="left">
					<output> 1.5295074 </output>
				</split>
				<split pos="right">
					<feature> 13 </feature>
					<threshold> 0.64453125 </threshold>
					<split pos="left">
						<output> -0.0037483987 </output>
					</split>
					<split pos="right">
						<output> 0.26204005 </output>
					</split>
				</split>
			</split>
		</split>
	</tree>
	<tree id="47" weight="0.1">
		<split>
			<feature> 38 </feature>
			<threshold> 0.2890625 </threshold>
			<split pos="left">
				<output> -0.32585698 </output>
			</split>
			<split pos="right">
				<feature> 1 </feature>
				<threshold> 0.6171875 </threshold>
				<split pos="left">
					<feature> 5 </feature>
					<threshold> 0.546875 </threshold>
					<split pos="left">
						<feature> 16 </feature>
						<threshold> 0.99609375 </threshold>
						<split pos="left">
							<feature> 19 </feature>
							<threshold> 0.086957 </threshold>
							<split pos="left">
								<output> -0.3045711 </output>
							</split>
							<split pos="right">
								<feature> 45 </feature>
								<threshold> 0.38671875 </threshold>
								<split pos="left">
									<feature> 17 </feature>
									<threshold> 0.86328125 </threshold>
									<split pos="left">
										<feature> 28 </feature>
										<threshold> 0.2890625 </threshold>
										<split pos="left">
											<feature> 26 </feature>
											<threshold> 0.5078125 </threshold>
											<split pos="left">
												<output> 0.20030902 </output>
											</split>
											<split pos="right">
												<output> 1.5950706 </output>
											</split>
										</split>
										<split pos="right">
											<output> -0.14603943 </output>
										</split>
									</split>
									<split pos="right">
										<output> 0.61390907 </output>
									</split>
								</split>
								<split pos="right">
									<output> -0.05910841 </output>
								</split>
							</split>
						</split>
						<split pos="right">
							<output> -2.8724186 </output>
						</split>
					</split>
					<split pos="right">
						<output> -0.95019126 </output>
					</split>
				</split>
				<split pos="right">
					<output> 0.39183593 </output>
				</split>
			</split>
		</split>
	</tree>
	<tree id="48" weight="0.1">
		<split>
			<feature> 16 </feature>
			<threshold> 0.03515625 </threshold>
			<split pos="left">
				<feature> 5 </feature>
				<threshold> 0.1328125 </threshold>
				<split pos="left">
					<feature> 1 </feature>
					<threshold> 0.12890625 </threshold>
					<split pos="left">
						<feature> 38 </feature>
						<threshold> 0.91796875 </threshold>
						<split pos="left">
							<output> -0.16985221 </output>
						</split>
						<split pos="right">
							<output> 0.2703349 </output>
						</split>
					</split>
					<split pos="right">
						<output> 0.8951245 </output>
					</split>
				</split>
				<split pos="right">
					<output> -0.5430943 </output>
				</split>
			</split>
			<split pos="right">
				<feature> 14 </feature>
				<threshold> 0.31640625 </threshold>
				<split pos="left">
					<feature> 39 </feature>
					<threshold> 0.9453125 </threshold>
					<split pos="left">
						<feature> 36 </feature>
						<threshold> 0.0234375 </threshold>
						<split pos="left">
							<feature> 37 </feature>
							<threshold> 0.88671875 </threshold>
							<split pos="left">
								<feature> 39 </feature>
								<threshold> 0.9375 </threshold>
								<split pos="left">
									<output> -0.03529859 </output>
								</split>
								<split pos="right">
									<output> 0.88565385 </output>
								</split>
							</split>
							<split pos="right">
								<output> 0.36985993 </output>
							</split>
						</split>
						<split pos="right">
							<output> 0.94337857 </output>
						</split>
					</split>
					<split pos="right">
						<output> -0.3642045 </output>
					</split>
				</split>
				<split pos="right">
					<output> 0.32077894 </output>
				</split>
			</split>
		</split>
	</tree>
	<tree id="49" weight="0.1">
		<split>
			<feature> 21 </feature>
			<threshold> 0.58203125 </threshold>
			<split pos="left">
				<output> -0.18003139 </output>
			</split>
			<split pos="right">
				<feature> 21 </feature>
				<threshold> 0.609375 </threshold>
				<split pos="left">
					<output> 0.6517821 </output>
				</split>
				<split pos="right">
					<feature> 20 </feature>
					<threshold> 0.2109375 </threshold>
					<split pos="left">
						<feature> 38 </feature>
						<threshold> 0.0 </threshold>
						<split pos="left">
							<output> 1.1986618 </output>
						</split>
						<split pos="right">
							<feature> 5 </feature>
							<threshold> 0.16015625 </threshold>
							<split pos="left">
								<feature> 33 </feature>
								<threshold> 0.9609375 </threshold>
								<split pos="left">
									<feature> 18 </feature>
									<threshold> 0.65234375 </threshold>
									<split pos="left">
										<feature> 11 </feature>
										<threshold> 0.94140625 </threshold>
										<split pos="left">
											<feature> 5 </feature>
											<threshold> 0.12109375 </threshold>
											<split pos="left">
												<output> -0.09806193 </output>
											</split>
											<split pos="right">
												<output> 0.28462175 </output>
											</split>
										</split>
										<split pos="right">
											<output> -1.4486163 </output>
										</split>
									</split>
									<split pos="right">
										<output> 0.31172934 </output>
									</split>
								</split>
								<split pos="right">
									<output> 0.550306 </output>
								</split>
							</split>
							<split pos="right">
								<output> -0.24659961 </output>
							</split>
						</split>
					</split>
					<split pos="right">
						<output> 0.28809768 </output>
					</split>
				</split>
			</split>
		</split>
	</tree>
	<tree id="50" weight="0.1">
		<split>
			<feature> 16 </feature>
			<threshold> 0.05859375 </threshold>
			<split pos="left">
				<feature> 18 </feature>
				<threshold> 0.6796875 </threshold>
				<split pos="left">
					<feature> 43 </feature>
					<threshold> 0.04296875 </threshold>
					<split pos="left">
						<feature> 5 </feature>
						<threshold> 0.109375 </threshold>
						<split pos="left">
							<output> -0.026584333 </output>
						</split>
						<split pos="right">
							<output> 0.5061642 </output>
						</split>
					</split>
					<split pos="right">
						<feature> 1 </feature>
						<threshold> 0.06640625 </threshold>
						<split pos="left">
							<output> -0.17014672 </output>
						</split>
						<split pos="right">
							<output> -0.5801937 </output>
						</split>
					</split>
				</split>
				<split pos="right">
					<output> 0.24759682 </output>
				</split>
			</split>
			<split pos="right">
				<feature> 29 </feature>
				<threshold> 0.7109375 </threshold>
				<split pos="left">
					<feature> 15 </feature>
					<threshold> 0.77734375 </threshold>
					<split pos="left">
						<feature> 11 </feature>
						<threshold> 0.5625 </threshold>
						<split pos="left">
							<feature> 1 </feature>
							<threshold> 0.1640625 </threshold>
							<split pos="left">
								<output> 0.20853792 </output>
							</split>
							<split pos="right">
								<output> -0.16898432 </output>
							</split>
						</split>
						<split pos="right">
							<output> 0.6862683 </output>
						</split>
					</split>
					<split pos="right">
						<output> -0.39752626 </output>
					</split>
				</split>
				<split pos="right">
					<output> 0.48783147 </output>
				</split>
			</split>
		</split>
	</tree>
	<tree id="51" weight="0.1">
		<split>
			<feature> 37 </feature>
			<threshold> 0.7890625 </threshold>
			<split pos="left">
				<feature> 21 </feature>
				<threshold> 0.953125 </threshold>
				<split pos="left">
					<feature> 43 </feature>
					<threshold> 0.18359375 </threshold>
					<split pos="left">
						<feature> 43 </feature>
						<threshold> 0.12890625 </threshold>
						<split pos="left">
							<feature> 44 </feature>
							<threshold> 0.357143 </threshold>
							<split pos="left">
								<output> -0.34705952 </output>
							</split>
							<split pos="right">
								<output> 0.07513772 </output>
							</split>
						</split>
						<split pos="right">
							<output> 0.68921965 </output>
						</split>
					</split>
					<split pos="right">
						<output> -0.2854905 </output>
					</split>
				</split>
				<split pos="right">
					<output> -2.9404933 </output>
				</split>
			</split>
			<split pos="right">
				<feature> 38 </feature>
				<threshold> 0.0 </threshold>
				<split pos="left">
					<output> 1.4587965 </output>
				</split>
				<split pos="right">
					<feature> 42 </feature>
					<threshold> 0.40625 </threshold>
					<split pos="left">
						<feature> 42 </feature>
						<threshold> 0.40234375 </threshold>
						<split pos="left">
							<feature> 42 </feature>
							<threshold> 0.02734375 </threshold>
							<split pos="left">
								<output> 0.17966075 </output>
							</split>
							<split pos="right">
								<output> -0.11747103 </output>
							</split>
						</split>
						<split pos="right">
							<output> -2.5218043 </output>
						</split>
					</split>
					<split pos="right">
						<output> 0.42815033 </output>
					</split>
				</split>
			</split>
		</split>
	</tree>
	<tree id="52" weight="0.1">
		<split>
			<feature> 38 </feature>
			<threshold> 0.16796875 </threshold>
			<split pos="left">
				<output> -0.46094176 </output>
			</split>
			<split pos="right">
				<feature> 16 </feature>
				<threshold> 0.2265625 </threshold>
				<split pos="left">
					<feature> 5 </feature>
					<threshold> 0.1953125 </threshold>
					<split pos="left">
						<feature> 1 </feature>
						<threshold> 0.23046875 </threshold>
						<split pos="left">
							<feature> 34 </feature>
							<threshold> 0.98046875 </threshold>
							<split pos="left">
								<feature> 17 </feature>
								<threshold> 0.8515625 </threshold>
								<split pos="left">
									<feature> 34 </feature>
									<threshold> 0.6015625 </threshold>
									<split pos="left">
										<feature> 17 </feature>
										<threshold> 0.30078125 </threshold>
										<split pos="left">
											<feature> 17 </feature>
											<threshold> 0.19140625 </threshold>
											<split pos="left">
												<output> 0.0037203568 </output>
											</split>
											<split pos="right">
												<output> 0.37037975 </output>
											</split>
										</split>
										<split pos="right">
											<output> -0.22178033 </output>
										</split>
									</split>
									<split pos="right">
										<output> -0.629241 </output>
									</split>
								</split>
								<split pos="right">
									<output> 0.37765175 </output>
								</split>
							</split>
							<split pos="right">
								<output> 0.42089894 </output>
							</split>
						</split>
						<split pos="right">
							<output> 1.415557 </output>
						</split>
					</split>
					<split pos="right">
						<output> -0.22500286 </output>
					</split>
				</split>
				<split pos="right">
					<output> 0.22936235 </output>
				</split>
			</split>
		</split>
	</tree>
	<tree id="53" weight="0.1">
		<split>
			<feature> 37 </feature>
			<threshold> 0.7890625 </threshold>
			<split pos="left">
				<feature> 39 </feature>
				<threshold> 0.99609375 </threshold>
				<split pos="left">
					<feature> 43 </feature>
					<threshold> 0.46484375 </threshold>
					<split pos="left">
						<feature> 19 </feature>
						<threshold> 0.15625 </threshold>
						<split pos="left">
							<output> -0.3840389 </output>
						</split>
						<split pos="right">
							<feature> 19 </feature>
							<threshold> 0.277778 </threshold>
							<split pos="left">
								<output> 0.29154834 </output>
							</split>
							<split pos="right">
								<output> -0.026207909 </output>
							</split>
						</split>
					</split>
					<split pos="right">
						<output> -0.3761154 </output>
					</split>
				</split>
				<split pos="right">
					<output> -1.1771868 </output>
				</split>
			</split>
			<split pos="right">
				<feature> 38 </feature>
				<threshold> 0.0 </threshold>
				<split pos="left">
					<output> 1.4365308 </output>
				</split>
				<split pos="right">
					<feature> 13 </feature>
					<threshold> 0.64453125 </threshold>
					<split pos="left">
						<feature> 30 </feature>
						<threshold> 0.79296875 </threshold>
						<split pos="left">
							<feature> 41 </feature>
							<threshold> 0.00390625 </threshold>
							<split pos="left">
								<output> -0.18101594 </output>
							</split>
							<split pos="right">
								<output> 0.18458858 </output>
							</split>
						</split>
						<split pos="right">
							<output> -1.0916743 </output>
						</split>
					</split>
					<split pos="right">
						<output> 0.23104736 </output>
					</split>
				</split>
			</split>
		</split>
	</tree>
	<tree id="54" weight="0.1">
		<split>
			<feature> 16 </feature>
			<threshold> 0.05859375 </threshold>
			<split pos="left">
				<feature> 20 </feature>
				<threshold> 0.08203125 </threshold>
				<split pos="left">
					<feature> 39 </feature>
					<threshold> 0.91796875 </threshold>
					<split pos="left">
						<feature> 22 </feature>
						<threshold> 0.96875 </threshold>
						<split pos="left">
							<feature> 39 </feature>
							<threshold> 0.890625 </threshold>
							<split pos="left">
								<feature> 21 </feature>
								<threshold> 0.9765625 </threshold>
								<split pos="left">
									<feature> 18 </feature>
									<threshold> 0.76953125 </threshold>
									<split pos="left">
										<output> -0.14167942 </output>
									</split>
									<split pos="right">
										<output> 0.2959888 </output>
									</split>
								</split>
								<split pos="right">
									<output> -0.7064869 </output>
								</split>
							</split>
							<split pos="right">
								<output> -0.7454009 </output>
							</split>
						</split>
						<split pos="right">
							<output> 0.2732834 </output>
						</split>
					</split>
					<split pos="right">
						<output> 0.33925644 </output>
					</split>
				</split>
				<split pos="right">
					<output> -1.8558817 </output>
				</split>
			</split>
			<split pos="right">
				<feature> 29 </feature>
				<threshold> 0.7109375 </threshold>
				<split pos="left">
					<feature> 15 </feature>
					<threshold> 0.77734375 </threshold>
					<split pos="left">
						<output> 0.10623108 </output>
					</split>
					<split pos="right">
						<output> -0.37002414 </output>
					</split>
				</split>
				<split pos="right">
					<output> 0.44414365 </output>
				</split>
			</split>
		</split>
	</tree>
	<tree id="55" weight="0.1">
		<split>
			<feature> 24 </feature>
			<threshold> 0.19140625 </threshold>
			<split pos="left">
				<output> -0.39460453 </output>
			</split>
			<split pos="right">
				<feature> 45 </feature>
				<threshold> 0.40625 </threshold>
				<split pos="left">
					<feature> 17 </feature>
					<threshold> 0.84765625 </threshold>
					<split pos="left">
						<feature> 1 </feature>
						<threshold> 0.76171875 </threshold>
						<split pos="left">
							<feature> 5 </feature>
							<threshold> 0.15234375 </threshold>
							<split pos="left">
								<feature> 1 </feature>
								<threshold> 0.10546875 </threshold>
								<split pos="left">
									<feature> 15 </feature>
									<threshold> 0.04296875 </threshold>
									<split pos="left">
										<output> 0.22120444 </output>
									</split>
									<split pos="right">
										<output> -0.10152402 </output>
									</split>
								</split>
								<split pos="right">
									<output> 0.47878876 </output>
								</split>
							</split>
							<split pos="right">
								<output> -0.17439023 </output>
							</split>
						</split>
						<split pos="right">
							<output> 0.6722607 </output>
						</split>
					</split>
					<split pos="right">
						<output> 0.40197906 </output>
					</split>
				</split>
				<split pos="right">
					<feature> 18 </feature>
					<threshold> 0.17578125 </threshold>
					<split pos="left">
						<output> -0.34096238 </output>
					</split>
					<split pos="right">
						<feature> 41 </feature>
						<threshold> 0.02734375 </threshold>
						<split pos="left">
							<output> 0.23625925 </output>
						</split>
						<split pos="right">
							<output> -0.24713731 </output>
						</split>
					</split>
				</split>
			</split>
		</split>
	</tree>
	<tree id="56" weight="0.1">
		<split>
			<feature> 16 </feature>
			<threshold> 0.0078125 </threshold>
			<split pos="left">
				<output> -0.25551686 </output>
			</split>
			<split pos="right">
				<feature> 33 </feature>
				<threshold> 0.96484375 </threshold>
				<split pos="left">
					<feature> 36 </feature>
					<threshold> 0.51171875 </threshold>
					<split pos="left">
						<feature> 33 </feature>
						<threshold> 0.31640625 </threshold>
						<split pos="left">
							<feature> 38 </feature>
							<threshold> 0.96484375 </threshold>
							<split pos="left">
								<feature> 40 </feature>
								<threshold> 0.953125 </threshold>
								<split pos="left">
									<feature> 40 </feature>
									<threshold> 0.94140625 </threshold>
									<split pos="left">
										<feature> 40 </feature>
										<threshold> 0.9375 </threshold>
										<split pos="left">
											<feature> 24 </feature>
											<threshold> 0.98828125 </threshold>
											<split pos="left">
												<output> -0.006576001 </output>
											</split>
											<split pos="right">
												<output> 1.3166925 </output>
											</split>
										</split>
										<split pos="right">
